{"learner":{"attributes":{"scikit_learn":"{\"_estimator_type\": \"classifier\"}"},"feature_names":["escenario","latitud","longitud","t2m","d2m","u10","v10","tp","ssrd","stl1","stl2","stl3","stl4","swvl1","swvl2","swvl3","swvl4","pev","e","evavt","lai_hv","lai_lv","t2m_celsius","d2m_celsius","relative_humidity","vpd_hpa","wind_speed","wind_direction","tp_mm","stl1_celsius","stl2_celsius","stl3_celsius","stl4_celsius","cvh","cvl","lsm","slt","tvh","tvl","fli_estimado_kw_m"],"feature_types":["int","float","float","float","float","float","float","float","float","float","float","float","float","float","float","float","float","float","float","float","float","float","float","float","float","float","float","float","float","float","float","float","float","float","float","float","float","float","float","float"],"gradient_booster":{"model":{"cats":{"enc":[],"feature_segments":[],"sorted_idx":[]},"gbtree_model_param":{"num_parallel_tree":"1","num_trees":"100"},"iteration_indptr":[0,1,2,3,4,5,6,7,8,9,10,11,12,13,14,15,16,17,18,19,20,21,22,23,24,25,26,27,28,29,30,31,32,33,34,35,36,37,38,39,40,41,42,43,44,45,46,47,48,49,50,51,52,53,54,55,56,57,58,59,60,61,62,63,64,65,66,67,68,69,70,71,72,73,74,75,76,77,78,79,80,81,82,83,84,85,86,87,88,89,90,91,92,93,94,95,96,97,98,99,100],"tree_info":[0,0,0,0,0,0,0,0,0,0,0,0,0,0,0,0,0,0,0,0,0,0,0,0,0,0,0,0,0,0,0,0,0,0,0,0,0,0,0,0,0,0,0,0,0,0,0,0,0,0,0,0,0,0,0,0,0,0,0,0,0,0,0,0,0,0,0,0,0,0,0,0,0,0,0,0,0,0,0,0,0,0,0,0,0,0,0,0,0,0,0,0,0,0,0,0,0,0,0,0],"trees":[{"base_weights":[1.1561037E-8,-9.0566534E-1,1.866631E0,-1.872101E0,-7.876729E-3,-5.7560116E-1,1.9188339E0,8.989044E-1,-6.019803E-1,-1.0735428E0,3.8328075E-1,1.9287015E0,-4.818975E-1,-5.726265E-1,5.70781E-1,-1.8814453E-1,-5.9972006E-1,-5.959139E-1,5.712949E-1,1.9367557E0,-4.6063706E-1,5.451148E-1,-5.9370637E-1,-5.9540975E-1,7.7402735E-1,1.9442196E0,-4.5177853E-1,-5.7727444E-1,2.833704E-1,4.2466852E-1,1.00193076E-1,-4.0158042E-1,5.847634E-1],"categories":[],"categories_nodes":[],"categories_segments":[],"categories_sizes":[],"default_left":[1,0,1,0,0,0,0,0,0,0,0,0,0,0,0,0,0,0,0,0,0,0,0,0,0,0,0,0,0,0,0,0,0],"id":0,"left_children":[1,3,5,7,9,-1,11,13,-1,15,17,19,-1,-1,-1,21,-1,-1,23,25,-1,27,-1,-1,29,31,-1,-1,-1,-1,-1,-1,-1],"loss_changes":[8.368902E3,2.892051E3,3.2325146E2,6.0007227E2,7.2112225E2,0E0,5.8605957E1,2.1498166E2,0E0,3.8025592E2,5.649437E2,4.7384277E1,0E0,0E0,0E0,3.1426666E2,0E0,0E0,6.0948486E2,4.3745605E1,0E0,1.6950214E2,0E0,0E0,3.0660248E2,2.8588867E1,0E0,0E0,0E0,0E0,0E0,0E0,0E0],"parents":[2147483647,0,0,1,1,2,2,3,3,4,4,6,6,7,7,9,9,10,10,11,11,15,15,18,18,19,19,21,21,24,24,25,25],"right_children":[2,4,6,8,10,-1,12,14,-1,16,18,20,-1,-1,-1,22,-1,-1,24,26,-1,28,-1,-1,30,32,-1,-1,-1,-1,-1,-1,-1],"split_conditions":[4.5411765E2,2.985149E2,2.9405493E2,-4.644562E0,5.0001373E0,-5.7560116E-1,2.951355E-1,-3.533389E1,-6.019803E-1,-3.3525555E1,-7.2728615E1,2.8780957E2,-4.818975E-1,-5.726265E-1,5.70781E-1,4E0,-5.9972006E-1,-5.959139E-1,3.6171875E0,3.4991455E0,-4.6063706E-1,9.5377904E-1,-5.9370637E-1,-5.9540975E-1,-3.3726387E1,-3.8255554E1,-4.5177853E-1,-5.7727444E-1,2.833704E-1,4.2466852E-1,1.00193076E-1,-4.0158042E-1,5.847634E-1],"split_indices":[39,10,10,6,37,0,15,1,0,1,2,4,0,0,0,0,0,0,20,21,0,34,0,0,1,1,0,0,0,0,0,0,0],"split_type":[0,0,0,0,0,0,0,0,0,0,0,0,0,0,0,0,0,0,0,0,0,0,0,0,0,0,0,0,0,0,0,0,0],"sum_hessian":[4.948423E3,3.3321982E3,1.6162249E3,1.6042251E3,1.7279731E3,2.1499666E1,1.5947252E3,7.399885E1,1.5302262E3,4.634928E2,1.2644803E3,1.5907252E3,3.9999378E0,1.92497E1,5.474915E1,2.374963E2,2.2599649E2,9.2248566E1,1.1722318E3,1.5874753E3,3.2499495E0,1.6899738E2,6.849893E1,8.549867E1,1.0867332E3,1.5844753E3,2.9999533E0,2.2999641E1,1.4599773E2,4.4124313E2,6.4549E2,1.9999689E0,1.5824755E3],"tree_param":{"num_deleted":"0","num_feature":"40","num_nodes":"33","size_leaf_vector":"1"}},{"base_weights":[-1.8478879E-3,-6.846267E-1,1.4405167E0,-1.446642E0,-9.937916E-3,-4.4750792E-1,1.4813074E0,6.90205E-1,-4.6528625E-1,-8.163572E-1,2.7576083E-1,-5.092809E-1,1.4885356E0,4.423273E-1,-4.587617E-1,-1.466402E-1,-4.637557E-1,-9.0351635E-1,5.145823E-1,1.4966955E0,-3.8902092E-1,-6.9291335E-1,1.4812256E0,-1.7969497E0,1.289361E-1,-4.6085218E-1,6.873003E-1,1.5023239E0,-3.549579E-1,-5.461724E-1,2.334124E-1,-4.3307507E-1,4.9397835E-1,-4.5902327E-1,-6.251223E-1,4.28809E-1,-6.183631E-1,2.7037036E-1,-1.9207145E-1,-3.5232458E-1,4.522653E-1],"categories":[],"categories_nodes":[],"categories_segments":[],"categories_sizes":[],"default_left":[1,0,1,0,0,0,0,0,0,0,0,0,0,0,0,0,0,0,0,0,0,0,0,0,0,0,0,0,0,0,0,0,0,0,0,0,0,0,0,0,0],"id":1,"left_children":[1,3,5,7,9,-1,11,13,-1,15,17,-1,19,-1,-1,21,-1,23,25,27,-1,29,31,33,35,-1,37,39,-1,-1,-1,-1,-1,-1,-1,-1,-1,-1,-1,-1,-1],"loss_changes":[4.5481987E3,1.6115148E3,1.796831E2,3.291753E2,3.8349042E2,0E0,3.616504E1,1.2270468E2,0E0,2.125062E2,3.4662344E2,0E0,3.5148926E1,0E0,0E0,2.0388644E2,0E0,1.9150114E2,3.6331348E2,2.3759277E1,0E0,2.8586664E2,3.0254257E1,5.324768E0,2.7957437E2,0E0,2.6867468E2,2.2124756E1,0E0,0E0,0E0,0E0,0E0,0E0,0E0,0E0,0E0,0E0,0E0,0E0,0E0],"parents":[2147483647,0,0,1,1,2,2,3,3,4,4,6,6,7,7,9,9,10,10,12,12,15,15,17,17,18,18,19,19,21,21,22,22,23,23,24,24,26,26,27,27],"right_children":[2,4,6,8,10,-1,12,14,-1,16,18,-1,20,-1,-1,22,-1,24,26,28,-1,30,32,34,36,-1,38,40,-1,-1,-1,-1,-1,-1,-1,-1,-1,-1,-1,-1,-1],"split_conditions":[4.5411765E2,2.985149E2,2.9405493E2,-4.644562E0,5.0001373E0,-4.4750792E-1,1.644043E0,-8.693822E-3,-4.6528625E-1,-3.3525555E1,3.9674668E-4,-5.092809E-1,3.4991455E0,4.423273E-1,-4.587617E-1,-3.3548332E1,-4.637557E-1,-7.118166E1,3.6171875E0,2.8780957E2,-3.8902092E-1,1.2482261E-2,-7.156389E1,-7.27375E1,-7.116639E1,-4.6085218E-1,-7.081528E1,-3.8255554E1,-3.549579E-1,-5.461724E-1,2.334124E-1,-4.3307507E-1,4.9397835E-1,-4.5902327E-1,-6.251223E-1,4.28809E-1,-6.183631E-1,2.7037036E-1,-1.9207145E-1,-3.5232458E-1,4.522653E-1],"split_indices":[39,10,10,6,37,0,21,17,0,1,33,0,21,0,0,1,0,2,20,4,0,33,2,2,2,0,2,1,0,0,0,0,0,0,0,0,0,0,0,0,0],"split_type":[0,0,0,0,0,0,0,0,0,0,0,0,0,0,0,0,0,0,0,0,0,0,0,0,0,0,0,0,0,0,0,0,0,0,0,0,0,0,0,0,0],"sum_hessian":[4.6163223E3,3.133519E3,1.4828031E3,1.4709906E3,1.6625286E3,1.9856588E1,1.4629464E3,6.820406E1,1.4027865E3,4.344326E2,1.228096E3,2.7883842E0,1.4601581E3,5.064466E1,1.7559406E1,2.2712253E2,2.0731007E2,2.0635446E2,1.0217415E3,1.4563541E3,3.8039505E0,1.7048586E2,5.6636665E1,1.1022807E2,9.612639E1,7.875501E1,9.429865E2,1.4537404E3,2.6137497E0,9.6369514E1,7.411634E1,2.617236E0,5.401943E1,6.0378407E1,4.9849663E1,6.053207E1,3.559432E1,8.1239014E2,1.3059639E2,2.3973923E0,1.451343E3],"tree_param":{"num_deleted":"0","num_feature":"40","num_nodes":"41","size_leaf_vector":"1"}},{"base_weights":[-5.1766206E-3,-5.648929E-1,1.2374616E0,-1.2540095E0,-1.4947776E-2,-3.8572174E-1,1.2729326E0,5.837784E-1,-4.036557E-1,7.535442E-2,-1.6385533E0,1.2811308E0,-4.6653387E-1,-3.9231375E-1,3.8090438E-1,3.488552E-1,-5.3490126E-1,-4.099191E-1,-7.7377445E-1,1.2872554E0,-3.1702608E-1,-5.785126E-1,6.689452E-1,7.314228E-1,-1.1205524E0,-3.7809512E-1,1.2918175E0,2.8400615E-1,-5.0798154E-1,-4.081951E-1,2.3219918E-1,4.250371E-1,-5.17483E-1,-5.072255E-1,8.7603085E-2,3.8910195E-1,-3.009107E-1],"categories":[],"categories_nodes":[],"categories_segments":[],"categories_sizes":[],"default_left":[1,0,1,0,1,0,0,0,0,0,0,0,0,0,0,0,0,0,0,0,0,0,0,0,0,0,0,0,0,0,0,0,0,0,0,0,0],"id":2,"left_children":[1,3,5,7,9,-1,11,13,-1,15,17,19,-1,-1,-1,21,23,-1,-1,25,-1,27,29,31,33,-1,35,-1,-1,-1,-1,-1,-1,-1,-1,-1,-1],"loss_changes":[2.7936055E3,1.0494465E3,1.13273315E2,2.0748499E2,2.2607741E2,0E0,3.052185E1,7.819829E1,0E0,2.4401758E2,1.72753E1,1.8937012E1,0E0,0E0,0E0,3.0001492E2,3.364083E2,0E0,0E0,1.5862915E1,0E0,4.4287915E2,1.6114398E2,2.4436642E2,2.5002289E2,0E0,1.5865356E1,0E0,0E0,0E0,0E0,0E0,0E0,0E0,0E0,0E0,0E0],"parents":[2147483647,0,0,1,1,2,2,3,3,4,4,6,6,7,7,9,9,10,10,11,11,15,15,16,16,19,19,21,21,22,22,23,23,24,24,26,26],"right_children":[2,4,6,8,10,-1,12,14,-1,16,18,20,-1,-1,-1,22,24,-1,-1,26,-1,28,30,32,34,-1,36,-1,-1,-1,-1,-1,-1,-1,-1,-1,-1],"split_conditions":[4.5411765E2,2.985149E2,2.9405493E2,-4.644562E0,2.8350952E2,-3.8572174E-1,2.7912903E-1,-3.533389E1,-4.036557E-1,-3.3170834E1,3.6171875E0,2.8780957E2,-4.6653387E-1,-3.9231375E-1,3.8090438E-1,7.894801E-1,9.1505045E-1,-4.099191E-1,-7.7377445E-1,1.644043E0,-3.1702608E-1,-4.38875E1,3.5566406E0,-3.285361E1,-3.197139E1,-3.7809512E-1,3.4991455E0,2.8400615E-1,-5.0798154E-1,-4.081951E-1,2.3219918E-1,4.250371E-1,-5.17483E-1,-5.072255E-1,8.7603085E-2,3.8910195E-1,-3.009107E-1],"split_indices":[39,10,10,6,4,0,14,1,0,1,20,4,0,0,0,34,34,0,0,21,0,1,20,1,1,0,21,0,0,0,0,0,0,0,0,0,0],"split_type":[0,0,0,0,0,0,0,0,0,0,0,0,0,0,0,0,0,0,0,0,0,0,0,0,0,0,0,0,0,0,0,0,0,0,0,0,0],"sum_hessian":[4.0145386E3,2.7682107E3,1.246328E3,1.2280742E3,1.5401364E3,1.6789293E1,1.2295387E3,5.799425E1,1.17008E3,1.4598932E3,8.02432E1,1.2265302E3,3.00856E0,1.5192329E1,4.280192E1,1.00838806E3,4.515051E2,6.413932E1,1.6103876E1,1.2237736E3,2.7565882E0,2.5853903E2,7.4984906E2,1.42701E2,3.0880408E2,1.6955214E0,1.222078E3,1.09235344E2,1.4930368E2,3.6313988E1,7.135351E2,1.1190175E2,3.0799253E1,2.1985846E2,8.894564E1,1.2197548E3,2.323224E0],"tree_param":{"num_deleted":"0","num_feature":"40","num_nodes":"37","size_leaf_vector":"1"}},{"base_weights":[-9.054595E-3,-4.8448613E-1,1.1133506E0,-1.1454607E0,-2.0346278E-2,-3.4836707E-1,1.1456805E0,5.1789385E-1,-3.6906436E-1,-6.574438E-1,1.7882884E-1,1.1551932E0,-3.996907E-1,3.4141544E-1,-3.6710975E-1,-1.8807107E-1,-1.3401837E0,-1.4992455E0,2.58668E-1,7.05063E-1,1.1917088E0,2.7552214E-1,-3.9437294E-1,-4.5076692E-1,-3.6513463E-1,-3.6205822E-1,-8.946834E-1,3.456304E-1,-1.4074402E0,-2.9970994E0,3.6398602E-1,1.196483E0,-4.6857843E-1,-7.433787E-2,3.5211888E-1,1.2411687E-1,-5.094183E-1,-3.583104E-1,-5.194194E-1,-1.0686609E0,-3.0063012E-1,-2.662018E-1,3.600193E-1],"categories":[],"categories_nodes":[],"categories_segments":[],"categories_sizes":[],"default_left":[1,0,1,0,0,0,0,0,0,0,0,0,0,0,0,0,0,0,1,0,0,0,0,0,0,0,0,0,0,0,0,0,0,0,0,0,0,0,0,0,0,0,0],"id":3,"left_children":[1,3,5,7,9,-1,11,13,-1,15,17,19,-1,-1,-1,21,23,25,27,29,31,33,-1,-1,-1,-1,-1,35,37,39,-1,41,-1,-1,-1,-1,-1,-1,-1,-1,-1,-1,-1],"loss_changes":[1.809798E3,7.30848E2,7.553882E1,1.3918347E2,1.7784404E2,0E0,2.5005127E1,5.3615215E1,0E0,1.06714935E2,1.4344716E2,1.546875E1,0E0,0E0,0E0,1.0427133E2,8.853607E-1,1.7493355E1,1.4829538E2,1.4832672E2,1.3915039E1,6.6936554E1,0E0,0E0,0E0,0E0,0E0,1.3573663E2,1.4387894E0,7.2200317E0,0E0,7.895508E0,0E0,0E0,0E0,0E0,0E0,0E0,0E0,0E0,0E0,0E0,0E0],"parents":[2147483647,0,0,1,1,2,2,3,3,4,4,6,6,7,7,9,9,10,10,11,11,15,15,16,16,17,17,18,18,19,19,20,20,21,21,27,27,28,28,29,29,31,31],"right_children":[2,4,6,8,10,-1,12,14,-1,16,18,20,-1,-1,-1,22,24,26,28,30,32,34,-1,-1,-1,-1,-1,36,38,40,-1,42,-1,-1,-1,-1,-1,-1,-1,-1,-1,-1,-1],"split_conditions":[4.5411765E2,2.985149E2,2.9405493E2,-4.644562E0,5.0001373E0,-3.4836707E-1,2.951355E-1,-8.693822E-3,-3.6906436E-1,9.996643E-1,1.8692872E-1,9.2E2,-3.996907E-1,3.4141544E-1,-3.6710975E-1,4E0,-3.3170834E1,6.5884364E-1,2.8354468E2,2.7159412E7,1.716613E-6,2.472037E-3,-3.9437294E-1,-4.5076692E-1,-3.6513463E-1,-3.6205822E-1,-8.946834E-1,-3.063889E1,3.6171875E0,2.8612524E2,3.6398602E-1,1.644043E0,-4.6857843E-1,-7.433787E-2,3.5211888E-1,1.2411687E-1,-5.094183E-1,-3.583104E-1,-5.194194E-1,-1.0686609E0,-3.0063012E-1,-2.662018E-1,3.600193E-1],"split_indices":[39,10,10,6,37,0,15,17,0,35,34,39,0,0,0,0,1,35,4,8,7,33,0,0,0,0,0,1,20,4,0,21,0,0,0,0,0,0,0,0,0,0,0],"split_type":[0,0,0,0,0,0,0,0,0,0,0,0,0,0,0,0,0,0,0,0,0,0,0,0,0,0,0,0,0,0,0,0,0,0,0,0,0,0,0,0,0,0,0],"sum_hessian":[3.389494E3,2.3813594E3,1.00813446E3,9.81769E2,1.3995903E3,1.36390705E1,9.944954E2,4.735147E1,9.3441754E2,3.327925E2,1.0667979E3,9.9122406E2,3.2713687E0,3.5173286E1,1.2178183E1,1.979681E2,1.3482443E2,4.764333E1,1.0191545E3,7.590054E1,9.153235E2,1.4078568E2,5.7182423E1,5.3296963E1,8.1527466E1,4.1312256E1,6.3310714E0,9.6935175E2,4.98027E1,8.570609E0,6.732993E1,9.143038E2,1.0196964E0,8.94148E1,5.137087E1,9.388678E2,3.0483978E1,3.2870224E1,1.6932478E1,6.066614E0,2.5039947E0,1.1453015E0,9.131585E2],"tree_param":{"num_deleted":"0","num_feature":"40","num_nodes":"43","size_leaf_vector":"1"}},{"base_weights":[-1.2292183E-2,-4.137715E-1,1.0303632E0,-1.0771847E0,-2.4352895E-2,-3.224549E-1,1.0607262E0,4.660551E-1,-3.475455E-1,-1.11517996E-1,1.1867064E0,1.0703217E0,-3.4232417E-1,-3.3677974E-1,3.1485373E-1,-1.5143253E0,3.1877115E-2,3.9681372E-1,-3.8525948E-1,1.0775871E0,-2.877774E-1,-1.4242498E0,-9.3234813E-1,1.1083825E0,-1.7042889E-1,6.5270144E-1,1.1134272E0,-3.8688323E-1,-6.1057985E-1,-3.520856E-1,3.6926252E-1,-4.4374728E-1,-1.0466368E-2,-5.6887484E-1,3.400168E-1,-2.3382491E-1,3.3519346E-1],"categories":[],"categories_nodes":[],"categories_segments":[],"categories_sizes":[],"default_left":[1,0,1,0,1,0,0,0,0,0,0,0,0,0,0,0,0,0,0,0,0,1,0,0,0,0,0,0,0,0,0,0,0,0,0,0,0],"id":4,"left_children":[1,3,5,7,9,-1,11,13,-1,15,17,19,-1,-1,-1,21,23,-1,-1,25,-1,27,-1,29,31,33,35,-1,-1,-1,-1,-1,-1,-1,-1,-1,-1],"loss_changes":[1.202622E3,5.358376E2,5.2193237E1,9.679498E1,1.3821103E2,0E0,1.7866394E1,3.742673E1,0E0,2.4568416E2,3.1241287E1,1.2608337E1,0E0,0E0,0E0,1.1831665E1,2.4167929E2,0E0,0E0,1.1190796E1,0E0,6.3467712E0,0E0,5.0516403E1,1.65681E2,7.9703064E1,6.167053E0,0E0,0E0,0E0,0E0,0E0,0E0,0E0,0E0,0E0,0E0],"parents":[2147483647,0,0,1,1,2,2,3,3,4,4,6,6,7,7,9,9,10,10,11,11,15,15,16,16,19,19,21,21,23,23,24,24,25,25,26,26],"right_children":[2,4,6,8,10,-1,12,14,-1,16,18,20,-1,-1,-1,22,24,-1,-1,26,-1,28,-1,30,32,34,36,-1,-1,-1,-1,-1,-1,-1,-1,-1,-1],"split_conditions":[4.5411765E2,2.985149E2,2.9405493E2,-4.644562E0,-7.736497E-6,-3.224549E-1,2.951355E-1,-3.533389E1,-3.475455E-1,-7.194444E1,1.6133118E-1,3.4991455E0,-3.4232417E-1,-3.3677974E-1,3.1485373E-1,8.1307125E-1,-7.1735275E1,3.9681372E-1,-3.8525948E-1,9.2E2,-2.877774E-1,3.8779297E0,-9.3234813E-1,3.0195117E2,-7.156389E1,2.7159412E7,1.644043E0,-3.8688323E-1,-6.1057985E-1,-3.520856E-1,3.6926252E-1,-4.4374728E-1,-1.0466368E-2,-5.6887484E-1,3.400168E-1,-2.3382491E-1,3.3519346E-1],"split_indices":[39,10,10,6,18,0,15,1,0,2,15,21,0,0,0,33,2,0,0,39,0,20,0,10,2,8,21,0,0,0,0,0,0,0,0,0,0],"split_type":[0,0,0,0,0,0,0,0,0,0,0,0,0,0,0,0,0,0,0,0,0,0,0,0,0,0,0,0,0,0,0,0,0,0,0,0,0],"sum_hessian":[2.870912E3,2.0732144E3,7.976977E2,7.6618176E2,1.3070327E3,1.0852331E1,7.8684534E2,3.8106792E1,7.2807495E2,1.2201232E3,8.690954E1,7.839428E2,2.9025276E0,9.987768E0,2.8119024E1,1.12267815E2,1.1078553E3,8.28158E1,4.0937395E0,7.816139E2,2.3289652E0,1.08053665E2,4.2141447E0,1.7455249E2,9.3330286E2,6.2296375E1,7.193175E2,9.1091934E1,1.6961733E1,8.455107E0,1.660974E2,8.665777E1,8.466451E2,9.416818E0,5.287956E1,1.0642331E0,7.1825323E2],"tree_param":{"num_deleted":"0","num_feature":"40","num_nodes":"37","size_leaf_vector":"1"}},{"base_weights":[-1.1551677E-2,-3.4878793E-1,9.6900815E-1,-1.0314384E0,-1.9174013E-2,-3.023982E-1,9.9813163E-1,4.2459452E-1,-3.3332768E-1,-8.634765E-2,1.0743651E0,1.0071154E0,-3.6221632E-1,2.9150504E-1,-3.3297312E-1,-1.3494223E0,2.4558624E-2,3.6109847E-1,-3.5071784E-1,6.2618953E-1,1.0570239E0,-3.342727E-1,-1.5362163E0,9.8820776E-1,-1.257322E-1,-5.5186397E-1,1.0046027E0,-3.1910375E-1,1.0632787E0,-3.1279105E-1,-4.9118268E-1,-3.2364723E-1,3.3037677E-1,-4.75938E-1,-1.0633822E-2,-3.7257144E-1,3.2351822E-1,3.2080498E-1,-2.2805665E-1],"categories":[],"categories_nodes":[],"categories_segments":[],"categories_sizes":[],"default_left":[1,0,1,0,1,0,0,0,0,0,0,0,0,0,0,0,0,0,0,0,0,0,0,0,0,0,0,0,0,0,0,0,0,0,0,0,0,0,0],"id":5,"left_children":[1,3,5,7,9,-1,11,13,-1,15,17,19,-1,-1,-1,21,23,-1,-1,25,27,-1,29,31,33,-1,35,-1,37,-1,-1,-1,-1,-1,-1,-1,-1,-1,-1],"loss_changes":[8.052725E2,4.0769672E2,3.6887817E1,6.889917E1,8.9929504E1,0E0,1.3394409E1,2.737698E1,0E0,1.6156725E2,2.1958893E1,1.098645E1,0E0,0E0,0E0,2.378067E0,1.5379137E2,0E0,0E0,7.0362755E1,8.297424E0,0E0,7.4933624E-1,3.466559E1,1.21114174E2,0E0,1.19995575E1,0E0,6.7819824E0,0E0,0E0,0E0,0E0,0E0,0E0,0E0,0E0,0E0,0E0],"parents":[2147483647,0,0,1,1,2,2,3,3,4,4,6,6,7,7,9,9,10,10,11,11,15,15,16,16,19,19,20,20,22,22,23,23,24,24,26,26,28,28],"right_children":[2,4,6,8,10,-1,12,14,-1,16,18,20,-1,-1,-1,22,24,-1,-1,26,28,-1,30,32,34,-1,36,-1,38,-1,-1,-1,-1,-1,-1,-1,-1,-1,-1],"split_conditions":[4.5411765E2,2.985149E2,2.9405493E2,-4.644562E0,-7.736497E-6,-3.023982E-1,2.7912903E-1,-8.693822E-3,-3.3332768E-1,-7.194444E1,1.6133118E-1,1.1323529E3,-3.6221632E-1,2.9150504E-1,-3.3297312E-1,2.472037E-3,-7.1735275E1,3.6109847E-1,-3.5071784E-1,-3.5634445E1,-3.8255554E1,-3.342727E-1,3.6171875E0,3.2227392E7,7.7986664E-1,-5.5186397E-1,2.963147E2,-3.1910375E-1,3.4991455E0,-3.1279105E-1,-4.9118268E-1,-3.2364723E-1,3.3037677E-1,-4.75938E-1,-1.0633822E-2,-3.7257144E-1,3.2351822E-1,3.2080498E-1,-2.2805665E-1],"split_indices":[39,10,10,6,18,0,14,17,0,2,15,39,0,0,0,33,2,0,0,1,1,0,20,8,34,0,11,0,21,0,0,0,0,0,0,0,0,0,0],"split_type":[0,0,0,0,0,0,0,0,0,0,0,0,0,0,0,0,0,0,0,0,0,0,0,0,0,0,0,0,0,0,0,0,0,0,0,0,0,0,0],"sum_hessian":[2.4331772E3,1.810984E3,6.2219324E2,5.8900006E2,1.221984E3,8.5446005E0,6.136486E2,3.0325987E1,5.586741E2,1.1521322E3,6.985182E1,6.117004E2,1.948264E0,2.2626028E1,7.6999598E0,9.209746E1,1.0600347E3,6.648361E1,3.3682091E0,7.24296E1,5.3927075E2,4.3851727E1,4.8245735E1,1.4226581E2,9.1776886E2,9.123002E0,6.3306602E1,1.0886927E0,5.3818207E2,1.01227455E1,3.812299E1,6.934199E0,1.353316E2,5.245964E1,8.653092E2,1.5098792E0,6.1796722E1,5.3680835E2,1.373732E0],"tree_param":{"num_deleted":"0","num_feature":"40","num_nodes":"39","size_leaf_vector":"1"}},{"base_weights":[-1.0842365E-2,-2.90677E-1,9.195404E-1,-9.988745E-1,-1.4499464E-2,-2.8534138E-1,9.479092E-1,3.8272837E-1,-3.2354558E-1,-5.473376E-1,1.3210972E-1,9.573845E-1,-3.264292E-1,-3.316678E-1,2.7626476E-1,-8.7162286E-2,-3.6467072E-1,-5.49541E-1,2.544736E-1,9.984698E-1,4.5194882E-1,-6.446844E-1,8.6917055E-1,-2.9941922E-2,-4.371215E-1,-3.3567253E-1,3.216832E-1,-2.7642003E-1,1.0060263E0,-1.1972525E0,7.899171E-1,1.4204514E-1,-4.0565553E-1,3.5350537E-1,-3.3741373E-1,-4.4684872E-1,3.84504E-1,1.3298225E-1,-9.285994E-2,-2.2722186E-1,3.03756E-1,3.1504813E-1,-4.6077728E-1],"categories":[],"categories_nodes":[],"categories_segments":[],"categories_sizes":[],"default_left":[1,0,1,0,0,0,0,0,0,0,0,0,0,0,0,0,0,0,0,0,0,0,0,0,0,0,0,0,0,0,0,0,0,0,0,0,0,0,0,0,0,0,0],"id":6,"left_children":[1,3,5,7,9,-1,11,13,-1,15,17,19,-1,-1,-1,21,-1,23,25,27,29,31,33,35,-1,-1,37,-1,39,-1,41,-1,-1,-1,-1,-1,-1,-1,-1,-1,-1,-1,-1],"loss_changes":[5.427769E2,3.1345215E2,2.6483856E1,4.986859E1,9.022544E1,0E0,1.0212311E1,2.1229914E1,0E0,7.6527596E1,7.569522E1,9.385254E0,0E0,0E0,0E0,7.9821365E1,0E0,6.511398E1,7.1310715E1,7.2703857E0,5.9364735E1,7.538734E1,3.5338184E1,1.7207755E2,0E0,0E0,5.643931E1,0E0,5.759674E0,0E0,2.3176285E1,0E0,0E0,0E0,0E0,0E0,0E0,0E0,0E0,0E0,0E0,0E0,0E0],"parents":[2147483647,0,0,1,1,2,2,3,3,4,4,6,6,7,7,9,9,10,10,11,11,15,15,17,17,18,18,19,19,20,20,21,21,22,22,23,23,26,26,28,28,30,30],"right_children":[2,4,6,8,10,-1,12,14,-1,16,18,20,-1,-1,-1,22,-1,24,26,28,30,32,34,36,-1,-1,38,-1,40,-1,42,-1,-1,-1,-1,-1,-1,-1,-1,-1,-1,-1,-1],"split_conditions":[4.5411765E2,2.985149E2,2.9405493E2,-4.644562E0,5.0001373E0,-2.8534138E-1,2.7912903E-1,2.3983307E0,-3.2354558E-1,9.996643E-1,3.9674668E-4,8E0,-3.264292E-1,-3.316678E-1,2.7626476E-1,-7.156389E1,-3.6467072E-1,-3.336111E1,3.6171875E0,-3.8255554E1,2.825171E2,-7.1735275E1,4E0,-3.3385555E1,-4.371215E-1,-3.3567253E-1,-7.081528E1,-2.7642003E-1,1.644043E0,-1.1972525E0,2.832423E2,1.4204514E-1,-4.0565553E-1,3.5350537E-1,-3.3741373E-1,-4.4684872E-1,3.84504E-1,1.3298225E-1,-9.285994E-2,-2.2722186E-1,3.03756E-1,3.1504813E-1,-4.6077728E-1],"split_indices":[39,10,10,6,37,0,14,5,0,35,33,0,0,0,0,2,0,1,20,1,4,2,0,1,0,0,2,0,21,0,4,0,0,0,0,0,0,0,0,0,0,0,0],"split_type":[0,0,0,0,0,0,0,0,0,0,0,0,0,0,0,0,0,0,0,0,0,0,0,0,0,0,0,0,0,0,0,0,0,0,0,0,0,0,0,0,0,0,0],"sum_hessian":[2.082744E3,1.6016863E3,4.810575E2,4.4863702E2,1.1530493E3,6.700334E0,4.7435718E2,2.4235498E1,4.2440152E2,2.4821188E2,9.048374E2,4.726871E2,1.6700668E0,6.156125E0,1.8079374E1,1.4765808E2,1.00553795E2,1.371769E2,7.6766046E2,4.3625024E2,3.643687E1,9.348447E1,5.417362E1,8.7889496E1,4.9287403E1,3.5084507E1,7.32576E2,1.2361954E0,4.3501404E2,1.8117698E0,3.4625103E1,3.6356174E1,5.7128292E1,4.725505E1,6.918568E0,4.1534687E1,4.6354813E1,6.145024E2,1.1807361E2,1.1717403E0,4.338423E2,3.1633991E1,2.9911122E0],"tree_param":{"num_deleted":"0","num_feature":"40","num_nodes":"43","size_leaf_vector":"1"}},{"base_weights":[-1.5705049E-2,-2.4087502E-1,9.293011E-1,-9.845395E-1,1.4416788E-3,9.423834E-1,-4.636237E-1,3.392905E-1,-3.1921646E-1,2.0476456E-1,-3.315274E-1,9.5387655E-1,-2.9030368E-1,-3.2067513E-1,2.6037264E-1,-5.22525E-1,3.829513E-1,-8.998623E-1,3.6017063E-1,9.969258E-1,4.6259212E-1,4.4796303E-1,-1.3516715E0,4.6753192E-1,-3.3297032E-1,-1.5817622E0,3.5645315E-1,-2.0485468E0,7.063302E-1,6.540504E-1,3.0304256E-1,2.5911462E-1,-7.2723067E-1,-4.6403173E-1,2.5987494E-1,-3.2744455E-1,-4.4833133E-1,-5.156995E-1,1.532012E-1,-6.450237E-1,-3.4854883E-1,-3.6070427E-1,3.5921872E-1,-4.616633E-1,-8.0455375E-1,3.0282277E-1,-4.7888988E-1,2.9485458E-1,-5.0425386E-1],"categories":[],"categories_nodes":[],"categories_segments":[],"categories_sizes":[],"default_left":[1,0,0,0,0,0,0,0,0,0,0,0,0,0,0,0,1,0,0,0,0,0,0,0,0,0,0,0,0,0,0,0,0,0,0,0,0,0,0,0,0,0,0,0,0,0,0,0,0],"id":7,"left_children":[1,3,5,7,9,11,-1,13,-1,15,17,19,-1,-1,-1,21,23,25,27,29,31,33,35,37,-1,39,41,43,45,47,-1,-1,-1,-1,-1,-1,-1,-1,-1,-1,-1,-1,-1,-1,-1,-1,-1,-1,-1],"loss_changes":[3.7520035E2,2.5659457E2,1.2441162E1,3.719803E1,7.284366E1,8.346008E0,0E0,1.6252493E1,0E0,8.677342E1,1.6068895E2,6.6580505E0,0E0,0E0,0E0,1.0673007E2,6.834337E1,1.9265002E2,1.5545921E2,7.378845E-1,3.5656765E1,5.2665745E1,1.019989E0,4.8894005E1,0E0,3.223108E1,1.0591706E2,3.4471512E0,1.148388E2,1.2623621E1,0E0,0E0,0E0,0E0,0E0,0E0,0E0,0E0,0E0,0E0,0E0,0E0,0E0,0E0,0E0,0E0,0E0,0E0,0E0],"parents":[2147483647,0,0,1,1,2,2,3,3,4,4,5,5,7,7,9,9,10,10,11,11,15,15,16,16,17,17,18,18,19,19,20,20,21,21,22,22,23,23,25,25,26,26,27,27,28,28,29,29],"right_children":[2,4,6,8,10,12,-1,14,-1,16,18,20,-1,-1,-1,22,24,26,28,30,32,34,36,38,-1,40,42,44,46,48,-1,-1,-1,-1,-1,-1,-1,-1,-1,-1,-1,-1,-1,-1,-1,-1,-1,-1,-1],"split_conditions":[9.2E2,2.985149E2,1.716613E-6,-4.644562E0,-3.336111E1,2.6055908E-1,-4.636237E-1,5.362549E0,-3.1921646E-1,7.894801E-1,-7.1047226E1,8E0,-2.9030368E-1,-3.2067513E-1,2.6037264E-1,-4.38875E1,2.8350952E2,-3.197139E1,-3.3228333E1,2.1144962E0,-3.71775E1,-7.194444E1,-7.245361E1,-3.6951946E1,-3.3297032E-1,9.949033E-1,9.9085957E-1,7.83712E-1,-3.285361E1,-7.296611E1,3.0304256E-1,2.5911462E-1,-7.2723067E-1,-4.6403173E-1,2.5987494E-1,-3.2744455E-1,-4.4833133E-1,-5.156995E-1,1.532012E-1,-6.450237E-1,-3.4854883E-1,-3.6070427E-1,3.5921872E-1,-4.616633E-1,-8.0455375E-1,3.0282277E-1,-4.7888988E-1,2.9485458E-1,-5.0425386E-1],"split_indices":[39,10,7,6,1,13,0,20,0,34,2,0,0,0,0,1,4,1,1,26,1,2,2,1,0,35,34,34,1,2,0,0,0,0,0,0,0,0,0,0,0,0,0,0,0,0,0,0,0],"split_type":[0,0,0,0,0,0,0,0,0,0,0,0,0,0,0,0,0,0,0,0,0,0,0,0,0,0,0,0,0,0,0,0,0,0,0,0,0,0,0,0,0,0,0,0,0,0,0,0,0],"sum_hessian":[1.7612152E3,1.4229169E3,3.3829837E2,3.489461E2,1.0739708E3,3.3713535E2,1.1630404E0,1.9586622E1,3.293595E2,6.6703827E2,4.069325E2,3.356165E2,1.5188524E0,5.06682E0,1.4519803E1,1.3088474E2,5.3615356E2,2.2322134E2,1.8371115E2,3.0763086E2,2.7985619E1,6.0514397E1,7.0370346E1,5.0805542E2,2.8098116E1,1.4452005E2,7.8701294E1,2.246597E1,1.6124518E2,1.3291347E1,2.943395E2,2.5186588E1,2.7990308E0,1.0022239E1,5.0492157E1,2.7995018E1,4.2375328E1,9.078026E0,4.9897742E2,5.9659588E1,8.486046E1,2.742871E1,5.1272587E1,1.4348475E1,8.117494E0,1.429865E2,1.8258684E1,1.2158288E1,1.1330582E0],"tree_param":{"num_deleted":"0","num_feature":"40","num_nodes":"49","size_leaf_vector":"1"}},{"base_weights":[-1.9768229E-2,-2.1355888E-1,8.834645E-1,-9.637433E-1,-6.1860257E-3,8.9781857E-1,-4.1949636E-1,2.9511636E-1,-3.1378785E-1,-5.155512E-1,1.14585556E-1,9.11451E-1,-2.7142298E-1,8.0345124E-1,-3.0838194E-1,-1.5325728E-1,-3.480037E-1,9.550261E-1,4.822185E-2,9.617238E-1,3.8836318E-1,-1.6149294E-1,2.8991392E-1,-6.310719E-1,7.026676E-1,-2.7046978E-1,3.2380962E-1,-3.8081813E-1,1.3287763E-1,5.928254E-1,9.760498E-1,-6.030298E-1,7.808061E-1,-3.76863E-1,1.5108079E-1,2.8972244E-1,-3.144541E-1,1.7034279E-1,-1.4246226E-2,2.838284E-1,-4.4639465E-1,2.9956868E-1,2.3789139E-1,2.98923E-1,-3.482841E-1],"categories":[],"categories_nodes":[],"categories_segments":[],"categories_sizes":[],"default_left":[1,0,0,0,0,0,0,0,0,0,0,0,0,0,0,0,0,0,0,0,0,0,0,0,0,0,0,0,0,0,0,0,0,0,0,0,0,0,0,0,0,0,0,0,0],"id":8,"left_children":[1,3,5,7,9,11,-1,13,-1,15,17,19,-1,21,-1,23,-1,25,27,29,31,-1,-1,33,35,-1,-1,-1,37,39,41,-1,43,-1,-1,-1,-1,-1,-1,-1,-1,-1,-1,-1,-1],"loss_changes":[2.5973566E2,1.9004655E2,9.841064E0,2.7690643E1,5.8998703E1,7.240799E0,0E0,1.2258877E1,0E0,4.273938E1,4.319577E1,6.4543304E0,0E0,3.3276453E0,0E0,4.9036392E1,0E0,1.4058952E1,8.0436455E1,6.696625E-1,2.4576763E1,0E0,0E0,5.5092995E1,2.0836384E1,0E0,0E0,0E0,5.3140717E1,9.770635E0,1.3890076E-1,0E0,1.025245E1,0E0,0E0,0E0,0E0,0E0,0E0,0E0,0E0,0E0,0E0,0E0,0E0],"parents":[2147483647,0,0,1,1,2,2,3,3,4,4,5,5,7,7,9,9,10,10,11,11,13,13,15,15,17,17,18,18,19,19,20,20,23,23,24,24,28,28,29,29,30,30,32,32],"right_children":[2,4,6,8,10,12,-1,14,-1,16,18,20,-1,22,-1,24,-1,26,28,30,32,-1,-1,34,36,-1,-1,-1,38,40,42,-1,44,-1,-1,-1,-1,-1,-1,-1,-1,-1,-1,-1,-1],"split_conditions":[9.2E2,2.985149E2,1.716613E-6,-4.644562E0,5.0001373E0,2.7912903E-1,-4.1949636E-1,7E0,-3.1378785E-1,9.996643E-1,1.6133118E-1,8E0,-2.7142298E-1,-3.5395832E1,-3.0838194E-1,-7.156389E1,-3.480037E-1,1.5106201E-1,-7.194444E1,2.1144962E0,2.825171E2,-1.6149294E-1,2.8991392E-1,9.9964905E-1,4E0,-2.7046978E-1,3.2380962E-1,-3.8081813E-1,-3.3726387E1,-7.296611E1,4.4142104E-7,-6.030298E-1,2.832423E2,-3.76863E-1,1.5108079E-1,2.8972244E-1,-3.144541E-1,1.7034279E-1,-1.4246226E-2,2.838284E-1,-4.4639465E-1,2.9956868E-1,2.3789139E-1,2.98923E-1,-3.482841E-1],"split_indices":[39,10,7,6,37,14,0,0,0,35,15,0,0,1,0,2,0,14,2,26,4,0,0,35,0,0,0,0,1,2,7,0,4,0,0,0,0,0,0,0,0,0,0,0,0],"split_type":[0,0,0,0,0,0,0,0,0,0,0,0,0,0,0,0,0,0,0,0,0,0,0,0,0,0,0,0,0,0,0,0,0,0,0,0,0,0,0,0,0,0,0,0,0],"sum_hessian":[1.4818032E3,1.2206693E3,2.6113385E2,2.635637E2,9.571057E2,2.6010413E2,1.0297097E0,1.5999305E1,2.4756438E2,1.8281174E2,7.7429395E2,2.5864243E2,1.4617014E0,1.1842137E1,4.157168E0,1.1781692E2,6.499482E1,5.568606E1,7.186079E2,2.3519937E2,2.3443058E1,1.0327976E0,1.080934E1,7.5777374E1,4.203954E1,3.1029553E0,5.2583107E1,4.2537827E1,6.7607007E2,1.0376723E1,2.2482265E2,2.7168272E0,2.0726233E1,4.8789925E1,2.6987453E1,3.693785E1,5.101686E0,1.9755017E2,4.785199E2,9.336878E0,1.0398458E0,1.9623776E2,2.858488E1,1.9093071E1,1.6331606E0],"tree_param":{"num_deleted":"0","num_feature":"40","num_nodes":"45","size_leaf_vector":"1"}},{"base_weights":[-2.0437013E-2,-1.8049337E-1,8.3957124E-1,-8.63159E-1,2.323848E-2,8.543733E-1,-2.4526165E-1,7.514655E-1,-9.9692833E-1,3.6773977E-1,-1.2645163E-1,9.073435E-1,3.256576E-1,-2.2397344E-1,3.0529115E-1,2.7588558E-1,-1.0705837E0,1.3829845E-1,4.0401056E-1,-1.7733221E0,3.9961856E-2,9.4708896E-1,6.9292575E-1,-4.6418262E-1,7.222607E-1,2.3393454E-1,-2.8330016E-1,-3.0960354E-1,-3.7192112E-1,4.099764E-1,-1.2076094E0,-4.053494E-1,-2.3036873E0,1.8302175E-1,-1.5985936E0,4.398211E-1,9.7320133E-1,-6.178826E-1,8.579717E-1,2.907662E-1,-3.1062102E-1,-3.0250496E-1,1.6729474E-1,-5.98559E-1,2.640481E-1,-7.839959E-1,-3.3474487E-1,2.1142648E-1,-3.6158558E-2,-3.870963E-1,-5.334063E-1,-4.4051987E-1,2.7180132E-1,1.8860655E-1,2.9606462E-1,1.2786917E-1,2.9679954E-1],"categories":[],"categories_nodes":[],"categories_segments":[],"categories_sizes":[],"default_left":[1,0,0,0,0,0,0,0,0,0,0,0,0,0,0,0,0,0,0,0,0,0,0,0,0,0,0,0,0,0,1,0,0,0,0,0,0,0,0,0,0,0,0,0,0,0,0,0,0,0,0,0,0,0,0,0,0],"id":9,"left_children":[1,3,5,7,9,11,-1,13,15,17,19,21,23,-1,-1,25,27,29,-1,31,33,35,37,-1,39,-1,-1,-1,-1,41,43,-1,45,47,49,51,53,-1,55,-1,-1,-1,-1,-1,-1,-1,-1,-1,-1,-1,-1,-1,-1,-1,-1,-1,-1],"loss_changes":[1.777081E2,1.513872E2,5.6673737E0,5.478337E1,4.332103E1,5.341339E0,0E0,8.619207E0,2.1994812E1,5.6964355E1,1.6059639E2,8.980408E-1,1.5890718E1,0E0,0E0,9.0104E0,1.4950562E-1,7.6274055E1,0E0,8.927902E0,1.2522251E2,1.573883E0,1.6416641E1,0E0,8.423784E0,0E0,0E0,0E0,0E0,3.6834988E1,5.9405937E1,0E0,5.328491E0,7.7854225E1,7.8559875E-2,9.535547E0,5.3131104E-2,0E0,1.3437252E0,0E0,0E0,0E0,0E0,0E0,0E0,0E0,0E0,0E0,0E0,0E0,0E0,0E0,0E0,0E0,0E0,0E0,0E0],"parents":[2147483647,0,0,1,1,2,2,3,3,4,4,5,5,7,7,8,8,9,9,10,10,11,11,12,12,15,15,16,16,17,17,19,19,20,20,21,21,22,22,24,24,29,29,30,30,32,32,33,33,34,34,35,35,36,36,38,38],"right_children":[2,4,6,8,10,12,-1,14,16,18,20,22,24,-1,-1,26,28,30,-1,32,34,36,38,-1,40,-1,-1,-1,-1,42,44,-1,46,48,50,52,54,-1,56,-1,-1,-1,-1,-1,-1,-1,-1,-1,-1,-1,-1,-1,-1,-1,-1,-1,-1],"split_conditions":[9.2E2,3.000569E2,2.7912903E-1,2.0787048E-1,-3.3726387E1,8E0,-2.4526165E-1,-7.736497E-6,-4.644562E0,-7.0611664E1,-3.3548332E1,4.4142104E-7,2.825171E2,-2.2397344E-1,3.0529115E-1,7E0,2.985149E2,-7.14975E1,4.0401056E-1,6.000107E0,-7.081528E1,-3.71775E1,9.2141366E-1,-4.6418262E-1,2.832423E2,2.3393454E-1,-2.8330016E-1,-3.0960354E-1,-3.7192112E-1,-7.27375E1,2.8589935E0,-4.053494E-1,3.067157E-2,-3.336111E1,7.360719E-1,2.0029755E0,2.9554663E2,-6.178826E-1,1.186203E0,2.907662E-1,-3.1062102E-1,-3.0250496E-1,1.6729474E-1,-5.98559E-1,2.640481E-1,-7.839959E-1,-3.3474487E-1,2.1142648E-1,-3.6158558E-2,-3.870963E-1,-5.334063E-1,-4.4051987E-1,2.7180132E-1,1.8860655E-1,2.9606462E-1,1.2786917E-1,2.9679954E-1],"split_indices":[39,10,14,16,1,0,0,18,6,2,1,7,4,0,0,0,10,2,0,37,2,1,34,0,4,0,0,0,0,2,5,0,33,1,34,5,3,0,5,0,0,0,0,0,0,0,0,0,0,0,0,0,0,0,0,0,0],"split_type":[0,0,0,0,0,0,0,0,0,0,0,0,0,0,0,0,0,0,0,0,0,0,0,0,0,0,0,0,0,0,0,0,0,0,0,0,0,0,0,0,0,0,0,0,0,0,0,0,0,0,0,0,0,0,0,0,0],"sum_hessian":[1.2889152E3,1.0873402E3,2.0157503E2,2.491731E2,8.3816705E2,2.0027054E2,1.3044863E0,1.8710903E1,2.3046219E2,2.5343878E2,5.8472833E2,1.8138234E2,1.888821E1,2.5506554E0,1.6160248E1,1.2456677E1,2.1800551E2,2.0624255E2,4.7196217E1,5.2777042E1,5.319513E2,1.5013551E2,3.1246813E1,2.793721E0,1.6094488E1,9.071502E0,3.385176E0,1.8330714E2,3.4698368E1,1.7218216E2,3.4060402E1,3.1361603E1,2.141544E1,4.9005368E2,4.1897575E1,8.22364E0,1.4191188E2,1.1182543E0,3.012856E1,1.4505038E1,1.5894504E0,1.5687072E1,1.5649509E2,2.4763134E1,9.297268E0,1.6035578E1,5.3798614E0,1.7976215E2,3.1029153E2,1.8427973E1,2.3469603E1,1.1925129E0,7.0311275E0,7.2134557E0,1.3469843E2,8.018592E0,2.2109968E1],"tree_param":{"num_deleted":"0","num_feature":"40","num_nodes":"57","size_leaf_vector":"1"}},{"base_weights":[-2.0870749E-2,-1.5343684E-1,7.969779E-1,-8.43851E-1,1.4957784E-2,8.136619E-1,-2.3879093E-1,7.066332E-1,-9.764611E-1,-4.6862957E-1,1.11798875E-1,8.28422E-1,-2.1601228E-1,-2.0865445E-1,2.9213977E-1,2.3130068E-1,-3.1620362E-1,-9.5692046E-2,-3.2274085E-1,-4.8074603E-1,2.034059E-1,8.814447E-1,3.0451995E-1,-2.564756E-1,2.2037473E-1,-5.649813E-1,8.3408546E-1,-1.4555959E0,-1.079991E-1,-3.907401E-1,2.8720006E-1,9.309149E-1,6.285968E-1,6.939639E-1,-4.0115604E-1,1.4677578E-1,-3.670957E-1,2.9342908E-1,-2.6881728E-1,-2.6991656E-1,-4.786071E-1,2.9734233E-1,-3.5550168E-1,1.4571181E-1,-3.726619E-1,1.9225997E-1,4.712682E-2,2.881302E-1,1.01102926E-1,-5.3129965E-1,2.4080442E-1,-2.5785702E-1,2.7635032E-1],"categories":[],"categories_nodes":[],"categories_segments":[],"categories_sizes":[],"default_left":[1,0,0,0,0,0,0,0,0,0,0,0,0,0,0,0,0,0,0,0,0,0,0,0,0,0,0,0,0,0,0,0,0,0,0,0,0,0,0,0,0,0,0,0,0,0,0,0,0,0,0,0,0],"id":10,"left_children":[1,3,5,7,9,11,-1,13,15,17,19,21,-1,-1,-1,23,-1,25,-1,27,29,31,33,-1,-1,35,37,39,41,43,45,47,49,51,-1,-1,-1,-1,-1,-1,-1,-1,-1,-1,-1,-1,-1,-1,-1,-1,-1,-1,-1],"loss_changes":[1.2197902E2,1.1255556E2,4.8183823E0,3.9719788E1,3.6542583E1,4.123451E0,0E0,6.497298E0,1.6661804E1,2.9378187E1,3.5380146E1,4.031143E0,0E0,0E0,0E0,6.858054E0,0E0,3.6142876E1,0E0,3.1576199E1,2.8174627E1,1.1663513E0,1.099964E1,0E0,0E0,3.873941E1,7.8096275E0,4.3503952E-1,7.723807E1,5.2911068E1,2.2657269E1,1.6930313E0,1.2279536E1,5.5181847E0,0E0,0E0,0E0,0E0,0E0,0E0,0E0,0E0,0E0,0E0,0E0,0E0,0E0,0E0,0E0,0E0,0E0,0E0,0E0],"parents":[2147483647,0,0,1,1,2,2,3,3,4,4,5,5,7,7,8,8,9,9,10,10,11,11,15,15,17,17,19,19,20,20,21,21,22,22,25,25,26,26,27,27,28,28,29,29,30,30,31,31,32,32,33,33],"right_children":[2,4,6,8,10,12,-1,14,16,18,20,22,-1,-1,-1,24,-1,26,-1,28,30,32,34,-1,-1,36,38,40,42,44,46,48,50,52,-1,-1,-1,-1,-1,-1,-1,-1,-1,-1,-1,-1,-1,-1,-1,-1,-1,-1,-1],"split_conditions":[9.2E2,3.000569E2,3.4991455E0,2.0787048E-1,5.0001373E0,2.7912903E-1,-2.3879093E-1,-7.736497E-6,-4.644562E0,-3.3525555E1,3.9674668E-4,8E0,-2.1601228E-1,-2.0865445E-1,2.9213977E-1,-3.3198856E-4,-3.1620362E-1,-3.3548332E1,-3.2274085E-1,-3.3385555E1,7.664688E-1,4.4142104E-7,1.5486691E7,-2.564756E-1,2.2037473E-1,-7.1735275E1,4E0,-3.402139E1,-3.336111E1,9.6191233E-1,-3.3726387E1,2.2086337E2,9.2141366E-1,3.8194275E-1,-4.0115604E-1,1.4677578E-1,-3.670957E-1,2.9342908E-1,-2.6881728E-1,-2.6991656E-1,-4.786071E-1,2.9734233E-1,-3.5550168E-1,1.4571181E-1,-3.726619E-1,1.9225997E-1,4.712682E-2,2.881302E-1,1.01102926E-1,-5.3129965E-1,2.4080442E-1,-2.5785702E-1,2.7635032E-1],"split_indices":[39,10,21,16,37,14,0,18,6,1,33,0,0,0,0,18,0,1,0,1,34,7,8,0,0,2,0,1,1,35,1,27,34,16,0,0,0,0,0,0,0,0,0,0,0,0,0,0,0,0,0,0,0],"split_type":[0,0,0,0,0,0,0,0,0,0,0,0,0,0,0,0,0,0,0,0,0,0,0,0,0,0,0,0,0,0,0,0,0,0,0,0,0,0,0,0,0,0,0,0,0,0,0,0,0,0,0,0,0],"sum_hessian":[1.1229426E3,9.6701105E2,1.5593163E2,1.8882436E2,7.781867E2,1.5479951E2,1.1321079E0,1.4536326E1,1.7428802E2,1.2919536E2,6.4899133E2,1.5377942E2,1.020101E0,2.0698702E0,1.2466455E1,1.0396266E1,1.6389177E2,8.075294E1,4.8442417E1,8.633028E1,5.626611E2,1.3902649E2,1.4752935E1,3.0705323E0,7.325734E0,5.392671E1,2.6826231E1,2.3075521E1,6.3254757E1,6.9092766E1,4.935683E2,1.14033806E2,2.4992674E1,1.2390876E1,2.3620594E0,2.0835588E1,3.309112E1,2.5166157E1,1.6600754E0,6.1304326E0,1.694509E1,3.1345152E1,3.1909605E1,3.425863E1,3.4834133E1,1.3168822E2,3.6188007E2,1.080464E2,5.9874063E0,1.070034E0,2.392264E1,1.2258916E0,1.1164984E1],"tree_param":{"num_deleted":"0","num_feature":"40","num_nodes":"53","size_leaf_vector":"1"}},{"base_weights":[-2.440866E-2,-1.445119E-1,6.904326E-1,-8.992857E-1,-1.00424485E-2,-2.0716406E-1,7.155601E-1,2.3328201E-1,-3.1774282E-1,-2.024035E-1,2.1695541E-1,-2.4237381E-1,7.3315895E-1,8.110922E-2,-6.5816176E-1,3.0384985E-1,-3.9008585E-1,5.443857E-1,9.148629E-1,-2.4772024E-1,8.5178983E-1,-1.4168843E0,5.687211E-1,-6.4761475E-2,8.119259E-1,-4.9433243E-1,6.0245454E-1,1.1481471E-1,9.4712347E-1,-2.5990168E-2,-4.6439046E-1,3.1420407E-1,-4.676846E-1,-4.8036972E-1,-3.2139692E-1,3.1023782E-1,-3.7160456E-1,9.084086E-2,-5.0485134E-1,2.9565418E-1,-4.73383E-1,1.9976313E-1,-3.3917084E-1,2.9098263E-1,1.5380064E-1],"categories":[],"categories_nodes":[],"categories_segments":[],"categories_sizes":[],"default_left":[1,0,1,0,0,0,0,0,0,0,0,0,0,0,0,0,0,0,0,0,0,0,0,0,0,0,0,0,0,0,0,0,0,0,0,0,0,0,0,0,0,0,0,0,0],"id":11,"left_children":[1,3,5,7,9,-1,11,-1,-1,13,15,-1,17,19,21,23,-1,25,27,29,31,33,35,37,39,-1,41,-1,43,-1,-1,-1,-1,-1,-1,-1,-1,-1,-1,-1,-1,-1,-1,-1,-1],"loss_changes":[8.357887E1,8.4565E1,5.353531E0,3.4598785E1,3.0971947E1,0E0,4.2930145E0,0E0,0E0,4.9660275E1,4.3292988E1,0E0,4.2003326E0,6.041725E1,1.3796136E2,5.7841244E1,0E0,9.85891E0,8.104782E-1,3.490655E1,3.5234844E1,4.1024475E0,4.9240276E1,1.0741629E2,5.5408134E1,0E0,8.291193E0,0E0,1.3465118E-1,0E0,0E0,0E0,0E0,0E0,0E0,0E0,0E0,0E0,0E0,0E0,0E0,0E0,0E0,0E0,0E0],"parents":[2147483647,0,0,1,1,2,2,3,3,4,4,6,6,9,9,10,10,12,12,13,13,14,14,15,15,17,17,18,18,19,19,20,20,21,21,22,22,23,23,24,24,26,26,28,28],"right_children":[2,4,6,8,10,-1,12,-1,-1,14,16,-1,18,20,22,24,-1,26,28,30,32,34,36,38,40,-1,42,-1,44,-1,-1,-1,-1,-1,-1,-1,-1,-1,-1,-1,-1,-1,-1,-1,-1],"split_conditions":[4.5411765E2,5.143742E0,2.9405493E2,2.0787048E-1,1E0,-2.0716406E-1,1.644043E0,2.3328201E-1,-3.1774282E-1,-3.336111E1,-3.285361E1,-2.4237381E-1,3.0741177E3,-3.3413334E1,-3.197139E1,-3.3228333E1,-3.9008585E-1,2.7850488E2,9.895625E-1,-7.14975E1,-7.116639E1,9.949033E-1,-7.1483055E1,-3.344528E1,-7.081528E1,-4.9433243E-1,2.9110718E-1,1.1481471E-1,3.0813208E2,-2.5990168E-2,-4.6439046E-1,3.1420407E-1,-4.676846E-1,-4.8036972E-1,-3.2139692E-1,3.1023782E-1,-3.7160456E-1,9.084086E-2,-5.0485134E-1,2.9565418E-1,-4.73383E-1,1.9976313E-1,-3.3917084E-1,2.9098263E-1,1.5380064E-1],"split_indices":[39,26,10,16,35,0,21,0,0,1,1,0,39,1,1,1,0,4,35,2,2,35,2,1,2,0,15,0,3,0,0,0,0,0,0,0,0,0,0,0,0,0,0,0,0],"split_type":[0,0,0,0,0,0,0,0,0,0,0,0,0,0,0,0,0,0,0,0,0,0,0,0,0,0,0,0,0,0,0,0,0,0,0,0,0,0,0,0,0,0,0,0,0],"sum_hessian":[9.713294E2,8.322909E2,1.3903854E2,1.24997154E2,7.072937E2,2.0114148E0,1.3702713E2,1.0542498E1,1.1445466E2,3.8291486E2,3.2437888E2,1.0519985E0,1.3597513E2,2.365726E2,1.4634225E2,3.0756403E2,1.6814863E1,6.865013E1,6.7325E1,1.6629668E2,7.027592E1,9.0327515E1,5.601474E1,1.7875156E2,1.2881247E2,1.0651041E0,6.758503E1,4.5834265E0,6.2741573E1,1.4891446E2,1.7382227E1,6.5526054E1,4.7498665E0,5.653425E1,3.3793266E1,4.488478E1,1.1129959E1,1.4632503E2,3.242652E1,1.2063759E2,8.174877E0,6.579301E1,1.7920197E0,5.843963E1,4.3019457E0],"tree_param":{"num_deleted":"0","num_feature":"40","num_nodes":"45","size_leaf_vector":"1"}},{"base_weights":[-2.6521277E-2,-1.17774025E-1,7.0160115E-1,-8.425094E-1,2.0581486E-3,7.005726E-2,7.6256084E-1,-3.1576732E-1,4.2018685E-1,4.9036914E-1,-7.757073E-2,-5.629266E-1,2.592422E-1,8.0361336E-1,5.8605477E-2,2.8800103E-1,-2.86358E-1,6.1116E-1,-2.7536094E-1,-3.4420958E-1,1.1276245E-3,8.582249E-1,4.435182E-2,2.3720337E-1,-4.1703007E-1,-3.003288E-1,6.9712806E-1,-3.2856986E-1,4.5960337E-2,-1.3009272E-2,9.020434E-1,2.3720337E-1,-3.2718855E-1,2.2390595E-1,-2.6027116E-1,-4.6500616E-2,8.320273E-2,2.8900164E-1,1.7066932E-1],"categories":[],"categories_nodes":[],"categories_segments":[],"categories_sizes":[],"default_left":[1,0,1,1,0,1,0,0,0,1,0,0,0,0,0,0,0,0,0,0,0,0,0,0,0,0,0,0,0,0,0,0,0,0,0,0,0,0,0],"id":12,"left_children":[1,3,5,7,9,11,13,-1,15,17,19,-1,-1,21,23,-1,-1,25,-1,-1,27,29,31,-1,-1,-1,33,-1,35,-1,37,-1,-1,-1,-1,-1,-1,-1,-1],"loss_changes":[5.6244034E1,6.530831E1,3.5761871E0,2.8741272E1,2.5167723E1,1.615126E1,2.4347153E0,0E0,1.2739557E1,1.5997599E1,4.6856125E1,0E0,0E0,3.323349E0,7.261867E0,0E0,0E0,1.2365503E1,0E0,0E0,2.557999E1,3.0247383E0,6.3633404E0,0E0,0E0,0E0,6.8484764E0,0E0,2.3290138E1,0E0,9.245987E-1,0E0,0E0,0E0,0E0,0E0,0E0,0E0,0E0],"parents":[2147483647,0,0,1,1,2,2,3,3,4,4,5,5,6,6,8,8,9,9,10,10,13,13,14,14,17,17,20,20,21,21,22,22,26,26,28,28,30,30],"right_children":[2,4,6,8,10,12,14,-1,16,18,20,-1,-1,22,24,-1,-1,26,-1,-1,28,30,32,-1,-1,-1,34,-1,36,-1,38,-1,-1,-1,-1,-1,-1,-1,-1],"split_conditions":[1.1323529E3,-7.207361E1,3.024232E0,3.000569E2,-7.1735275E1,-7.736497E-6,3.4937744E0,-3.1576732E-1,8.823529E1,2.8350952E2,-7.156389E1,-5.629266E-1,2.592422E-1,8E0,2.8729907E2,2.8800103E-1,-2.86358E-1,8.545313E-3,-2.7536094E-1,-3.4420958E-1,7.7986664E-1,2.981355E2,-1.3084869E0,2.3720337E-1,-4.1703007E-1,-3.003288E-1,8E0,-3.2856986E-1,-7.1047226E1,-1.3009272E-2,4.4142104E-7,2.3720337E-1,-3.2718855E-1,2.2390595E-1,-2.6027116E-1,-4.6500616E-2,8.320273E-2,2.8900164E-1,1.7066932E-1],"split_indices":[39,2,26,10,2,18,21,0,39,4,2,0,0,0,3,0,0,33,0,0,34,3,5,0,0,0,0,0,2,0,7,0,0,0,0,0,0,0,0],"split_type":[0,0,0,0,0,0,0,0,0,0,0,0,0,0,0,0,0,0,0,0,0,0,0,0,0,0,0,0,0,0,0,0,0,0,0,0,0,0,0],"sum_hessian":[8.4425464E2,7.50976E2,9.327865E1,1.0569718E2,6.452788E2,8.400324E0,8.487833E1,9.076494E1,1.4932245E1,8.97491E1,5.555297E2,2.0390773E0,6.3612466E0,8.006747E1,4.810855E0,1.0938596E1,3.99365E0,8.318037E1,6.5687337E0,3.7136158E1,5.1839355E2,7.457328E1,5.494191E0,3.4976234E0,1.3132316E0,3.6719115E0,7.950845E1,1.9445078E1,4.989485E2,3.45686E0,7.111642E1,3.4976234E0,1.9965677E0,7.759048E1,1.917977E0,2.672039E2,2.3174461E2,5.8467377E1,1.2649038E1],"tree_param":{"num_deleted":"0","num_feature":"40","num_nodes":"39","size_leaf_vector":"1"}},{"base_weights":[-2.5104228E-2,-1.01185866E-1,6.2765473E-1,-7.9879326E-1,4.5819297E-3,7.5017923E-1,2.1358687E-1,-3.0533862E-1,5.304339E-2,-3.288106E-2,8.282365E-1,-3.5942906E-1,8.053594E-1,-8.3247167E-1,5.8135784E-1,2.3609757E-1,-3.1198967E-1,-3.2712534E-1,4.916634E-3,9.367598E-1,-1.9939333E-1,-1.3749302E-2,8.5890514E-1,-3.7150648E-1,8.420612E-1,3.0932348E-2,-3.406453E-1,1.6257149E-1,2.993023E-1,9.143158E-1,6.996441E-2,2.8081465E-1,9.9199414E-2,-1.0666785E-2,2.5079617E-1,9.494343E-2,2.818624E-1,2.2351226E-1,-3.6682838E-1],"categories":[],"categories_nodes":[],"categories_segments":[],"categories_sizes":[],"default_left":[1,0,0,0,1,0,0,0,0,0,0,0,0,0,0,0,0,0,0,0,0,0,0,0,0,0,0,0,0,0,0,0,0,0,0,0,0,0,0],"id":13,"left_children":[1,3,5,7,9,11,13,-1,15,17,19,-1,21,-1,23,-1,-1,-1,25,27,-1,-1,29,-1,31,33,-1,-1,-1,35,37,-1,-1,-1,-1,-1,-1,-1,-1],"loss_changes":[3.8056076E1,5.0620647E1,3.8982391E0,1.6903942E1,1.8439034E1,7.558445E0,2.3225698E1,0E0,1.6399538E1,2.2857319E1,4.834486E0,0E0,2.7849808E0,0E0,9.741552E0,0E0,0E0,0E0,1.644054E1,5.2259445E-2,0E0,0E0,2.415844E0,0E0,4.8997688E-1,2.9019825E1,0E0,0E0,0E0,5.0073624E-1,5.1047173E0,0E0,0E0,0E0,0E0,0E0,0E0,0E0,0E0],"parents":[2147483647,0,0,1,1,2,2,3,3,4,4,5,5,6,6,8,8,9,9,10,10,12,12,14,14,18,18,19,19,22,22,24,24,25,25,29,29,30,30],"right_children":[2,4,6,8,10,12,14,-1,16,18,20,-1,22,-1,24,-1,-1,-1,26,28,-1,-1,30,-1,32,34,-1,-1,-1,36,38,-1,-1,-1,-1,-1,-1,-1,-1],"split_conditions":[9.2E2,3.000569E2,4.3511386E-7,-3.4960835E1,3.9898882E0,1.9504089E0,-8.355707E-3,-3.0533862E-1,2.91792E2,-7.194444E1,2.828296E2,-3.5942906E-1,-1.6537476E-1,-8.3247167E-1,9.2141366E-1,2.3609757E-1,-3.1198967E-1,-3.2712534E-1,-3.063889E1,3.3989258E0,-1.9939333E-1,-1.3749302E-2,3.4937744E0,-3.7150648E-1,-5.777791E-3,-3.197139E1,-3.406453E-1,1.6257149E-1,2.993023E-1,2.9881836E2,2.8729907E2,2.8081465E-1,9.9199414E-2,-1.0666785E-2,2.5079617E-1,9.494343E-2,2.818624E-1,2.2351226E-1,-3.6682838E-1],"split_indices":[39,10,7,1,6,6,17,0,3,2,4,0,5,0,34,0,0,0,1,20,0,0,21,0,17,1,0,0,0,9,3,0,0,0,0,0,0,0,0],"split_type":[0,0,0,0,0,0,0,0,0,0,0,0,0,0,0,0,0,0,0,0,0,0,0,0,0,0,0,0,0,0,0,0,0,0,0,0,0,0,0],"sum_hessian":[7.6400793E2,6.850121E2,7.899588E1,8.932214E1,5.9568994E2,6.033173E1,1.8664146E1,7.089949E1,1.8422657E1,5.706927E2,2.4997229E1,1.0912144E0,5.9240517E1,1.3279642E0,1.7336184E1,1.1189175E1,7.2334824E0,1.8732407E1,5.519603E2,2.3650497E1,1.3467311E0,3.514606E0,5.572591E1,1.7025197E0,1.5633663E1,5.406006E2,1.1359726E1,4.4835773E0,1.916692E1,5.1920403E1,3.8055053E0,1.25050335E1,3.1286294E0,5.0024216E2,4.0358433E1,2.6504877E0,4.9269917E1,2.7783074E0,1.0271978E0],"tree_param":{"num_deleted":"0","num_feature":"40","num_nodes":"39","size_leaf_vector":"1"}},{"base_weights":[-2.1893522E-2,-8.6960346E-2,5.27468E-1,-8.619174E-1,-7.655122E-3,7.4037904E-1,2.2924602E-1,1.8681215E-1,-3.1086224E-1,-3.7181312E-1,1.4673133E-2,2.6139408E-1,9.136352E-1,6.3527054E-1,-6.350618E-1,3.0062976E-1,-8.722E-2,-4.0237382E-1,5.431848E-1,1.6942485E-1,2.888815E-1,7.7654886E-1,-8.248002E-2,2.3323383E-2,-5.3494614E-1,8.166776E-2,3.2296187E-1,-1.5585922E0,4.221575E-2,-5.8094922E-2,7.647663E-1,4.2157732E-2,8.46175E-1,5.5076855E-1,-2.6207006E-1,8.308157E-2,-6.9038665E-1,-3.1859556E-1,-5.351715E-1,4.032071E-2,-3.8563687E-1,8.308446E-2,2.6004392E-1,2.690644E-1,1.07307255E-1,7.5862095E-2,2.0806122E-1],"categories":[],"categories_nodes":[],"categories_segments":[],"categories_sizes":[],"default_left":[1,0,0,0,0,1,0,0,0,0,0,0,0,0,0,0,0,0,0,0,0,0,0,0,0,0,0,0,0,0,1,0,0,0,0,0,0,0,0,0,0,0,0,0,0,0,0],"id":14,"left_children":[1,3,5,7,9,11,13,-1,-1,-1,15,17,19,21,23,25,27,-1,29,-1,-1,31,-1,33,-1,35,-1,37,39,-1,41,-1,43,45,-1,-1,-1,-1,-1,-1,-1,-1,-1,-1,-1,-1,-1],"loss_changes":[2.5493095E1,3.916528E1,4.6260967E0,1.5953625E1,1.5947826E1,3.3811016E0,1.1952812E1,0E0,0E0,0E0,1.6631079E1,6.5939126E0,2.975464E-4,3.1571932E0,8.370737E0,2.538644E1,8.023434E1,0E0,2.067703E0,0E0,0E0,7.7019596E-1,0E0,4.2609577E0,0E0,5.555612E1,0E0,1.9168549E0,4.7647285E1,0E0,2.1996403E-1,0E0,1.2249565E-1,6.4689755E-2,0E0,0E0,0E0,0E0,0E0,0E0,0E0,0E0,0E0,0E0,0E0,0E0,0E0],"parents":[2147483647,0,0,1,1,2,2,3,3,4,4,5,5,6,6,10,10,11,11,12,12,13,13,14,14,15,15,16,16,18,18,21,21,23,23,25,25,27,27,28,28,30,30,32,32,33,33],"right_children":[2,4,6,8,10,12,14,-1,-1,-1,16,18,20,22,24,26,28,-1,30,-1,-1,32,-1,34,-1,36,-1,38,40,-1,42,-1,44,46,-1,-1,-1,-1,-1,-1,-1,-1,-1,-1,-1,-1,-1],"split_conditions":[4.5411765E2,5.143742E0,7E0,2.0787048E-1,2.0000305E0,2.984297E2,8.9712524E-1,1.8681215E-1,-3.1086224E-1,-3.7181312E-1,-3.3726387E1,1.5464706E3,4E0,2.8347363E2,2.9510742E2,-7.0611664E1,-3.3548332E1,-4.0237382E-1,1.800003E1,1.6942485E-1,2.888815E-1,2.8056787E2,-8.248002E-2,-7.2410835E1,-5.3494614E-1,-3.3838055E1,3.2296187E-1,5.0001373E0,-7.081528E1,-5.8094922E-2,3.3634033E0,4.2157732E-2,2.2931924E7,6.690826E1,-2.6207006E-1,8.308157E-2,-6.9038665E-1,-3.1859556E-1,-5.351715E-1,4.032071E-2,-3.8563687E-1,8.308446E-2,2.6004392E-1,2.690644E-1,1.07307255E-1,7.5862095E-2,2.0806122E-1],"split_indices":[39,26,0,16,36,10,5,0,0,0,1,39,0,4,11,2,1,0,37,0,0,4,0,2,0,1,0,37,2,0,21,0,8,24,0,0,0,0,0,0,0,0,0,0,0,0,0],"split_type":[0,0,0,0,0,0,0,0,0,0,0,0,0,0,0,0,0,0,0,0,0,0,0,0,0,0,0,0,0,0,0,0,0,0,0,0,0,0,0,0,0,0,0,0,0,0,0],"sum_hessian":[7.1090594E2,6.363749E2,7.453105E1,5.816158E1,5.782133E2,4.2620296E1,3.1910757E1,5.8403044E0,5.2321274E1,9.324544E0,5.688888E2,1.1987711E1,3.0632584E1,2.1891716E1,1.0019041E1,1.48942E2,4.1994678E2,1.2303823E0,1.0757329E1,5.3349915E0,2.5297592E1,1.9077433E1,2.8142843E0,6.9901514E0,3.0288897E0,1.1702325E2,3.191875E1,3.3062656E1,3.8688412E2,2.5161898E0,8.241138E0,2.1801775E0,1.6897255E1,4.6446366E0,2.3455148E0,1.08976944E2,8.046306E0,1.2102087E1,2.0960571E1,3.6260544E2,2.4278662E1,2.0682304E0,6.1729083E0,1.4550786E1,2.346469E0,2.4026294E0,2.2420073E0],"tree_param":{"num_deleted":"0","num_feature":"40","num_nodes":"47","size_leaf_vector":"1"}},{"base_weights":[-2.2726366E-2,-2.8955334E-1,1.0141963E-2,-4.8251737E-2,4.8498067E-1,-3.0780965E-1,1.8283007E-3,7.5283223E-1,2.6317132E-1,5.398272E-1,-5.7876993E-2,8.4183705E-1,-5.869704E-2,-7.1706444E-1,4.743465E-1,-2.7252716E-1,6.1715335E-1,-3.2995024E-1,-4.363738E-3,9.1451246E-1,5.6867786E-2,1.619227E-1,-7.0202017E-1,-3.0487055E-1,6.768574E-1,-2.4038428E-1,2.024802E-1,-3.6007115E-1,8.103663E-3,2.8236994E-1,1.0962735E-1,2.1418582E-1,-2.7524203E-1,-1.0721158E-1,2.2720727E-1],"categories":[],"categories_nodes":[],"categories_segments":[],"categories_sizes":[],"default_left":[0,0,1,0,0,0,0,0,1,0,0,0,0,0,0,0,0,0,0,0,0,0,0,0,0,0,0,0,0,0,0,0,0,0,0],"id":15,"left_children":[1,-1,3,5,7,-1,9,11,13,15,17,19,-1,21,23,-1,25,-1,27,29,-1,-1,-1,31,33,-1,-1,-1,-1,-1,-1,-1,-1,-1,-1],"loss_changes":[2.0396097E1,0E0,1.7683834E1,2.7819536E1,3.9511852E0,0E0,1.7421965E1,2.790081E0,8.5665245E0,6.6279535E0,2.721806E1,1.1833439E0,0E0,1.6443436E1,5.460875E0,0E0,4.8049107E0,0E0,1.7494331E1,3.0025482E-2,0E0,0E0,0E0,5.3724236E0,2.4969406E0,0E0,0E0,0E0,0E0,0E0,0E0,0E0,0E0,0E0,0E0],"parents":[2147483647,0,0,2,2,3,3,4,4,6,6,7,7,8,8,9,9,10,10,11,11,13,13,14,14,16,16,18,18,19,19,23,23,24,24],"right_children":[2,-1,4,6,8,-1,10,12,14,16,18,20,-1,22,24,-1,26,-1,28,30,-1,-1,-1,32,34,-1,-1,-1,-1,-1,-1,-1,-1,-1,-1],"split_conditions":[2.938235E2,-2.8955334E-1,8.647059E1,-7.198861E1,8.7577254E-1,-3.0780965E-1,-7.1735275E1,2.8441144E2,2.8103693E2,1.2146552E-2,-7.156389E1,8E0,-5.869704E-2,2.1660156E0,1.1729412E3,-2.7252716E-1,1.7508392E0,-3.2995024E-1,-3.402139E1,3.175415E0,5.6867786E-2,1.619227E-1,-7.0202017E-1,2.8107056E2,-5.8135986E-3,-2.4038428E-1,2.024802E-1,-3.6007115E-1,8.103663E-3,2.8236994E-1,1.0962735E-1,2.1418582E-1,-2.7524203E-1,-1.0721158E-1,2.2720727E-1],"split_indices":[10,0,39,2,34,0,2,4,4,33,2,0,0,20,39,0,5,0,1,21,0,0,0,4,5,0,0,0,0,0,0,0,0,0,0],"split_type":[0,0,0,0,0,0,0,0,0,0,0,0,0,0,0,0,0,0,0,0,0,0,0,0,0,0,0,0,0,0,0,0,0,0,0],"sum_hessian":[6.571153E2,2.1188921E1,6.359264E2,5.670868E2,6.883961E1,2.6680449E1,5.404063E2,3.0098879E1,3.8740726E1,5.317847E1,4.8722784E2,2.7619545E1,2.4793334E0,6.4421015E0,3.2298626E1,2.1506531E0,5.1027817E1,2.2845737E1,4.643821E2,2.4489002E1,3.130542E0,4.006796E0,2.4353056E0,6.558298E0,2.5740328E1,1.4936295E0,4.9534187E1,1.0920004E1,4.534621E2,2.2671545E1,1.8174573E0,2.400527E0,4.157771E0,1.6104609E0,2.4129866E1],"tree_param":{"num_deleted":"0","num_feature":"40","num_nodes":"35","size_leaf_vector":"1"}},{"base_weights":[-2.1747276E-2,-2.8461185E-1,4.3808855E-3,1.1043241E-1,-2.344837E-1,2.1903472E-1,-4.971167E-1,-1.4206684E0,1.2314712E-1,-6.229555E-2,6.5395963E-1,6.4662194E-1,-1.4879193E0,-3.634219E-1,-2.5710824E0,7.756789E-1,-4.07515E-1,1.6842593E-1,-1.2392681E0,1.3563976E-1,9.36847E-1,-4.2401895E-1,2.9470098E-1,-5.288253E-1,-3.558045E-1,-9.344153E-1,-2.8041098E-1,1.0257208E0,-3.5375938E-1,-3.755308E-1,3.969318E-1,1.37536E-1,-8.969441E-2,-5.10884E-1,1.9664532E-1,2.6227587E-1,-5.1654536E-1,1.9309886E-1,3.0655038E-1,3.400724E-1,-2.998182E-1,2.639218E-1,-3.5061145E-1],"categories":[],"categories_nodes":[],"categories_segments":[],"categories_sizes":[],"default_left":[0,0,0,0,0,0,0,0,0,0,0,0,0,0,0,0,0,0,1,0,0,0,0,0,0,0,0,0,0,0,0,0,0,0,0,0,0,0,0,0,0,0,0],"id":16,"left_children":[1,-1,3,5,7,9,11,13,15,17,19,21,23,-1,25,27,29,31,33,35,37,-1,-1,-1,-1,-1,-1,39,-1,-1,41,-1,-1,-1,-1,-1,-1,-1,-1,-1,-1,-1,-1],"loss_changes":[1.4970246E1,0E0,1.5275351E1,2.7660816E1,7.8830055E1,4.347066E1,7.306827E1,7.2446594E0,4.996534E1,5.8984055E1,2.0327442E1,2.2296452E1,7.6338196E-1,0E0,2.1876564E0,3.281099E1,5.4646427E1,2.478843E1,3.2388012E1,7.068393E1,1.5867462E0,0E0,0E0,0E0,0E0,0E0,0E0,1.3769196E1,0E0,0E0,3.246383E1,0E0,0E0,0E0,0E0,0E0,0E0,0E0,0E0,0E0,0E0,0E0,0E0],"parents":[2147483647,0,0,2,2,3,3,4,4,5,5,6,6,7,7,8,8,9,9,10,10,11,11,12,12,14,14,15,15,16,16,17,17,18,18,19,19,20,20,27,27,30,30],"right_children":[2,-1,4,6,8,10,12,14,16,18,20,22,24,-1,26,28,30,32,34,36,38,-1,-1,-1,-1,-1,-1,40,-1,-1,42,-1,-1,-1,-1,-1,-1,-1,-1,-1,-1,-1,-1],"split_conditions":[2.938235E2,-2.8461185E-1,-3.3170834E1,-7.0891945E1,-3.3023056E1,-3.349222E1,-3.3726387E1,-7.1047226E1,9.1505045E-1,-7.14975E1,1.9E1,-7.0611664E1,-7.081528E1,-3.634219E-1,-7.081528E1,-3.285361E1,-3.197139E1,7E0,5.3294116E2,-7.152722E1,-7.09425E1,-4.2401895E-1,2.9470098E-1,-5.288253E-1,-3.558045E-1,-9.344153E-1,-2.8041098E-1,-7.081528E1,-3.5375938E-1,-3.755308E-1,-7.1483055E1,1.37536E-1,-8.969441E-2,-5.10884E-1,1.9664532E-1,2.6227587E-1,-5.1654536E-1,1.9309886E-1,3.0655038E-1,3.400724E-1,-2.998182E-1,2.639218E-1,-3.5061145E-1],"split_indices":[10,0,1,2,1,1,1,2,34,2,37,2,2,0,2,1,1,0,39,2,2,0,0,0,0,0,0,2,0,0,2,0,0,0,0,0,0,0,0,0,0,0,0],"split_type":[0,0,0,0,0,0,0,0,0,0,0,0,0,0,0,0,0,0,0,0,0,0,0,0,0,0,0,0,0,0,0,0,0,0,0,0,0,0,0,0,0,0,0],"sum_hessian":[6.169297E2,1.5944674E1,6.00985E2,4.165722E2,1.8441278E2,3.5394275E2,6.2629475E1,4.2031357E1,1.4238142E2,2.1544159E2,1.3850116E2,2.9232336E1,3.3397137E1,3.729953E1,4.731827E0,6.365095E1,7.873048E1,1.8084709E2,3.459449E1,4.942385E1,8.90773E1,3.6464992E0,2.5585836E1,1.494947E1,1.8447668E1,2.8737078E0,1.8581189E0,5.6854214E1,6.7967362E0,3.8143456E1,4.058702E1,1.1161121E2,6.923588E1,2.787438E1,6.720111E0,3.5740906E1,1.3682948E1,2.1945381E1,6.713192E1,5.4397354E1,2.4568598E0,3.1355713E1,9.23131E0],"tree_param":{"num_deleted":"0","num_feature":"40","num_nodes":"43","size_leaf_vector":"1"}},{"base_weights":[-2.4595315E-2,-6.49256E-2,5.851225E-1,-9.396367E-3,-7.216978E-1,6.442847E-1,-1.7317097E-1,-5.077171E-1,4.684779E-3,-9.051119E-1,5.600275E-1,8.201157E-1,2.1706942E-1,1.0991499E-1,-2.173679E-1,-1.0161549E0,1.1675054E-1,6.0779553E-2,2.1489495E-1,1.8526303E-2,8.934901E-1,-4.281338E-1,5.713935E-1,2.1983957E-1,-4.431379E-1,5.6578135E-1,-6.570306E-1,-1.1656213E0,1.0524052E-1,5.213892E-2,2.836674E-1,7.214635E-1,1.1863871E-2,-2.1010721E-2,1.7288804E-1,1.8119666E-1,-3.965818E-1,-4.8765108E-1,2.169371E-1,-3.6048988E-1,1.0433161E-1,-2.9891738E-1,-6.069022E-1,1.8089649E-1,-2.3350893E-1,2.4032812E-1,6.62259E-2],"categories":[],"categories_nodes":[],"categories_segments":[],"categories_sizes":[],"default_left":[1,1,0,0,0,0,0,0,0,0,0,0,0,0,0,1,0,0,0,0,0,0,0,0,0,0,0,1,0,0,0,0,0,0,0,0,0,0,0,0,0,0,0,0,0,0,0],"id":17,"left_children":[1,3,5,7,9,11,-1,-1,13,15,17,19,21,23,25,27,-1,-1,-1,-1,29,-1,31,33,35,37,39,41,43,-1,-1,45,-1,-1,-1,-1,-1,-1,-1,-1,-1,-1,-1,-1,-1,-1,-1],"loss_changes":[1.3112576E1,1.8214157E1,2.6472702E0,1.0948998E1,9.66008E0,2.2225676E0,0E0,0E0,1.0745555E1,5.345703E0,1.6166592E-1,1.1845665E0,7.0361032E0,1.9063845E1,5.1285416E1,5.486027E0,0E0,0E0,0E0,0E0,5.9412E-1,0E0,7.29614E-1,2.700039E1,4.8703903E1,1.9691206E1,5.2493225E1,2.0931473E0,2.5279193E0,0E0,0E0,1.16230965E-1,0E0,0E0,0E0,0E0,0E0,0E0,0E0,0E0,0E0,0E0,0E0,0E0,0E0,0E0,0E0],"parents":[2147483647,0,0,1,1,2,2,3,3,4,4,5,5,8,8,9,9,10,10,11,11,12,12,13,13,14,14,15,15,20,20,22,22,23,23,24,24,25,25,26,26,27,27,28,28,31,31],"right_children":[2,4,6,8,10,12,-1,-1,14,16,18,20,22,24,26,28,-1,-1,-1,-1,30,-1,32,34,36,38,40,42,44,-1,-1,46,-1,-1,-1,-1,-1,-1,-1,-1,-1,-1,-1,-1,-1,-1,-1],"split_conditions":[3.3579586E1,9.64856E6,4.156494E-1,3E0,-3.407611E1,3.0961694E2,-1.7317097E-1,-5.077171E-1,-3.3170834E1,3.4279523E2,2.95071E7,1.5464706E3,2.9603662E2,-7.0891945E1,9.1505045E-1,3.2911765E3,1.1675054E-1,6.0779553E-2,2.1489495E-1,1.8526303E-2,4.7280273E0,-4.281338E-1,2.8050232E-1,-3.349222E1,-3.3726387E1,-3.3023056E1,-3.197139E1,1.0729412E3,3.6447058E3,5.213892E-2,2.836674E-1,3.014524E2,1.1863871E-2,-2.1010721E-2,1.7288804E-1,1.8119666E-1,-3.965818E-1,-4.8765108E-1,2.169371E-1,-3.6048988E-1,1.0433161E-1,-2.9891738E-1,-6.069022E-1,1.8089649E-1,-2.3350893E-1,2.4032812E-1,6.62259E-2],"split_indices":[25,8,16,0,1,9,0,0,1,27,8,39,11,2,34,39,0,0,0,0,6,0,15,1,1,1,1,39,39,0,0,10,0,0,0,0,0,0,0,0,0,0,0,0,0,0,0],"split_type":[0,0,0,0,0,0,0,0,0,0,0,0,0,0,0,0,0,0,0,0,0,0,0,0,0,0,0,0,0,0,0,0,0,0,0,0,0,0,0,0,0,0,0,0,0,0,0],"sum_hessian":[5.3070123E2,4.9861356E2,3.2087692E1,4.6067813E2,3.7935432E1,3.0957705E1,1.1299886E0,2.8334439E0,4.5784467E2,3.344352E1,4.4919143E0,2.1279802E1,9.677903E0,3.10978E2,1.4686668E2,3.0998857E1,2.4446626E0,2.065188E0,2.426726E0,2.039736E0,1.9240067E1,1.1790435E0,8.498859E0,2.5991907E2,5.1058918E1,5.2702858E1,9.4163826E1,2.7318274E1,3.6805837E0,1.590715E0,1.7649351E1,6.3504457E0,2.148414E0,1.4378986E2,1.1612921E2,2.3440886E1,2.7618034E1,2.9056237E0,4.9797234E1,6.0939034E1,3.3224796E1,2.4620775E1,2.697498E0,2.5574899E0,1.1230937E0,4.9614854E0,1.3889604E0],"tree_param":{"num_deleted":"0","num_feature":"40","num_nodes":"47","size_leaf_vector":"1"}},{"base_weights":[-2.709058E-2,-7.0403065E-3,-3.2452834E-1,-2.7426723E-1,1.460973E-2,-2.4418302E-2,5.2096397E-1,-9.494343E-1,4.5624925E-3,-6.7647487E-1,6.500557E-1,-3.4813738E-1,1.68924E-1,-4.60375E-1,1.693841E-2,-4.0097168E-1,1.540932E-1,7.7804697E-1,2.0466088E-1,8.043128E-2,-1.5878417E-2,2.7509598E-2,2.4419366E-1,-3.0163085E-1,1.5530445E-1],"categories":[],"categories_nodes":[],"categories_segments":[],"categories_sizes":[],"default_left":[0,0,0,0,1,0,0,1,0,1,0,0,0,0,0,0,0,0,0,0,0,0,0,0,0],"id":18,"left_children":[1,3,-1,-1,5,7,9,11,13,15,17,-1,-1,-1,19,-1,-1,21,23,-1,-1,-1,-1,-1,-1],"loss_changes":[1.0132873E1,9.275782E0,0E0,0E0,9.134641E0,1.1518566E1,5.5526886E0,4.819521E0,7.9779067E0,3.6002033E0,1.5719175E0,0E0,0E0,0E0,7.2987237E0,0E0,0E0,4.983015E-1,3.6021354E0,0E0,0E0,0E0,0E0,0E0,0E0],"parents":[2147483647,0,0,1,1,4,4,5,5,6,6,7,7,8,8,9,9,10,10,14,14,17,17,18,18],"right_children":[2,4,-1,-1,6,8,10,12,14,16,18,-1,-1,-1,20,-1,-1,22,24,-1,-1,-1,-1,-1,-1],"split_conditions":[-3.063889E1,2.938235E2,-3.2452834E-1,-2.7426723E-1,5.11322E0,-7.244583E1,2.8082376E2,1.0735294E4,3E0,7.4005884E3,2.832423E2,-3.4813738E-1,1.68924E-1,-4.60375E-1,-3.3918335E1,-4.0097168E-1,1.540932E-1,-7.283945E1,-3.6801666E1,8.043128E-2,-1.5878417E-2,2.7509598E-2,2.4419366E-1,-3.0163085E-1,1.5530445E-1],"split_indices":[1,10,0,0,6,2,4,39,0,39,4,0,0,0,1,0,0,2,1,0,0,0,0,0,0],"split_type":[0,0,0,0,0,0,0,0,0,0,0,0,0,0,0,0,0,0,0,0,0,0,0,0,0],"sum_hessian":[4.785366E2,4.705968E2,7.93981E0,1.0008102E1,4.6058868E2,4.2851224E2,3.207646E1,1.2052631E1,4.164596E2,2.7088878E0,2.9367573E1,1.0781216E1,1.2714157E0,2.340839E0,4.1411874E2,1.6632895E0,1.0455983E0,2.2231989E1,7.135585E0,8.950742E1,3.2461133E2,1.2826974E0,2.0949291E1,1.0118519E0,6.123733E0],"tree_param":{"num_deleted":"0","num_feature":"40","num_nodes":"25","size_leaf_vector":"1"}},{"base_weights":[-2.3652421E-2,-7.880763E-3,-3.0888888E-1,-4.21537E-2,5.1656544E-1,-5.2940873E-3,-3.2916194E-1,2.4078341E-1,-3.883334E-1,-4.701743E-2,7.8523064E-1,2.99341E-2,-4.9430138E-1,-2.0564578E-1,2.768664E-1,2.7707687E-2,-1.16419345E-1,-3.5317197E-1,2.1275572E-1],"categories":[],"categories_nodes":[],"categories_segments":[],"categories_sizes":[],"default_left":[0,0,0,0,0,0,0,0,0,0,0,0,0,0,0,0,0,0,0],"id":19,"left_children":[1,3,-1,5,7,9,-1,-1,-1,11,13,15,17,-1,-1,-1,-1,-1,-1],"loss_changes":[7.3780675E0,8.278439E0,0E0,1.6798277E1,1.5675121E1,1.3841234E1,0E0,0E0,0E0,1.373034E1,4.8919716E0,8.932039E0,4.895759E1,0E0,0E0,0E0,0E0,0E0,0E0],"parents":[2147483647,0,0,1,1,3,3,4,4,5,5,9,9,10,10,11,11,12,12],"right_children":[2,4,-1,6,8,10,-1,-1,-1,12,14,16,18,-1,-1,-1,-1,-1,-1],"split_conditions":[-3.063889E1,-3.197139E1,-3.0888888E-1,-3.285361E1,-7.1483055E1,-3.2885834E1,-3.2916194E-1,2.4078341E-1,-3.883334E-1,-3.3170834E1,1.800003E1,-7.0891945E1,2.0250866E-1,-2.0564578E-1,2.768664E-1,2.7707687E-2,-1.16419345E-1,-3.5317197E-1,2.1275572E-1],"split_indices":[1,1,0,1,2,1,0,0,0,1,37,2,33,0,0,0,0,0,0],"split_type":[0,0,0,0,0,0,0,0,0,0,0,0,0,0,0,0,0,0,0],"sum_hessian":[4.6453735E2,4.5835907E2,6.1782966E0,4.3110562E2,2.7253439E1,4.1752393E2,1.3581712E1,2.4016838E1,3.236602E0,3.9748544E2,2.0038479E1,3.3993542E2,5.7550022E1,1.3744413E0,1.8664038E1,2.96443E2,4.349242E1,3.672923E1,2.0820795E1],"tree_param":{"num_deleted":"0","num_feature":"40","num_nodes":"19","size_leaf_vector":"1"}},{"base_weights":[-2.201063E-2,-5.6153756E-2,5.429061E-1,-1.9585464E-2,-3.3858722E-1,8.751152E-1,-2.831659E-1,-1.9485112E-1,1.0326005E-1,-1.9790454E-1,2.9966426E-1,3.0991169E-2,-1.4716976E0,-6.0485546E-2,4.3022016E-1,8.006289E-2,-4.4954643E-1,-2.989546E-1,-5.004862E-1,3.3558267E-1,-2.9304913E-1,-5.20817E-1,5.1048964E-1,-9.101167E-2,9.023699E-2,2.1965581E-1,-3.5651597E-1,-6.1364955E-1,-1.852651E-2,3.093064E-1,7.5645626E-2],"categories":[],"categories_nodes":[],"categories_segments":[],"categories_sizes":[],"default_left":[0,0,0,0,0,0,0,0,0,0,0,0,0,0,0,0,0,0,0,0,0,0,0,0,0,0,0,0,0,0,0],"id":20,"left_children":[1,3,5,7,-1,9,-1,11,13,-1,-1,15,17,19,21,23,-1,-1,-1,25,27,-1,29,-1,-1,-1,-1,-1,-1,-1,-1],"loss_changes":[8.497863E0,1.6248924E1,1.3230534E1,8.680162E0,0E0,4.6568127E0,0E0,4.7941204E1,1.27214E1,0E0,0E0,1.0785922E1,6.713486E-1,1.473257E1,1.4666906E1,1.1825112E1,0E0,0E0,0E0,3.667704E1,4.066349E1,0E0,1.0120298E1,0E0,0E0,0E0,0E0,0E0,0E0,0E0,0E0],"parents":[2147483647,0,0,1,1,2,2,3,3,5,5,7,7,8,8,11,11,12,12,13,13,14,14,15,15,19,19,20,20,22,22],"right_children":[2,4,6,8,-1,10,-1,12,14,-1,-1,16,18,20,22,24,-1,-1,-1,26,28,-1,30,-1,-1,-1,-1,-1,-1,-1,-1],"split_conditions":[-7.0611664E1,-7.081528E1,-3.3726387E1,-3.3548332E1,-3.3858722E-1,1.3376467E-1,-2.831659E-1,-3.3838055E1,-7.09425E1,-1.9790454E-1,2.9966426E-1,-7.096972E1,5.0001373E0,-7.152722E1,-3.349222E1,-7.198861E1,-4.4954643E-1,-2.989546E-1,-5.004862E-1,-3.339722E1,-3.3385555E1,-5.20817E-1,-7.091917E1,-9.101167E-2,9.023699E-2,2.1965581E-1,-3.5651597E-1,-6.1364955E-1,-1.852651E-2,3.093064E-1,7.5645626E-2],"split_indices":[2,2,1,1,0,33,0,1,2,0,0,2,37,2,1,2,0,0,0,1,1,0,2,0,0,0,0,0,0,0,0],"split_type":[0,0,0,0,0,0,0,0,0,0,0,0,0,0,0,0,0,0,0,0,0,0,0,0,0,0,0,0,0,0,0],"sum_hessian":[4.379966E2,4.1388248E2,2.4114138E1,4.0122025E2,1.2662246E1,2.004638E1,4.0677586E0,1.6509311E2,2.3612714E2,1.1727847E0,1.8873594E1,1.4111E2,2.398311E1,1.5787595E2,7.825118E1,1.3764157E2,3.4684305E0,8.794555E0,1.5188555E1,5.8242638E1,9.963331E1,2.0588923E0,7.619229E1,5.0149734E1,8.749184E1,4.6627644E1,1.1614996E1,1.0702187E1,8.893112E1,2.427962E1,5.191267E1],"tree_param":{"num_deleted":"0","num_feature":"40","num_nodes":"31","size_leaf_vector":"1"}},{"base_weights":[-2.3400798E-2,-4.8845448E-2,6.25167E-1,-5.250506E-1,6.7441976E-3,7.023045E-1,-7.2647735E-2,-8.8210547E-1,1.06948785E-1,-2.8570881E-2,5.7353044E-1,7.992543E-1,-5.7094295E-2,-8.804495E-2,-1.1379564E0,3.5701156E-1,-3.095385E-1,-3.2987013E-1,4.962262E-3,-1.5523066E-1,6.5730226E-1,2.5863796E-1,2.9332114E-2,4.666966E-1,-2.28552E-1,-5.549124E-1,-2.960736E-1,-3.9085272E-1,6.2063736E-1,3.8002118E-1,-5.4216687E-2,-1.3189336E-2,7.2823524E-1,5.2441757E-2,1.8852302E-1,-2.652077E-1,1.5329637E-1,2.454301E-1,1.8661149E-2,1.972472E-1,-3.9619666E-1,-2.316972E-1,-1.8455944E-3,2.29672E-2,2.439334E-1],"categories":[],"categories_nodes":[],"categories_segments":[],"categories_sizes":[],"default_left":[1,0,0,0,1,0,0,0,0,0,0,0,0,0,0,0,0,0,0,0,0,0,0,0,0,0,0,0,0,0,0,0,0,0,0,0,0,0,0,0,0,0,0,0,0],"id":21,"left_children":[1,3,5,7,9,11,-1,13,15,17,19,21,-1,23,25,27,-1,-1,29,-1,31,-1,-1,33,-1,-1,-1,35,37,39,41,-1,43,-1,-1,-1,-1,-1,-1,-1,-1,-1,-1,-1,-1],"loss_changes":[6.73244E0,1.0372888E1,1.200623E0,9.3370495E0,7.0570498E0,1.3984442E0,0E0,5.2389984E0,4.8328667E0,1.1931424E1,2.229981E0,4.9713707E-1,0E0,3.1544738E0,3.0230904E-1,2.9235575E0,0E0,0E0,7.1894536E0,0E0,1.0091925E0,0E0,0E0,1.13277555E-1,0E0,0E0,0E0,2.300925E0,1.1003871E0,2.1698322E1,9.654211E0,0E0,9.2766285E-1,0E0,0E0,0E0,0E0,0E0,0E0,0E0,0E0,0E0,0E0,0E0,0E0],"parents":[2147483647,0,0,1,1,2,2,3,3,4,4,5,5,7,7,8,8,9,9,10,10,11,11,13,13,14,14,15,15,18,18,20,20,23,23,27,27,28,28,29,29,30,30,32,32],"right_children":[2,4,6,8,10,12,-1,14,16,18,20,22,-1,24,26,28,-1,-1,30,-1,32,-1,-1,34,-1,-1,-1,36,38,40,42,-1,44,-1,-1,-1,-1,-1,-1,-1,-1,-1,-1,-1,-1],"split_conditions":[3.2911765E3,5.11322E0,3.0813208E2,-3.4960835E1,2.8157666E2,2.9174268E2,-7.2647735E-2,1.2476471E3,2.182434E0,-7.194444E1,2.9522827E2,2.564662E-1,-5.7094295E-2,3.1341862E1,3.2911765E3,1.9310303E0,-3.095385E-1,-3.2987013E-1,-3.3918335E1,-1.5523066E-1,-1.2979107E-3,2.5863796E-1,2.9332114E-2,3.3199042E2,-2.28552E-1,-5.549124E-1,-2.960736E-1,3.014524E2,9.64856E6,9.949033E-1,-3.378E1,-1.3189336E-2,2.6489258E0,5.2441757E-2,1.8852302E-1,-2.652077E-1,1.5329637E-1,2.454301E-1,1.8661149E-2,1.972472E-1,-3.9619666E-1,-2.316972E-1,-1.8455944E-3,2.29672E-2,2.439334E-1],"split_indices":[39,6,3,1,4,12,0,39,6,2,10,33,0,24,39,21,0,0,1,0,18,0,0,27,0,0,0,10,8,35,1,0,20,0,0,0,0,0,0,0,0,0,0,0,0],"split_type":[0,0,0,0,0,0,0,0,0,0,0,0,0,0,0,0,0,0,0,0,0,0,0,0,0,0,0,0,0,0,0,0,0,0,0,0,0,0,0,0,0,0,0,0,0],"sum_hessian":[4.051125E2,3.9070886E2,1.4403624E1,3.9958843E1,3.5075E2,1.34019575E1,1.001666E0,2.5280573E1,1.467827E1,3.3107135E2,1.9678663E1,1.2183292E1,1.2186651E0,6.488122E0,1.8792452E1,1.2598242E1,2.080028E0,9.086068E0,3.219853E2,1.0341487E0,1.8644514E1,1.0970978E1,1.2123141E0,3.7270057E0,2.761116E0,1.3210907E0,1.7471361E1,3.1577125E0,9.44053E0,4.314204E1,2.7884323E2,1.7475791E0,1.6896935E1,2.0705857E0,1.65642E0,2.0541506E0,1.1035616E0,6.6308575E0,2.8096719E0,3.7617973E1,5.524068E0,1.6547537E1,2.622957E2,2.1662743E0,1.473066E1],"tree_param":{"num_deleted":"0","num_feature":"40","num_nodes":"45","size_leaf_vector":"1"}},{"base_weights":[-2.0658484E-2,-4.495195E-1,-9.677814E-3,-3.8398664E-2,5.2353686E-1,-8.127162E-3,-3.1425878E-1,2.5655344E-1,-2.6129356E-1,2.0270048E-2,-5.5961096E-1,3.6194425E-2,-2.9086494E-1,-8.667104E-1,2.1460171E-1,1.9300056E-1,3.490364E-3,-3.2661164E-1,8.117518E-2,-1.3739528E-1,1.8679555E-1],"categories":[],"categories_nodes":[],"categories_segments":[],"categories_sizes":[],"default_left":[0,0,0,0,0,1,0,0,0,0,0,0,0,1,0,0,0,0,0,0,0],"id":22,"left_children":[1,-1,3,5,7,9,-1,-1,-1,11,13,15,-1,17,19,-1,-1,-1,-1,-1,-1],"loss_changes":[6.255559E0,0E0,5.9094524E0,1.1167124E1,9.866585E0,5.589538E0,0E0,0E0,0E0,5.3897676E0,4.3415704E0,4.992275E0,0E0,3.504181E0,1.8674705E0,0E0,0E0,0E0,0E0,0E0,0E0],"parents":[2147483647,0,0,2,2,3,3,4,4,5,5,9,9,10,10,11,11,13,13,14,14],"right_children":[2,-1,4,6,8,10,-1,-1,-1,12,14,16,-1,18,20,-1,-1,-1,-1,-1,-1],"split_conditions":[3E0,-4.495195E-1,-7.0611664E1,-7.081528E1,-3.3726387E1,2.8350952E2,-3.1425878E-1,2.5655344E-1,-2.6129356E-1,-3.063889E1,6.296633E0,1.6133118E-1,-2.9086494E-1,3.2911765E3,-7.2275E1,1.9300056E-1,3.490364E-3,-3.2661164E-1,8.117518E-2,-1.3739528E-1,1.8679555E-1],"split_indices":[0,0,2,2,1,4,0,0,0,1,26,15,0,39,2,0,0,0,0,0,0],"split_type":[0,0,0,0,0,0,0,0,0,0,0,0,0,0,0,0,0,0,0,0,0],"sum_hessian":[3.8540695E2,1.8436029E0,3.8356335E2,3.6483975E2,1.8723589E1,3.5519287E2,9.646883E0,1.5438732E1,3.2848568E0,3.3871487E2,1.647799E1,3.3430005E2,4.414838E0,1.1712594E1,4.7653956E0,1.2017707E1,3.2228235E2,9.835475E0,1.8771195E0,1.7532138E0,3.012182E0],"tree_param":{"num_deleted":"0","num_feature":"40","num_nodes":"21","size_leaf_vector":"1"}},{"base_weights":[-1.8936297E-2,-3.9425883E-1,-9.69763E-3,9.47046E-3,-6.0201436E-1,-9.09819E-3,7.1076643E-1,-2.769936E-1,1.5973653E-1,2.0939805E-2,-6.0647136E-1,-4.186971E-3,7.995038E-1,1.5738724E-1,-1.4329848E-1,6.311975E-1,-9.40565E-3,-9.7871476E-1,-1.038346E-2,7.572555E-2,2.541742E-1,1.5309492E-1,-2.1824418E-1,1.0379366E-2,2.4512139E-1,-3.286025E-1,7.3536485E-3,-3.2449737E-1,-6.527261E-3,-2.3090482E-1,2.0374353E-1],"categories":[],"categories_nodes":[],"categories_segments":[],"categories_sizes":[],"default_left":[0,0,0,1,1,1,0,0,0,0,0,0,0,0,0,0,0,0,1,0,0,0,0,0,0,0,0,0,0,0,0],"id":23,"left_children":[1,-1,3,5,7,9,11,-1,13,15,17,-1,19,-1,21,23,25,27,29,-1,-1,-1,-1,-1,-1,-1,-1,-1,-1,-1,-1],"loss_changes":[4.4727745E0,0E0,4.242782E0,4.7267165E0,3.0144486E0,6.3669314E0,6.1327124E-1,0E0,5.5369246E-1,6.2676063E0,3.7591014E0,0E0,4.4612885E-3,0E0,1.5738626E0,1.7495465E0,1.1927369E1,1.0055485E0,4.470808E0,0E0,0E0,0E0,0E0,0E0,0E0,0E0,0E0,0E0,0E0,0E0,0E0],"parents":[2147483647,0,0,2,2,3,3,4,4,5,5,6,6,8,8,9,9,10,10,12,12,14,14,15,15,16,16,17,17,18,18],"right_children":[2,-1,4,6,8,10,12,-1,14,16,18,-1,20,-1,22,24,26,28,30,-1,-1,-1,-1,-1,-1,-1,-1,-1,-1,-1,-1],"split_conditions":[3E0,-3.9425883E-1,8E0,3.0124E2,1.1323529E3,3.5072327E-1,1.0193338E-2,-2.769936E-1,-1.3084869E0,8.940697E-8,2.8339722E2,-4.186971E-3,2.4728394E-1,1.5738724E-1,4.307697E0,2.984297E2,-7.194444E1,7.42276E0,1.2347059E3,7.572555E-2,2.541742E-1,1.5309492E-1,-2.1824418E-1,1.0379366E-2,2.4512139E-1,-3.286025E-1,7.3536485E-3,-3.2449737E-1,-6.527261E-3,-2.3090482E-1,2.0374353E-1],"split_indices":[0,0,0,10,39,16,33,0,5,7,4,0,13,0,25,10,2,6,39,0,0,0,0,0,0,0,0,0,0,0,0],"split_type":[0,0,0,0,0,0,0,0,0,0,0,0,0,0,0,0,0,0,0,0,0,0,0,0,0,0,0,0,0,0,0],"sum_hessian":[3.7384055E2,1.6472471E0,3.721933E2,3.614794E2,1.07139015E1,3.5311673E2,8.362665E0,7.386339E0,3.3275628E0,3.3712964E2,1.59871E1,1.0041815E0,7.358484E0,1.1779492E0,2.1496136E0,1.5031926E1,3.2209772E2,9.44624E0,6.54086E0,1.0952426E0,6.2632413E0,1.074192E0,1.0754217E0,3.8525422E0,1.1179384E1,8.807779E0,3.1328992E2,8.411118E0,1.035122E0,3.0576136E0,3.4832466E0],"tree_param":{"num_deleted":"0","num_feature":"40","num_nodes":"31","size_leaf_vector":"1"}},{"base_weights":[-1.654338E-2,-4.9400353E-3,-2.734371E-1,-3.72363E-2,4.5190015E-1,-2.5144874E-3,-3.1140938E-1,2.1482794E-1,-3.4063655E-1,-4.300186E-2,7.2896975E-1,7.519313E-2,-3.156282E-1,-1.9137192E-1,2.6860157E-1,-3.8863587E-1,3.235531E-2,1.2694831E-2,-3.6974838E-1],"categories":[],"categories_nodes":[],"categories_segments":[],"categories_sizes":[],"default_left":[0,0,0,0,0,0,0,0,0,0,0,0,0,0,0,0,0,0,0],"id":24,"left_children":[1,3,-1,5,7,9,-1,-1,-1,11,13,15,17,-1,-1,-1,-1,-1,-1],"loss_changes":[3.7742488E0,5.3320265E0,0E0,1.1721383E1,1.0820196E1,9.718E0,0E0,0E0,0E0,1.0040808E1,4.484742E0,9.882691E0,3.0969643E1,0E0,0E0,0E0,0E0,0E0,0E0],"parents":[2147483647,0,0,1,1,3,3,4,4,5,5,9,9,10,10,11,11,12,12],"right_children":[2,4,-1,6,8,10,-1,-1,-1,12,14,16,18,-1,-1,-1,-1,-1,-1],"split_conditions":[-3.063889E1,-3.197139E1,-2.734371E-1,-3.285361E1,-7.1483055E1,-3.2885834E1,-3.1140938E-1,2.1482794E-1,-3.4063655E-1,7E0,-7.1047226E1,7.139914E-1,-7.152722E1,-1.9137192E-1,2.6860157E-1,-3.8863587E-1,3.235531E-2,1.2694831E-2,-3.6974838E-1],"split_indices":[1,1,0,1,2,1,0,0,0,0,2,34,2,0,0,0,0,0,0],"split_type":[0,0,0,0,0,0,0,0,0,0,0,0,0,0,0,0,0,0,0],"sum_hessian":[3.629016E2,3.5924915E2,3.652463E0,3.363868E2,2.2862335E1,3.2607635E2,1.0310457E1,2.0070723E1,2.7916133E0,3.0986658E2,1.6209784E1,2.1665968E2,9.3206894E1,1.4513426E0,1.4758441E1,4.1422644E0,2.1251741E2,6.772207E1,2.5484825E1],"tree_param":{"num_deleted":"0","num_feature":"40","num_nodes":"19","size_leaf_vector":"1"}},{"base_weights":[-1.8341493E-2,-4.1542906E-2,4.7461042E-1,-1.7546073E-2,-2.9428184E-1,2.342162E-1,-2.3969504E-1,-1.5980506E-1,9.516975E-2,3.1062609E-2,-1.0848669E0,-3.4563294E-1,1.8047509E-1,-1.18711025E-1,8.2965827E-1,-4.1771504E-1,4.8014122E-1,9.44082E-1,7.3770136E-2,2.2999289E-2,-7.415881E-1,2.8135315E-1,-7.505222E-2,1.7759608E-2,1.9358653E-1,3.1524697E-1,-1.661166E-1,-4.4005176E-1,5.5601325E-2],"categories":[],"categories_nodes":[],"categories_segments":[],"categories_sizes":[],"default_left":[0,0,0,0,0,0,0,0,0,0,1,0,0,0,0,0,0,0,0,0,0,0,0,0,0,0,0,0,0],"id":25,"left_children":[1,3,5,7,-1,-1,-1,9,11,13,15,-1,17,19,21,-1,23,25,27,-1,-1,-1,-1,-1,-1,-1,-1,-1,-1],"loss_changes":[3.9789293E0,7.456302E0,6.7216067E0,5.2151394E0,0E0,0E0,0E0,2.5411442E1,1.9525705E1,1.4465797E1,1.2513191E1,0E0,1.3847321E1,4.709678E1,2.4653835E0,0E0,2.9446995E-1,3.9163208E0,2.6216516E1,0E0,0E0,0E0,0E0,0E0,0E0,0E0,0E0,0E0,0E0],"parents":[2147483647,0,0,1,1,2,2,3,3,7,7,8,8,9,9,10,10,12,12,13,13,14,14,16,16,17,17,18,18],"right_children":[2,4,6,8,-1,-1,-1,10,12,14,16,-1,18,20,22,-1,24,26,28,-1,-1,-1,-1,-1,-1,-1,-1,-1,-1],"split_conditions":[-7.0611664E1,-7.081528E1,-3.3726387E1,-3.349222E1,-2.9428184E-1,2.342162E-1,-2.3969504E-1,-7.14975E1,-7.153861E1,-7.150389E1,2.0369873E0,-3.4563294E-1,-7.152722E1,-7.1556114E1,4E0,-4.1771504E-1,-3.440278E1,-3.339722E1,-7.148889E1,2.2999289E-2,-7.415881E-1,2.8135315E-1,-7.505222E-2,1.7759608E-2,1.9358653E-1,3.1524697E-1,-1.661166E-1,-4.4005176E-1,5.5601325E-2],"split_indices":[2,2,1,1,0,0,0,2,2,2,21,0,2,2,0,0,1,1,2,0,0,0,0,0,0,0,0,0,0],"split_type":[0,0,0,0,0,0,0,0,0,0,0,0,0,0,0,0,0,0,0,0,0,0,0,0,0,0,0,0,0],"sum_hessian":[3.4517038E2,3.305293E2,1.4641058E1,3.2328958E2,7.239736E0,1.2115962E1,2.5250955E0,1.4273082E2,1.8055876E2,1.1911938E2,2.3611437E1,1.0757905E1,1.6980086E2,1.0102405E2,1.8095331E1,1.9826021E1,3.7854156E0,1.9856348E1,1.499445E2,9.417289E1,6.8511543E0,1.6567017E1,1.5283142E0,1.4494311E0,2.3359845E0,1.8813992E1,1.042357E0,9.305104E0,1.406394E2],"tree_param":{"num_deleted":"0","num_feature":"40","num_nodes":"29","size_leaf_vector":"1"}},{"base_weights":[-2.0568563E-2,-2.4976477E-4,-5.331562E-1,-2.2697488E-2,7.1432644E-1,-1.0034463E0,-5.9340447E-2,-7.2450036E-1,-3.4750493E-3,3.6932547E-2,2.3176037E-1,4.5495715E-2,-3.7819564E-1,-2.179337E-1,4.467684E-1,-3.6059564E-1,1.8844105E-1,2.2984985E-1,-4.696972E-2,2.1324982E-1,-5.1299844E-2,-6.885582E-2,5.938548E-1,-3.2162946E-1,1.7328957E-2,6.0726255E-2,-9.475335E-1,2.7023605E-1,1.0692715E-1,2.137343E-1,-1.07846735E-2],"categories":[],"categories_nodes":[],"categories_segments":[],"categories_sizes":[],"default_left":[1,1,0,0,0,0,1,0,0,0,0,0,0,0,0,0,0,0,0,0,0,0,0,0,0,0,0,0,0,0,0],"id":26,"left_children":[1,3,5,7,9,11,13,15,17,-1,-1,-1,-1,-1,19,-1,-1,21,23,-1,-1,25,27,-1,29,-1,-1,-1,-1,-1,-1],"loss_changes":[3.3484807E0,4.9928923E0,2.6719773E0,4.068532E0,2.3114634E-1,2.0002613E0,2.7450414E0,5.9480524E0,3.001874E0,0E0,0E0,0E0,0E0,0E0,8.875537E-1,0E0,0E0,5.0945845E0,1.6448076E1,0E0,0E0,2.278748E1,1.2132215E0,0E0,8.748259E0,0E0,0E0,0E0,0E0,0E0,0E0],"parents":[2147483647,0,0,1,1,2,2,3,3,4,4,5,5,6,6,7,7,8,8,14,14,17,17,18,18,21,21,22,22,24,24],"right_children":[2,4,6,8,10,12,14,16,18,-1,-1,-1,-1,-1,20,-1,-1,22,24,-1,-1,26,28,-1,30,-1,-1,-1,-1,-1,-1],"split_conditions":[2.8350952E2,3.0741177E3,2.9122192E2,2.8103693E2,2.9580713E2,1.5983582E-1,1.1729412E3,3.014524E2,-7.1735275E1,3.6932547E-2,2.3176037E-1,4.5495715E-2,-3.7819564E-1,-2.179337E-1,2.9174268E2,-3.6059564E-1,1.8844105E-1,-7.185333E1,-7.156389E1,2.1324982E-1,-5.1299844E-2,-7.1916115E1,-7.1821945E1,-3.2162946E-1,-7.1556114E1,6.0726255E-2,-9.475335E-1,2.7023605E-1,1.0692715E-1,2.137343E-1,-1.07846735E-2],"split_indices":[4,39,12,4,10,15,39,10,2,0,0,0,0,0,12,0,0,2,2,0,0,2,2,0,2,0,0,0,0,0,0],"split_type":[0,0,0,0,0,0,0,0,0,0,0,0,0,0,0,0,0,0,0,0,0,0,0,0,0,0,0,0,0,0,0],"sum_hessian":[3.2051328E2,3.09255E2,1.1258273E1,3.007747E2,8.48031E0,5.089172E0,6.1691017E0,7.0404534E0,2.9373422E2,1.0392861E0,7.4410243E0,1.0015671E0,4.087605E0,2.4734619E0,3.6956398E0,5.285893E0,1.7545605E0,4.547915E1,2.4825508E2,2.4834461E0,1.2121936E0,2.5425554E1,2.0053595E1,1.3727099E1,2.3452798E2,2.4232353E1,1.1932019E0,7.5280447E0,1.252555E1,1.5815119E1,2.1871286E2],"tree_param":{"num_deleted":"0","num_feature":"40","num_nodes":"31","size_leaf_vector":"1"}},{"base_weights":[-1.867028E-2,-8.13331E-2,1.2876725E-1,-4.6348583E-2,-1.1592636E0,2.2353476E-1,-3.347031E-1,-1.13461964E-1,2.546614E-1,-4.407237E-1,9.455692E-2,-7.900198E-2,5.924973E-1,3.7100326E-2,-3.203396E-1,-6.131662E-1,4.2270717E-1,3.4500435E-1,-4.0710118E-1,6.81107E-1,-2.2058499E-1,1.1457966E-1,-4.2115417E-1,-2.5198886E-1,6.1642796E-1,-1.3868839E-1,2.4369569E-1,5.292313E-1,2.6369447E-1,-2.2346105E-2,2.3787887E-1,2.0288621E-1,-1.6292433E-1,-3.8105989E-1,2.0607133E-1,2.4838497E-1,-4.2560604E-1],"categories":[],"categories_nodes":[],"categories_segments":[],"categories_sizes":[],"default_left":[0,0,0,0,0,0,0,0,0,0,0,0,0,0,0,0,0,0,0,0,0,0,0,0,0,0,0,0,0,0,0,0,0,0,0,0,0],"id":27,"left_children":[1,3,5,7,9,11,-1,13,15,-1,-1,17,19,21,-1,-1,23,25,-1,27,-1,29,-1,-1,31,33,-1,35,-1,-1,-1,-1,-1,-1,-1,-1,-1],"loss_changes":[2.8641665E0,8.143433E0,1.1159488E1,4.3031354E0,3.5653782E0,9.735579E0,0E0,2.499748E1,1.588232E1,0E0,0E0,2.6789654E1,5.1156073E0,1.7018282E1,0E0,0E0,9.583105E0,8.537205E0,0E0,6.5542984E-1,0E0,1.855488E1,0E0,0E0,2.6374683E0,1.8779171E1,0E0,1.4912552E1,0E0,0E0,0E0,0E0,0E0,0E0,0E0,0E0,0E0],"parents":[2147483647,0,0,1,1,2,2,3,3,4,4,5,5,7,7,8,8,11,11,12,12,13,13,16,16,17,17,19,19,21,21,24,24,25,25,27,27],"right_children":[2,4,6,8,10,12,-1,14,16,-1,-1,18,20,22,-1,-1,24,26,-1,28,-1,30,-1,-1,32,34,-1,36,-1,-1,-1,-1,-1,-1,-1,-1,-1],"split_conditions":[-7.09425E1,-7.1011665E1,4E0,-3.2885834E1,3.067157E-2,-3.3228333E1,-3.347031E-1,-3.336111E1,-7.148889E1,-4.407237E-1,9.455692E-2,-3.344528E1,-7.081528E1,-7.116639E1,-3.203396E-1,-6.131662E-1,1.5259488E-4,-3.349222E1,-4.0710118E-1,-3.3023056E1,-2.2058499E-1,-3.3413334E1,-4.2115417E-1,-2.5198886E-1,1.8830208E-2,-7.0611664E1,2.4369569E-1,-7.0891945E1,2.6369447E-1,-2.2346105E-2,2.3787887E-1,2.0288621E-1,-1.6292433E-1,-3.8105989E-1,2.0607133E-1,2.4838497E-1,-4.2560604E-1],"split_indices":[2,2,0,1,33,1,0,1,2,0,0,1,2,2,0,0,33,1,0,1,0,1,0,0,33,2,0,2,0,0,0,0,0,0,0,0,0],"split_type":[0,0,0,0,0,0,0,0,0,0,0,0,0,0,0,0,0,0,0,0,0,0,0,0,0,0,0,0,0,0,0,0,0,0,0,0,0],"sum_hessian":[3.0787964E2,2.1636859E2,9.151105E1,2.1057726E2,5.7913427E0,8.5797714E1,5.7133355E0,1.7269592E2,3.7881332E1,4.788763E0,1.0025797E0,4.757429E1,3.8223423E1,1.4999316E2,2.2702763E1,1.8203055E0,3.6061028E1,3.6270702E1,1.1303589E1,3.6288723E1,1.9347017E0,1.4321312E2,6.780045E0,4.3529034E0,3.1708122E1,1.8168581E1,1.810212E1,2.2609621E1,1.3679101E1,1.12693794E2,3.0519323E1,3.0547844E1,1.1602787E0,7.437134E0,1.0731448E1,2.0101898E1,2.5077243E0],"tree_param":{"num_deleted":"0","num_feature":"40","num_nodes":"37","size_leaf_vector":"1"}},{"base_weights":[-2.4066193E-2,-1.1253541E-2,-7.406591E-1,-4.3079704E-2,2.8756714E-1,-3.0496302E-1,4.655032E-2,-2.7661452E-1,-6.550623E-3,-4.482018E-1,4.6609485E-1,3.6277458E-1,-5.614235E-2,2.8858906E-1,-4.6463913E-1,-1.1648259E-1,5.7056063E-1,1.2251364E-1,2.4888854E-1,-3.0660176E-1,3.0416176E-3,1.9282313E-1,-9.436854E-2,7.18633E-1,1.6987479E-1,9.8284975E-2,-2.3634543E-1,1.8606874E-1,-1.383252E-2,-5.7921592E-2,2.4136265E-1,-1.6515367E-1,2.1756046E-1],"categories":[],"categories_nodes":[],"categories_segments":[],"categories_sizes":[],"default_left":[0,1,1,0,1,0,0,0,0,0,0,0,0,0,0,0,0,0,0,0,0,0,0,0,0,0,0,0,0,0,0,0,0],"id":28,"left_children":[1,3,5,7,9,-1,-1,-1,11,13,15,17,19,21,-1,-1,23,25,-1,-1,27,-1,-1,29,31,-1,-1,-1,-1,-1,-1,-1,-1],"loss_changes":[2.5272205E0,2.602285E0,1.3528209E0,7.9240465E0,3.6691568E0,0E0,0E0,0E0,4.381915E0,5.031459E0,2.15735E0,3.0754356E0,1.2053774E1,1.1056194E0,0E0,0E0,1.0485768E0,3.9687767E0,0E0,0E0,6.0844913E0,0E0,0E0,1.2595E0,3.0530188E0,0E0,0E0,0E0,0E0,0E0,0E0,0E0,0E0],"parents":[2147483647,0,0,1,1,2,2,3,3,4,4,8,8,9,9,10,10,11,11,12,12,13,13,16,16,17,17,20,20,23,23,24,24],"right_children":[2,4,6,8,10,-1,-1,-1,12,14,16,18,20,22,-1,-1,24,26,-1,-1,28,-1,-1,30,32,-1,-1,-1,-1,-1,-1,-1,-1],"split_conditions":[9.969481E-1,8.647059E1,5.4778137E0,-7.198861E1,1.3708496E-1,-3.0496302E-1,4.655032E-2,-2.7661452E-1,-7.1735275E1,8.940697E-8,-1.2979107E-3,-3.3918335E1,-7.156389E1,4.6239014E0,-4.6463913E-1,-1.1648259E-1,4.4142104E-7,-7.1821945E1,2.4888854E-1,-3.0660176E-1,-7.1556114E1,1.9282313E-1,-9.436854E-2,1.9110107E0,2.4580214E2,9.8284975E-2,-2.3634543E-1,1.8606874E-1,-1.383252E-2,-5.7921592E-2,2.4136265E-1,-1.6515367E-1,2.1756046E-1],"split_indices":[34,39,6,2,13,0,0,0,2,7,18,1,2,20,0,0,7,2,0,0,2,0,0,21,27,0,0,0,0,0,0,0,0],"split_type":[0,0,0,0,0,0,0,0,0,0,0,0,0,0,0,0,0,0,0,0,0,0,0,0,0,0,0,0,0,0,0,0,0],"sum_hessian":[2.7516055E2,2.7132498E2,3.8355749E0,2.4598224E2,2.5342726E1,2.829447E0,1.0061278E0,8.8476305E0,2.3713461E2,4.6535273E0,2.0689198E1,2.7324587E1,2.0981003E2,3.2294009E0,1.4241266E0,1.9581077E0,1.8731089E1,1.8873817E1,8.450768E0,1.1174671E1,1.9863536E2,1.9933271E0,1.2360737E0,1.3097454E1,5.6336355E0,1.5925765E1,2.9480526E0,1.3794588E1,1.8484076E2,1.0204624E0,1.2076992E1,2.4561331E0,3.1775024E0],"tree_param":{"num_deleted":"0","num_feature":"40","num_nodes":"33","size_leaf_vector":"1"}},{"base_weights":[-2.047377E-2,-4.3916926E-2,4.015844E-1,-9.8171E-3,-6.396134E-1,6.686683E-1,-2.0868292E-3,2.0488277E-1,-5.7117984E-2,-7.6444656E-1,9.730504E-2,-3.2002754E-3,2.324176E-1,-2.0639418E-1,2.794123E-1,-1.4749606E-1,7.239752E-1,-4.1101536E-1,1.8816436E-2,-8.9165646E-1,9.5448755E-2,-4.956301E-2,1.5871617E-1,1.1487267E-1,-6.2992644E-1,2.9867965E-1,-3.241995E-1,2.0719898E-1,-4.3587482E-1,-1.3445592E-1,1.9275868E-1,-1.0082742E0,2.4352575E-2,-4.189021E-2,2.5506037E-1,-2.4751437E-1,1.6214675E-1,1.7272145E-1,-2.8353107E-1,4.2496987E-2,-1.7704774E-1,8.8779755E-2,-3.2119083E-1,-3.193049E-1,-1.0253001E-1],"categories":[],"categories_nodes":[],"categories_segments":[],"categories_sizes":[],"default_left":[1,1,0,0,0,0,0,0,0,0,0,0,0,0,1,0,0,0,0,0,0,0,0,0,0,0,1,0,0,0,0,0,0,0,0,0,0,0,0,0,0,0,0,0,0],"id":29,"left_children":[1,3,5,7,9,11,13,15,17,19,-1,-1,-1,-1,21,23,25,27,29,31,-1,-1,-1,33,-1,-1,35,37,-1,39,41,43,-1,-1,-1,-1,-1,-1,-1,-1,-1,-1,-1,-1,-1],"loss_changes":[2.6329107E0,5.0986524E0,1.51161E0,2.4360244E0,1.8834753E0,6.15855E-1,1.4616214E0,8.0300045E0,5.2857056E0,1.9819117E0,0E0,0E0,0E0,0E0,6.8373907E-1,1.3882367E1,5.357567E0,2.2678164E1,4.362617E0,1.3635397E0,0E0,0E0,0E0,4.6897435E0,0E0,0E0,2.3488066E0,1.0175075E1,0E0,1.1037775E1,1.0302248E1,1.6068459E-2,0E0,0E0,0E0,0E0,0E0,0E0,0E0,0E0,0E0,0E0,0E0,0E0,0E0],"parents":[2147483647,0,0,1,1,2,2,3,3,4,4,5,5,6,6,7,7,8,8,9,9,14,14,15,15,16,16,17,17,18,18,19,19,23,23,26,26,27,27,29,29,30,30,31,31],"right_children":[2,4,6,8,10,12,14,16,18,20,-1,-1,-1,-1,22,24,26,28,30,32,-1,-1,-1,34,-1,-1,36,38,-1,40,42,44,-1,-1,-1,-1,-1,-1,-1,-1,-1,-1,-1,-1,-1],"split_conditions":[3.3579586E1,9.64856E6,7E0,-3.3918335E1,-3.407611E1,1.1729412E3,1.6705322E-1,-7.150389E1,-3.3548332E1,3.4279523E2,9.730504E-2,-3.2002754E-3,2.324176E-1,-2.0639418E-1,1.6252941E3,-7.1821945E1,-7.14975E1,6.000107E0,1.9E1,3.1967026E1,9.5448755E-2,-4.956301E-2,1.5871617E-1,-7.185333E1,-6.2992644E-1,2.9867965E-1,2.1215153E0,-3.3726387E1,-4.3587482E-1,-7.1483055E1,4E0,2.95071E7,2.4352575E-2,-4.189021E-2,2.5506037E-1,-2.4751437E-1,1.6214675E-1,1.7272145E-1,-2.8353107E-1,4.2496987E-2,-1.7704774E-1,8.8779755E-2,-3.2119083E-1,-3.193049E-1,-1.0253001E-1],"split_indices":[25,8,0,1,1,39,15,2,1,27,0,0,0,0,39,2,2,37,37,25,0,0,0,2,0,0,6,1,0,2,0,8,0,0,0,0,0,0,0,0,0,0,0,0,0],"split_type":[0,0,0,0,0,0,0,0,0,0,0,0,0,0,0,0,0,0,0,0,0,0,0,0,0,0,0,0,0,0,0,0,0,0,0,0,0,0,0,0,0,0,0,0,0],"sum_hessian":[2.633193E2,2.503117E2,1.300758E1,2.3772023E2,1.2591488E1,7.433098E0,5.5744824E0,4.2315887E1,1.9540433E2,1.1331088E1,1.260399E0,1.1251966E0,6.3079014E0,1.2019216E0,4.372561E0,2.5631887E1,1.6684E1,3.374072E1,1.6166362E2,1.0297484E1,1.0336043E0,1.693887E0,2.6786737E0,2.3424915E1,2.2069716E0,1.3290154E1,3.393846E0,2.1678726E1,1.2061993E1,8.605856E1,7.560505E1,9.16268E0,1.1348042E0,1.8003708E1,5.4212084E0,2.178089E0,1.2157573E0,1.6804522E1,4.8742056E0,5.4017982E1,3.2040585E1,7.0604935E1,5.0001144E0,7.9010344E0,1.2616458E0],"tree_param":{"num_deleted":"0","num_feature":"40","num_nodes":"45","size_leaf_vector":"1"}},{"base_weights":[-2.1419836E-2,-7.346116E-2,1.7305793E-1,1.5687959E-3,-3.354706E-1,-1.5074903E0,3.2590652E-1,6.4626016E-2,-4.9028993E-1,-2.2446822E-1,-6.2166977E-1,6.6194946E-1,-3.1837814E-2,-1.2215614E-1,3.315203E-1,4.2792282E-1,-3.4143016E-1,8.6049205E-1,-2.5010857E-1,2.1634275E-1,-3.2208067E-1,-5.6519546E-3,-8.6895615E-1,-1.1225257E-1,5.652419E-1,-2.0473509E-1,2.119236E-1,2.8725508E-1,-1.7327183E-1,7.32957E-2,-1.11403435E-1,-3.3823094E-1,1.1473472E-1,1.5719038E-1,-3.6781755E-1,1.2199541E-1,2.4646884E-1],"categories":[],"categories_nodes":[],"categories_segments":[],"categories_sizes":[],"default_left":[0,0,0,0,0,0,0,0,0,0,0,0,0,0,0,0,0,0,0,0,0,0,1,0,0,0,0,0,0,0,0,0,0,0,0,0,0],"id":30,"left_children":[1,3,5,7,-1,9,11,13,15,-1,-1,17,19,21,23,25,-1,27,-1,-1,-1,29,31,33,35,-1,-1,-1,-1,-1,-1,-1,-1,-1,-1,-1,-1],"loss_changes":[2.4893546E0,1.5189657E1,1.3837361E1,5.6692142E0,0E0,3.830452E-1,5.845282E0,8.116129E0,1.284235E1,0E0,0E0,8.149201E0,1.9929981E1,8.350313E0,7.008901E0,3.363811E0,0E0,3.7044659E0,0E0,0E0,0E0,7.77653E0,4.621011E0,1.7603725E1,1.4556694E0,0E0,0E0,0E0,0E0,0E0,0E0,0E0,0E0,0E0,0E0,0E0,0E0],"parents":[2147483647,0,0,1,1,2,2,3,3,5,5,6,6,7,7,8,8,11,11,12,12,13,13,14,14,15,15,17,17,21,21,22,22,23,23,24,24],"right_children":[2,4,6,8,-1,10,12,14,16,-1,-1,18,20,22,24,26,-1,28,-1,-1,-1,30,32,34,36,-1,-1,-1,-1,-1,-1,-1,-1,-1,-1,-1,-1],"split_conditions":[-3.3023056E1,-3.3170834E1,-7.148889E1,-7.0891945E1,-3.354706E-1,-3.197139E1,9.1505045E-1,-3.349222E1,-3.3726387E1,-2.2446822E-1,-6.2166977E-1,-3.285361E1,-7.1483055E1,-7.14975E1,1.9E1,-3.378E1,-3.4143016E-1,-7.081528E1,-2.5010857E-1,2.1634275E-1,-3.2208067E-1,7E0,5.3294116E2,-7.152722E1,-3.3228333E1,-2.0473509E-1,2.119236E-1,2.8725508E-1,-1.7327183E-1,7.32957E-2,-1.11403435E-1,-3.3823094E-1,1.1473472E-1,1.5719038E-1,-3.6781755E-1,1.2199541E-1,2.4646884E-1],"split_indices":[1,1,2,2,0,1,34,1,1,0,0,1,2,2,37,1,0,2,0,0,0,0,39,2,1,0,0,0,0,0,0,0,0,0,0,0,0],"split_type":[0,0,0,0,0,0,0,0,0,0,0,0,0,0,0,0,0,0,0,0,0,0,0,0,0,0,0,0,0,0,0,0,0,0,0,0,0],"sum_hessian":[2.4370612E2,1.9274953E2,5.0956593E1,1.8076637E2,1.1983153E1,3.5093338E0,4.744726E1,1.609951E2,1.9771269E1,2.4885387E0,1.0207951E0,2.4027225E1,2.3420034E1,9.503118E1,6.596392E1,8.319113E0,1.1452156E1,2.1586365E1,2.4408607E0,1.3772867E1,9.647168E0,8.307818E1,1.1953004E1,2.293548E1,4.302844E1,1.3772582E0,6.941855E0,2.0535048E1,1.0513164E0,4.9544037E1,3.3534145E1,9.988851E0,1.9641536E0,1.4934353E1,8.001127E0,2.8179651E1,1.4848786E1],"tree_param":{"num_deleted":"0","num_feature":"40","num_nodes":"37","size_leaf_vector":"1"}},{"base_weights":[-2.6335834E-2,-5.315011E-2,3.263402E-1,-8.0809134E-1,-3.0795975E-2,4.4469607E-1,-1.0832209E-1,7.2003114E-3,-2.9623073E-1,2.9461414E-1,-5.9992153E-2,6.312565E-2,7.2452986E-1,-1.2207248E-1,2.2408377E-1,-7.6237756E-1,-2.7906911E-2,-2.0272116E-1,4.7110432E-1,2.9102832E-2,2.4478073E-1,-2.8998274E-1,2.200225E-1,2.3944391E-1,-5.5759963E-2,2.7160155E-2,1.8022841E-1,-8.418107E-2,1.5928374E-1,-4.7204775E-1,-9.246498E-3],"categories":[],"categories_nodes":[],"categories_segments":[],"categories_sizes":[],"default_left":[1,0,0,0,0,0,0,0,0,0,0,1,0,1,0,0,0,0,0,0,0,0,0,0,0,0,0,0,0,0,0],"id":31,"left_children":[1,3,5,7,9,11,-1,-1,-1,13,15,17,19,21,-1,-1,23,-1,25,-1,-1,-1,27,-1,29,-1,-1,-1,-1,-1,-1],"loss_changes":[2.071139E0,3.3957558E0,1.4204626E0,8.8768387E-1,1.8978918E0,1.412725E0,0E0,0E0,0E0,3.1941915E0,1.4453427E1,2.390579E0,3.6736393E-1,2.9367712E0,0E0,0E0,4.2117605E0,0E0,1.9322395E-1,0E0,0E0,0E0,1.3203232E0,0E0,6.6186466E0,0E0,0E0,0E0,0E0,0E0,0E0],"parents":[2147483647,0,0,1,1,2,2,3,3,4,4,5,5,9,9,10,10,11,11,12,12,13,13,16,16,18,18,22,22,24,24],"right_children":[2,4,6,8,10,12,-1,-1,-1,14,16,18,20,22,-1,-1,24,-1,26,-1,-1,-1,28,-1,30,-1,-1,-1,-1,-1,-1],"split_conditions":[5.11322E0,-7.244583E1,3.0961694E2,2.9158398E2,-7.1916115E1,2.9955078E2,-1.0832209E-1,7.2003114E-3,-2.9623073E-1,-7.194444E1,-7.185333E1,1.5464706E3,9.997406E-1,1.5078735E-1,2.2408377E-1,-7.6237756E-1,-7.1821945E1,-2.0272116E-1,-1.1521295E-2,2.9102832E-2,2.4478073E-1,-2.8998274E-1,-3.6593334E1,2.3944391E-1,-7.1748886E1,2.7160155E-2,1.8022841E-1,-8.418107E-2,1.5928374E-1,-4.7204775E-1,-9.246498E-3],"split_indices":[6,2,9,9,2,10,0,0,0,2,2,39,35,14,0,0,2,0,17,0,0,0,1,0,2,0,0,0,0,0,0],"split_type":[0,0,0,0,0,0,0,0,0,0,0,0,0,0,0,0,0,0,0,0,0,0,0,0,0,0,0,0,0,0,0],"sum_hessian":[2.1617749E2,2.0169197E2,1.4485528E1,4.7895722E0,1.9690239E2,1.2659039E1,1.8264893E0,1.0028569E0,3.7867153E0,1.5463288E1,1.814391E2,5.8744497E0,6.784589E0,8.428816E0,7.034473E0,1.3178993E0,1.801212E2,1.8563086E0,4.0181413E0,1.1246866E0,5.659902E0,1.9036586E0,6.525157E0,4.973182E0,1.7514803E2,1.4526285E0,2.565513E0,2.5372984E0,3.9878583E0,1.827571E0,1.7332045E2],"tree_param":{"num_deleted":"0","num_feature":"40","num_nodes":"31","size_leaf_vector":"1"}},{"base_weights":[-2.2861317E-2,-3.6225233E-2,1.8186629E-1,-8.28553E-1,-2.0721259E-2,-2.8451183E-1,-7.52078E-2,-1.0730358E-1,6.868553E-2,5.625221E-2,-4.835149E-1,1.1712387E-1,-2.6174685E-1,-8.412208E-2,2.3508288E-1,-3.0929783E-1,2.1909614E-1,-2.3560924E-2,7.144253E-1,4.765484E-2,-2.5084496E-1,-4.6935293E-1,1.4828028E-1,4.4293612E-2,-3.391981E-1,2.5264692E-1,-2.203523E-1],"categories":[],"categories_nodes":[],"categories_segments":[],"categories_sizes":[],"default_left":[1,0,0,0,0,0,0,0,0,0,0,0,0,0,0,0,0,0,0,0,0,0,0,0,0,0,0],"id":32,"left_children":[1,3,-1,5,7,-1,-1,9,11,13,15,17,-1,19,-1,-1,21,23,25,-1,-1,-1,-1,-1,-1,-1,-1],"loss_changes":[1.8045949E0,2.5450072E0,0E0,3.763604E-2,1.5989071E0,0E0,0E0,6.478083E0,4.7412515E0,7.618127E0,1.2485729E1,8.2232685E0,0E0,1.1626795E1,0E0,0E0,8.0287075E0,1.5332278E1,4.0700216E0,0E0,0E0,0E0,0E0,0E0,0E0,0E0,0E0],"parents":[2147483647,0,0,1,1,3,3,4,4,7,7,8,8,9,9,10,10,11,11,13,13,16,16,17,17,18,18],"right_children":[2,4,-1,6,8,-1,-1,10,12,14,16,18,-1,20,-1,-1,22,24,26,-1,-1,-1,-1,-1,-1,-1,-1],"split_conditions":[5.5170586E3,-7.283945E1,1.8186629E-1,6.7796507E0,1.800003E1,-2.8451183E-1,-7.52078E-2,-3.339722E1,-3.285361E1,-3.3413334E1,-3.197139E1,-3.3023056E1,-2.6174685E-1,7E0,2.3508288E-1,-3.0929783E-1,-7.148889E1,-7.0891945E1,9.1505045E-1,4.765484E-2,-2.5084496E-1,-4.6935293E-1,1.4828028E-1,4.4293612E-2,-3.391981E-1,2.5264692E-1,-2.203523E-1],"split_indices":[39,2,0,26,37,0,0,1,1,1,1,1,0,0,0,0,2,2,34,0,0,0,0,0,0,0,0],"split_type":[0,0,0,0,0,0,0,0,0,0,0,0,0,0,0,0,0,0,0,0,0,0,0,0,0,0,0],"sum_hessian":[2.1104163E2,2.0757443E2,3.467193E0,2.9773269E0,2.045971E2,1.9349366E0,1.0423902E0,1.0383866E2,1.00758446E2,7.2967094E1,3.0871563E1,9.665935E1,4.099097E0,6.190438E1,1.1062716E1,1.708864E1,1.3782923E1,7.901029E1,1.7649055E1,4.738394E1,1.4520436E1,1.2159296E0,1.2566993E1,6.917884E1,9.831456E0,1.6604092E1,1.0449634E0],"tree_param":{"num_deleted":"0","num_feature":"40","num_nodes":"27","size_leaf_vector":"1"}},{"base_weights":[-2.6052697E-2,-5.386587E-2,3.2336652E-1,-2.135032E-1,3.903965E-2,-1.2539813E-1,4.3060955E-1,-7.420935E-2,-4.7445187E-1,5.884365E-1,-3.9152175E-2,5.8851635E-1,-9.9205635E-2,-7.6746335E-4,-2.8036776E-1,2.7233064E-1,-2.7008334E-1,-3.3996615E-1,5.3677303E-3,7.069531E-1,1.4633696E-1,-1.7490143E-1,1.0770964E-1,-1.6928346E-1,2.6814872E-1,-2.2658303E-1,1.06546365E-1,-1.8700542E-1,1.9352245E-1,2.3073666E-1,6.4927176E-2,1.5473554E-1,-8.3412856E-2,-1.611281E-2,-4.424839E-1,-3.890981E-3,-3.807319E-1,1.7868291E-1,1.3579238E-2],"categories":[],"categories_nodes":[],"categories_segments":[],"categories_sizes":[],"default_left":[1,0,0,0,0,0,0,0,0,0,0,0,0,0,0,0,1,0,0,0,0,0,0,0,0,0,0,0,0,0,0,0,0,0,0,0,0,0,0],"id":33,"left_children":[1,3,5,7,9,-1,11,13,-1,15,17,19,21,23,-1,-1,25,-1,27,29,31,-1,-1,33,-1,-1,-1,35,37,-1,-1,-1,-1,-1,-1,-1,-1,-1,-1],"loss_changes":[1.9135381E0,2.7013412E0,1.3350351E0,1.2640874E1,4.9900517E0,0E0,1.1614099E0,3.9051163E0,0E0,4.2116413E0,4.9818726E0,4.3603373E-1,1.0701584E0,8.888134E0,0E0,0E0,1.6919745E0,0E0,3.6252596E0,7.3364735E-2,6.823353E-1,0E0,0E0,7.406757E0,0E0,0E0,0E0,9.312608E0,2.9906058E0,0E0,0E0,0E0,0E0,0E0,0E0,0E0,0E0,0E0,0E0],"parents":[2147483647,0,0,1,1,2,2,3,3,4,4,6,6,7,7,9,9,10,10,11,11,12,12,13,13,16,16,18,18,19,19,20,20,23,23,27,27,28,28],"right_children":[2,4,6,8,10,-1,12,14,-1,16,18,20,22,24,-1,-1,26,-1,28,30,32,-1,-1,34,-1,-1,-1,36,38,-1,-1,-1,-1,-1,-1,-1,-1,-1,-1],"split_conditions":[4.959656E0,-7.150389E1,2.8082376E2,-7.152722E1,-3.3918335E1,-1.2539813E-1,2.832423E2,-3.339722E1,-4.7445187E-1,-7.14975E1,-7.148889E1,6.4409513E0,-7.226667E1,-3.3413334E1,-2.8036776E-1,2.7233064E-1,2.0369873E0,-3.3996615E-1,-3.3228333E1,3.0813208E2,1.5106201E-1,-1.7490143E-1,1.0770964E-1,-7.1556114E1,2.6814872E-1,-2.2658303E-1,1.06546365E-1,-3.336111E1,-3.3170834E1,2.3073666E-1,6.4927176E-2,1.5473554E-1,-8.3412856E-2,-1.611281E-2,-4.424839E-1,-3.890981E-3,-3.807319E-1,1.7868291E-1,1.3579238E-2],"split_indices":[6,2,4,2,1,0,4,1,0,2,2,26,2,1,0,0,21,0,1,3,14,0,0,2,0,0,0,1,1,0,0,0,0,0,0,0,0,0,0],"split_type":[0,0,0,0,0,0,0,0,0,0,0,0,0,0,0,0,0,0,0,0,0,0,0,0,0,0,0,0,0,0,0,0,0,0,0,0,0,0,0],"sum_hessian":[1.9410501E2,1.8057721E2,1.3527795E1,6.595325E1,1.1462396E2,1.343397E0,1.2184398E1,6.0815132E1,5.1381187E0,1.3468077E1,1.0115588E2,9.301401E0,2.882997E0,5.695425E1,3.8608832E0,9.7748785E0,3.6931975E0,2.9991088E0,9.815678E1,6.86408E0,2.4373212E0,1.2699409E0,1.6130561E0,4.8608574E1,8.345674E0,1.96238E0,1.7308174E0,4.853734E1,4.961944E1,5.587929E0,1.276151E0,1.187845E0,1.2494762E0,4.561223E1,2.9963477E0,4.2684353E1,5.8529854E0,1.2554191E1,3.7065247E1],"tree_param":{"num_deleted":"0","num_feature":"40","num_nodes":"39","size_leaf_vector":"1"}},{"base_weights":[-2.4587581E-2,-4.649076E-2,3.059667E-1,-1.7986294E-2,-5.780526E-1,5.0324434E-1,-6.42326E-2,-4.2996015E-2,4.7068897E-1,1.5594544E-1,-2.6980975E-1,-2.2384016E-2,2.2438647E-1,-1.7863207E-1,2.7258357E-1,-2.7029166E-1,-1.9367222E-2,6.4177555E-1,-3.8627375E-2,-9.164714E-2,1.4440706E-1,-1.0442969E-1,1.1323407E-1,-2.8096737E-2,1.549749E-1,2.1597981E-1,-4.9754925E-2,5.7374973E-2,2.2051294E-1,-6.496895E-1,-5.570802E-3],"categories":[],"categories_nodes":[],"categories_segments":[],"categories_sizes":[],"default_left":[1,1,0,1,0,1,0,0,0,0,0,0,0,0,0,0,0,0,0,0,0,0,0,0,0,0,0,0,0,0,0],"id":34,"left_children":[1,3,5,7,9,11,13,15,17,19,-1,21,-1,-1,23,-1,25,27,-1,-1,-1,-1,-1,-1,-1,-1,29,-1,-1,-1,-1],"loss_changes":[1.3508765E0,2.626196E0,8.798386E-1,2.051311E0,2.2213652E0,1.0050619E0,1.0427803E0,3.2061896E0,9.210211E-1,6.78444E-1,0E0,5.757067E-1,0E0,0E0,3.7880054E-1,0E0,3.5353372E0,1.3367581E-1,0E0,0E0,0E0,0E0,0E0,0E0,0E0,0E0,9.894296E0,0E0,0E0,0E0,0E0],"parents":[2147483647,0,0,1,1,2,2,3,3,4,4,5,5,6,6,7,7,8,8,9,9,11,11,14,14,16,16,17,17,26,26],"right_children":[2,4,6,8,10,12,14,16,18,20,-1,22,-1,-1,24,-1,26,28,-1,-1,-1,-1,-1,-1,-1,-1,30,-1,-1,-1,-1],"split_conditions":[3.1967026E1,9.64856E6,3.0961694E2,-1.6558915E-6,1.6252941E3,1.6252941E3,-1.0634564E-2,-7.194444E1,8E0,2.5840842E2,-2.6980975E-1,2.8807728E7,2.2438647E-1,-1.7863207E-1,3.0184326E0,-2.7029166E-1,-7.1916115E1,2.5107422E0,-3.8627375E-2,-9.164714E-2,1.4440706E-1,-1.0442969E-1,1.1323407E-1,-2.8096737E-2,1.549749E-1,2.1597981E-1,-7.185333E1,5.7374973E-2,2.2051294E-1,-6.496895E-1,-5.570802E-3],"split_indices":[25,8,9,19,39,39,17,2,0,27,0,8,0,0,21,0,2,20,0,0,0,0,0,0,0,0,2,0,0,0,0],"split_type":[0,0,0,0,0,0,0,0,0,0,0,0,0,0,0,0,0,0,0,0,0,0,0,0,0,0,0,0,0,0,0],"sum_hessian":[1.8361557E2,1.7301088E2,1.0604687E1,1.6518674E2,7.8241363E0,6.6836247E0,3.9210625E0,1.5801193E2,7.174816E0,2.5389345E0,5.2852015E0,2.4117694E0,4.2718554E0,1.22353E0,2.6975324E0,3.2398727E0,1.5477205E2,5.52681E0,1.6480056E0,1.0753284E0,1.463606E0,1.400369E0,1.0114005E0,1.3249567E0,1.3725758E0,5.214612E0,1.4955745E2,1.4711282E0,4.055682E0,1.1781636E0,1.4837929E2],"tree_param":{"num_deleted":"0","num_feature":"40","num_nodes":"31","size_leaf_vector":"1"}},{"base_weights":[-1.9471416E-2,-9.177196E-3,-2.2270332E-1,-5.559366E-2,1.9447945E-1,8.654981E-4,-3.1131592E-1,-3.053356E-1,3.16692E-1,-3.7879504E-2,3.8626635E-1,5.667904E-1,4.952106E-2,1.6871303E-2,-3.4351942E-1,-1.8837683E-1,1.602338E-1,7.415182E-1,-2.0122305E-1,1.969258E-1,-3.0430064E-1,2.0177059E-2,-1.2784578E-1,2.688429E-1,1.5003306E-1],"categories":[],"categories_nodes":[],"categories_segments":[],"categories_sizes":[],"default_left":[0,0,0,0,0,0,0,0,0,0,0,0,0,0,0,0,0,0,0,0,0,0,0,0,0],"id":35,"left_children":[1,3,-1,5,7,9,-1,-1,11,13,15,17,19,21,-1,-1,-1,23,-1,-1,-1,-1,-1,-1,-1],"loss_changes":[1.3375225E0,1.7041489E0,0E0,8.133229E0,5.281223E0,2.1004884E0,0E0,0E0,2.0545883E0,7.7687407E0,2.262086E0,3.9577084E0,1.1103244E1,2.7697885E0,0E0,0E0,0E0,9.300423E-2,0E0,0E0,0E0,0E0,0E0,0E0,0E0],"parents":[2147483647,0,0,1,1,3,3,4,4,5,5,8,8,9,9,10,10,11,11,12,12,13,13,17,17],"right_children":[2,4,-1,6,8,10,-1,-1,12,14,16,18,20,22,-1,-1,-1,24,-1,-1,-1,-1,-1,-1,-1],"split_conditions":[-3.063889E1,-3.3023056E1,-2.2270332E-1,-3.3170834E1,-7.148889E1,-3.3228333E1,-3.1131592E-1,-3.053356E-1,9.1505045E-1,-3.336111E1,1.800003E1,-3.285361E1,-7.1483055E1,-7.091917E1,-3.4351942E-1,-1.8837683E-1,1.602338E-1,-7.1011665E1,-2.0122305E-1,1.969258E-1,-3.0430064E-1,2.0177059E-2,-1.2784578E-1,2.688429E-1,1.5003306E-1],"split_indices":[1,1,0,1,2,1,0,0,34,1,37,1,2,2,0,0,0,2,0,0,0,0,0,0,0],"split_type":[0,0,0,0,0,0,0,0,0,0,0,0,0,0,0,0,0,0,0,0,0,0,0,0,0],"sum_hessian":[1.7965587E2,1.7813185E2,1.5240276E0,1.456606E2,3.2471252E1,1.3868706E2,6.9735384E0,2.3026402E0,3.0168612E1,1.2683757E2,1.18494835E1,1.5002932E1,1.516568E1,1.217993E2,5.0382686E0,1.0944811E0,1.0755002E1,1.3497959E1,1.5049716E0,9.900641E0,5.2650385E0,1.1012308E2,1.1676224E1,6.574662E0,6.9232974E0],"tree_param":{"num_deleted":"0","num_feature":"40","num_nodes":"25","size_leaf_vector":"1"}},{"base_weights":[-2.2412745E-2,-4.5310877E-2,4.168221E-1,-2.9073898E-2,-2.3305558E-1,1.9109207E-1,-1.6681844E-1,-1.0741703E-1,1.0424403E-1,3.3529408E-4,-5.698075E-1,2.032805E-1,-5.623731E-1,-1.17659934E-1,3.834662E-1,-3.156534E-1,1.3412305E-2,4.8290634E-1,-1.5333073E-1,2.72168E-1,-3.0876607E-1,-2.8546718E-3,-4.0033746E-1,2.522944E-1,1.5319938E-2,2.0021494E-1,-2.7334124E-1,-6.015672E-2,2.0364669E-1,-4.318724E-1,1.268134E-1,-4.5555092E-2,1.522949E-1],"categories":[],"categories_nodes":[],"categories_segments":[],"categories_sizes":[],"default_left":[0,0,0,0,0,0,0,0,0,0,0,0,0,0,0,0,0,0,0,0,0,0,0,0,0,0,0,0,0,0,0,0,0],"id":36,"left_children":[1,3,5,7,-1,-1,-1,9,11,13,15,17,19,21,23,-1,25,27,29,31,-1,-1,-1,-1,-1,-1,-1,-1,-1,-1,-1,-1,-1],"loss_changes":[1.7358919E0,1.9154236E0,2.186913E0,1.6891707E0,0E0,0E0,0E0,5.066449E0,4.0736146E0,3.8184092E0,5.4206715E0,5.3539886E0,3.4058177E0,8.485131E0,2.9815276E0,0E0,6.4651136E0,4.1420975E0,1.8413101E1,4.4341832E-1,0E0,0E0,0E0,0E0,0E0,0E0,0E0,0E0,0E0,0E0,0E0,0E0,0E0],"parents":[2147483647,0,0,1,1,2,2,3,3,7,7,8,8,9,9,10,10,11,11,12,12,13,13,14,14,16,16,17,17,18,18,19,19],"right_children":[2,4,6,8,-1,-1,-1,10,12,14,16,18,20,22,24,-1,26,28,30,32,-1,-1,-1,-1,-1,-1,-1,-1,-1,-1,-1,-1,-1],"split_conditions":[-7.0611664E1,-7.081528E1,-3.3726387E1,1.9E1,-2.3305558E-1,1.9109207E-1,-1.6681844E-1,-7.1483055E1,7E0,-7.150389E1,-3.2885834E1,-7.091917E1,7.997589E-1,-7.152722E1,-3.3918335E1,-3.156534E-1,-3.285361E1,-3.349222E1,-3.3228333E1,3.003772E2,-3.0876607E-1,-2.8546718E-3,-4.0033746E-1,2.522944E-1,1.5319938E-2,2.0021494E-1,-2.7334124E-1,-6.015672E-2,2.0364669E-1,-4.318724E-1,1.268134E-1,-4.5555092E-2,1.522949E-1],"split_indices":[2,2,1,37,0,0,0,2,0,2,1,2,5,2,1,0,1,1,1,10,0,0,0,0,0,0,0,0,0,0,0,0,0],"split_type":[0,0,0,0,0,0,0,0,0,0,0,0,0,0,0,0,0,0,0,0,0,0,0,0,0,0,0,0,0,0,0,0,0],"sum_hessian":[1.6971622E2,1.6215938E2,7.556831E0,1.5965549E2,2.5039034E0,6.4439235E0,1.1129073E0,1.0068379E2,5.8971684E1,8.2465805E1,1.8217993E1,5.1948914E1,7.0227714E0,6.3578144E1,1.888766E1,9.530995E0,8.686997E0,2.8918892E1,2.3030022E1,2.6688726E0,4.353899E0,5.931433E1,4.2638106E0,7.30417E0,1.158349E1,5.250947E0,3.43605E0,6.437823E0,2.2481068E1,6.659949E0,1.6370073E1,1.0797604E0,1.5891122E0],"tree_param":{"num_deleted":"0","num_feature":"40","num_nodes":"33","size_leaf_vector":"1"}},{"base_weights":[-2.586412E-2,-4.2945325E-2,3.9555496E-1,-2.0886473E-1,1.6157497E-2,-5.268131E-2,1.8906635E-1,-1.3823151E-2,-8.8355446E-1,5.268766E-1,-4.2047624E-2,1.1725081E-1,-1.4359324E-1,-1.754437E-1,1.9873849E-1,-2.9227883E-1,-2.5056602E-2,2.1906203E-1,-2.1635696E-1,-2.9345942E-1,-5.9801065E-3,-5.322141E-2,-1.0351466E0,-2.6890707E-1,8.8769466E-2,-6.523913E-2,2.1120766E-1,9.319507E-2,-5.3174573E-1,3.095879E-2,-3.5020044E-1,2.4992473E-1,1.1384559E-3],"categories":[],"categories_nodes":[],"categories_segments":[],"categories_sizes":[],"default_left":[1,0,0,0,0,0,0,0,1,0,0,0,0,0,0,0,0,0,0,0,0,0,0,0,0,0,0,0,0,0,0,0,0],"id":37,"left_children":[1,3,5,7,9,11,-1,13,15,17,19,-1,-1,21,-1,-1,-1,-1,-1,-1,23,25,27,29,31,-1,-1,-1,-1,-1,-1,-1,-1],"loss_changes":[1.1428975E0,1.4862996E0,6.843832E-1,5.22394E0,3.3643289E0,7.633203E-1,0E0,3.6011167E0,5.650301E-1,3.4643583E0,3.4332294E0,0E0,0E0,2.7319195E0,0E0,0E0,0E0,0E0,0E0,0E0,2.4922245E0,3.1724484E0,3.7729497E0,8.978052E0,4.6510315E0,0E0,0E0,0E0,0E0,0E0,0E0,0E0,0E0],"parents":[2147483647,0,0,1,1,2,2,3,3,4,4,5,5,7,7,8,8,9,9,10,10,13,13,20,20,21,21,22,22,23,23,24,24],"right_children":[2,4,6,8,10,12,-1,14,16,18,20,-1,-1,22,-1,-1,-1,-1,-1,-1,24,26,28,30,32,-1,-1,-1,-1,-1,-1,-1,-1],"split_conditions":[3.2911765E3,-7.156389E1,1.9558628E7,-7.1735275E1,-7.1556114E1,2.1244846E1,1.8906635E-1,-7.1748886E1,-2.2510067E-6,4E0,-7.153861E1,1.1725081E-1,-1.4359324E-1,-7.1821945E1,1.9873849E-1,-2.9227883E-1,-2.5056602E-2,2.1906203E-1,-2.1635696E-1,-2.9345942E-1,-3.349222E1,-7.185333E1,2.4553741E1,-3.3726387E1,-7.152722E1,-6.523913E-2,2.1120766E-1,9.319507E-2,-5.3174573E-1,3.095879E-2,-3.5020044E-1,2.4992473E-1,1.1384559E-3],"split_indices":[39,2,8,2,2,25,0,2,19,0,2,0,0,2,0,0,0,0,0,0,1,2,24,1,2,0,0,0,0,0,0,0,0],"split_type":[0,0,0,0,0,0,0,0,0,0,0,0,0,0,0,0,0,0,0,0,0,0,0,0,0,0,0,0,0,0,0,0,0],"sum_hessian":[1.5541237E2,1.5022159E2,5.1907763E0,3.879065E1,1.1143094E2,2.0501971E0,3.1405795E0,3.0883291E1,7.9073577E0,1.0576416E1,1.0085452E2,1.044802E0,1.0053952E0,2.5524054E1,5.359237E0,6.906513E0,1.0008445E0,9.451538E0,1.1248778E0,2.7724667E0,9.808206E1,2.327675E1,2.2473032E0,2.5495314E1,7.258675E1,1.9713772E1,3.562977E0,1.0002772E0,1.2470262E0,1.8654352E1,6.840961E0,6.5356374E0,6.605111E1],"tree_param":{"num_deleted":"0","num_feature":"40","num_nodes":"33","size_leaf_vector":"1"}},{"base_weights":[-2.3404825E-2,-4.3107826E-2,1.1135922E-1,-2.8118988E-2,-2.157216E-1,-9.784858E-2,9.1156945E-2,-7.700076E-3,-5.270227E-1,1.7583713E-1,-4.8492423E-1,-1.1100796E-1,3.2022086E-1,-2.960946E-1,1.0524048E-3,4.2110375E-1,-1.3864765E-1,2.6169983E-1,-2.8810424E-1,-5.7764775E-3,-3.4894103E-1,2.3206149E-1,1.5181804E-2,1.7904134E-1,-2.531983E-1,-2.831832E-2,1.7246485E-1,-4.1227096E-1,1.00284964E-1,-3.6149796E-2,1.4164051E-1],"categories":[],"categories_nodes":[],"categories_segments":[],"categories_sizes":[],"default_left":[0,0,0,0,0,0,0,0,0,0,0,0,0,0,0,0,0,0,0,0,0,0,0,0,0,0,0,0,0,0,0],"id":38,"left_children":[1,3,-1,5,-1,7,9,11,13,15,17,19,21,-1,23,25,27,29,-1,-1,-1,-1,-1,-1,-1,-1,-1,-1,-1,-1,-1],"loss_changes":[1.1664128E0,1.4167389E0,0E0,1.1715535E0,0E0,3.4276578E0,2.6263518E0,2.5531633E0,3.7372994E0,3.6179152E0,2.7153726E0,5.5048275E0,2.168316E0,0E0,4.611688E0,2.1292396E0,1.2714964E1,3.373004E-1,0E0,0E0,0E0,0E0,0E0,0E0,0E0,0E0,0E0,0E0,0E0,0E0,0E0],"parents":[2147483647,0,0,1,1,3,3,5,5,6,6,7,7,8,8,9,9,10,10,11,11,12,12,14,14,15,15,16,16,17,17],"right_children":[2,4,-1,6,-1,8,10,12,14,16,18,20,22,-1,24,26,28,30,-1,-1,-1,-1,-1,-1,-1,-1,-1,-1,-1,-1,-1],"split_conditions":[-7.0611664E1,-7.081528E1,1.1135922E-1,1.9E1,-2.157216E-1,-7.1483055E1,7E0,-7.150389E1,-3.2885834E1,-7.091917E1,7.997589E-1,-7.152722E1,-3.3918335E1,-2.960946E-1,-3.285361E1,-3.349222E1,-3.3228333E1,3.003772E2,-2.8810424E-1,-5.7764775E-3,-3.4894103E-1,2.3206149E-1,1.5181804E-2,1.7904134E-1,-2.531983E-1,-2.831832E-2,1.7246485E-1,-4.1227096E-1,1.00284964E-1,-3.6149796E-2,1.4164051E-1],"split_indices":[2,2,0,37,0,2,0,