{"learner":{"attributes":{"scikit_learn":"{\"_estimator_type\": \"classifier\"}"},"feature_names":["latitud","longitud","region","provincia","comuna","month","hour","day_of_year","t2m","d2m","u10","v10","tp","ssrd","stl1","stl2","stl3","stl4","swvl1","swvl2","swvl3","swvl4","pev","e","evavt","lai_hv","lai_lv","slt","lsm","cvh","cvl","tvh","tvl","t2m_celsius","d2m_celsius","stl1_celsius","stl2_celsius","stl3_celsius","stl4_celsius","relative_humidity","vpd_hpa","wind_speed","wind_direction","tp_mm"],"feature_types":["float","float","int","int","int","int","int","int","float","float","float","float","float","float","float","float","float","float","float","float","float","float","float","float","float","float","float","float","float","float","float","float","float","float","float","float","float","float","float","float","float","float","float","float"],"gradient_booster":{"model":{"cats":{"enc":[],"feature_segments":[],"sorted_idx":[]},"gbtree_model_param":{"num_parallel_tree":"1","num_trees":"300"},"iteration_indptr":[0,1,2,3,4,5,6,7,8,9,10,11,12,13,14,15,16,17,18,19,20,21,22,23,24,25,26,27,28,29,30,31,32,33,34,35,36,37,38,39,40,41,42,43,44,45,46,47,48,49,50,51,52,53,54,55,56,57,58,59,60,61,62,63,64,65,66,67,68,69,70,71,72,73,74,75,76,77,78,79,80,81,82,83,84,85,86,87,88,89,90,91,92,93,94,95,96,97,98,99,100,101,102,103,104,105,106,107,108,109,110,111,112,113,114,115,116,117,118,119,120,121,122,123,124,125,126,127,128,129,130,131,132,133,134,135,136,137,138,139,140,141,142,143,144,145,146,147,148,149,150,151,152,153,154,155,156,157,158,159,160,161,162,163,164,165,166,167,168,169,170,171,172,173,174,175,176,177,178,179,180,181,182,183,184,185,186,187,188,189,190,191,192,193,194,195,196,197,198,199,200,201,202,203,204,205,206,207,208,209,210,211,212,213,214,215,216,217,218,219,220,221,222,223,224,225,226,227,228,229,230,231,232,233,234,235,236,237,238,239,240,241,242,243,244,245,246,247,248,249,250,251,252,253,254,255,256,257,258,259,260,261,262,263,264,265,266,267,268,269,270,271,272,273,274,275,276,277,278,279,280,281,282,283,284,285,286,287,288,289,290,291,292,293,294,295,296,297,298,299,300],"tree_info":[0,0,0,0,0,0,0,0,0,0,0,0,0,0,0,0,0,0,0,0,0,0,0,0,0,0,0,0,0,0,0,0,0,0,0,0,0,0,0,0,0,0,0,0,0,0,0,0,0,0,0,0,0,0,0,0,0,0,0,0,0,0,0,0,0,0,0,0,0,0,0,0,0,0,0,0,0,0,0,0,0,0,0,0,0,0,0,0,0,0,0,0,0,0,0,0,0,0,0,0,0,0,0,0,0,0,0,0,0,0,0,0,0,0,0,0,0,0,0,0,0,0,0,0,0,0,0,0,0,0,0,0,0,0,0,0,0,0,0,0,0,0,0,0,0,0,0,0,0,0,0,0,0,0,0,0,0,0,0,0,0,0,0,0,0,0,0,0,0,0,0,0,0,0,0,0,0,0,0,0,0,0,0,0,0,0,0,0,0,0,0,0,0,0,0,0,0,0,0,0,0,0,0,0,0,0,0,0,0,0,0,0,0,0,0,0,0,0,0,0,0,0,0,0,0,0,0,0,0,0,0,0,0,0,0,0,0,0,0,0,0,0,0,0,0,0,0,0,0,0,0,0,0,0,0,0,0,0,0,0,0,0,0,0,0,0,0,0,0,0,0,0,0,0,0,0,0,0,0,0,0,0,0,0,0,0,0,0,0,0,0,0,0,0,0,0,0,0,0,0],"trees":[{"base_weights":[-1.07308514E-1,-1.0106611E0,1.4842873E0,-1.5251584E0,1.5813084E0,1.6485802E0,-9.814815E-2,-1.7377199E0,5.5482537E-1,1.9017988E0,-9.65812E-2,-9.603961E-2,1.7290323E0,-9.311301E-2,4.9991373E-2,9.1626056E-2,-9.817352E-2,9.743531E-2,-7.894737E-2,8.89863E-2,-9.3650796E-2],"categories":[],"categories_nodes":[],"categories_segments":[],"categories_sizes":[],"default_left":[1,1,0,0,0,0,0,1,0,0,0,0,0,0,0,0,0,0,0,0,0],"id":0,"left_children":[1,3,5,7,9,11,-1,13,15,17,-1,-1,19,-1,-1,-1,-1,-1,-1,-1,-1],"loss_changes":[4.673746E3,2.7677256E3,6.6984717E2,7.661499E2,3.9088934E2,3.260962E2,0E0,5.372925E2,5.22362E2,5.461853E1,0E0,0E0,2.0415088E2,0E0,0E0,0E0,0E0,0E0,0E0,0E0,0E0],"parents":[2147483647,0,0,1,1,2,2,3,3,4,4,5,5,7,7,8,8,9,9,12,12],"right_children":[2,4,6,8,10,12,-1,14,16,18,-1,-1,20,-1,-1,-1,-1,-1,-1,-1,-1],"split_conditions":[2.896963E1,2.9952563E2,3.158967E1,-3.4731388E1,2.0033937E2,-1.7018868E-3,-9.814815E-2,9.300865E1,-3.4621113E1,2.9E1,-9.65812E-2,-9.603961E-2,-7.146667E1,-9.311301E-2,4.9991373E-2,9.1626056E-2,-9.817352E-2,9.743531E-2,-7.894737E-2,8.89863E-2,-9.3650796E-2],"split_indices":[33,15,39,0,42,23,0,39,0,7,0,0,1,0,0,0,0,0,0,0,0],"split_type":[0,0,0,0,0,0,0,0,0,0,0,0,0,0,0,0,0,0,0,0,0],"sum_hessian":[3.2486428E3,2.0726309E3,1.1760118E3,1.7297024E3,3.4292856E2,1.1230118E3,5.3E1,1.5694762E3,1.602262E2,3.1467856E2,2.825E1,2.425E1,1.0987618E3,1.501488E3,6.79881E1,1.0647619E2,5.375E1,3.1092856E2,3.75E0,1.0840118E3,1.475E1],"tree_param":{"num_deleted":"0","num_feature":"44","num_nodes":"21","size_leaf_vector":"1"}},{"base_weights":[1.3252342E-1,-1.5584033E0,8.68527E-1,9.8793906E-1,-1.7227509E0,-1.5325917E-1,1.539869E0,-8.98347E-2,9.288629E-2,-9.547459E-2,8.993233E-1,7.181722E-1,-9.554883E-2,1.6008662E0,-9.274924E-2,-9.6560284E-2,9.196919E-2,-9.580781E-2,6.39997E-2,-9.0819515E-2,8.186496E-2],"categories":[],"categories_nodes":[],"categories_segments":[],"categories_sizes":[],"default_left":[1,0,0,0,1,0,0,0,0,0,0,0,0,0,0,0,0,0,0,0,0],"id":1,"left_children":[1,3,5,7,9,11,13,-1,-1,-1,15,17,-1,19,-1,-1,-1,-1,-1,-1,-1],"loss_changes":[4.5660107E3,4.6733765E2,1.7536475E3,1.6826881E2,5.1367993E2,1.5552106E3,3.224226E2,0E0,0E0,0E0,1.9032797E2,1.00727905E3,0E0,1.9171558E2,0E0,0E0,0E0,0E0,0E0,0E0,0E0],"parents":[2147483647,0,0,1,1,2,2,3,3,4,4,5,5,6,6,10,10,11,11,13,13],"right_children":[2,4,6,8,10,12,14,-1,-1,-1,16,18,-1,20,-1,-1,-1,-1,-1,-1,-1],"split_conditions":[2.9494775E2,-4.6752167E0,3.8659973E0,2.4009552E0,9.300865E1,2.835581E2,1.7117009E-6,-8.98347E-2,9.288629E-2,-9.547459E-2,2.9389038E2,8E1,-9.554883E-2,2.8845752E2,-9.274924E-2,-9.6560284E-2,9.196919E-2,-9.580781E-2,6.39997E-2,-9.0819515E-2,8.186496E-2],"split_indices":[15,11,11,10,39,9,12,0,0,0,15,4,0,17,0,0,0,0,0,0,0],"split_type":[0,0,0,0,0,0,0,0,0,0,0,0,0,0,0,0,0,0,0,0,0],"sum_hessian":[3.6667812E3,1.1116685E3,2.5551128E3,6.7096016E1,1.0445724E3,1.0134334E3,1.5416794E3,1.5715851E1,5.1380165E1,9.753789E2,6.919351E1,6.7792633E2,3.355071E2,1.5149873E3,2.6692171E1,1.6988047E1,5.2205467E1,1.1874265E2,5.5918365E2,1.5466226E1,1.4995211E3],"tree_param":{"num_deleted":"0","num_feature":"44","num_nodes":"21","size_leaf_vector":"1"}},{"base_weights":[8.769646E-2,-1.4923797E0,8.119534E-1,8.7309986E-1,-1.6483363E0,-2.5605042E-2,1.4524323E0,-8.710462E-2,8.894496E-2,-9.132693E-2,8.666946E-1,7.6578254E-1,-9.140752E-2,1.5096499E0,-9.226068E-2,8.705835E-2,-9.227797E-2,6.153321E-2,-9.505924E-2,7.779471E-2,-9.360448E-2],"categories":[],"categories_nodes":[],"categories_segments":[],"categories_sizes":[],"default_left":[1,0,0,0,1,0,0,0,0,0,0,0,0,0,0,0,0,0,0,0,0],"id":2,"left_children":[1,3,5,7,9,11,13,-1,-1,-1,15,17,-1,19,-1,-1,-1,-1,-1,-1,-1],"loss_changes":[4.047655E3,4.1155933E2,1.3010199E3,1.6753188E2,4.6916724E2,1.5019559E3,2.6209595E2,0E0,0E0,0E0,1.6854845E2,9.0949756E2,0E0,2.1425684E2,0E0,0E0,0E0,0E0,0E0,0E0,0E0],"parents":[2147483647,0,0,1,1,2,2,3,3,4,4,5,5,6,6,10,10,11,11,13,13],"right_children":[2,4,6,8,10,12,14,-1,-1,-1,16,18,-1,20,-1,-1,-1,-1,-1,-1,-1],"split_conditions":[2.9494775E2,-4.6752167E0,3.8659973E0,3E0,9.300865E1,2.835581E2,4.323883E-1,-8.710462E-2,8.894496E-2,-9.132693E-2,2E0,2.072486E7,-9.140752E-2,9.96414E-1,-9.226068E-2,8.705835E-2,-9.227797E-2,6.153321E-2,-9.505924E-2,7.779471E-2,-9.360448E-2],"split_indices":[15,11,11,2,39,9,21,0,0,0,5,13,0,30,0,0,0,0,0,0,0],"split_type":[0,0,0,0,0,0,0,0,0,0,0,0,0,0,0,0,0,0,0,0,0],"sum_hessian":[3.5349226E3,1.1107007E3,2.424222E3,6.841496E1,1.0422856E3,1.0509056E3,1.3733163E3,1.7362703E1,5.105226E1,9.735768E2,6.870893E1,7.306827E2,3.2022296E2,1.3504272E3,2.2889124E1,5.2227894E1,1.648104E1,6.226811E2,1.0800159E2,1.3327423E3,1.7684923E1],"tree_param":{"num_deleted":"0","num_feature":"44","num_nodes":"21","size_leaf_vector":"1"}},{"base_weights":[2.6376579E-2,-8.205935E-1,1.3411753E0,-1.2390467E0,1.082979E0,-8.8349774E-2,1.5232718E0,-1.5358286E0,3.9407042E-1,1.5138999E0,-9.3371406E-2,1.6075715E0,-9.174656E-2,4.0297497E-2,-8.2662605E-2,-8.724161E-2,7.7835776E-2,-9.026911E-2,8.467998E-2,-8.9835726E-2,8.210724E-2],"categories":[],"categories_nodes":[],"categories_segments":[],"categories_sizes":[],"default_left":[1,1,0,1,0,0,0,0,0,0,0,0,0,0,0,0,0,0,0,0,0],"id":3,"left_children":[1,3,5,7,9,-1,11,13,15,17,-1,19,-1,-1,-1,-1,-1,-1,-1,-1,-1],"loss_changes":[3.8028713E3,1.6557958E3,7.599551E2,8.2609985E2,4.7938605E2,0E0,3.609077E2,3.977058E2,6.560246E2,1.9847168E2,0E0,1.481897E2,0E0,0E0,0E0,0E0,0E0,0E0,0E0,0E0,0E0],"parents":[2147483647,0,0,1,1,2,2,3,3,4,4,6,6,7,7,8,8,9,9,11,11],"right_children":[2,4,6,8,10,-1,12,14,16,18,-1,20,-1,-1,-1,-1,-1,-1,-1,-1,-1],"split_conditions":[2.9845874E2,3.0211963E2,1.1202946E0,5.6066723E0,1.1964607E0,-8.8349774E-2,4.2044067E-1,-4.6752167E0,2.95281E2,-1.0229498E-3,-9.3371406E-2,-3.720639E1,-9.174656E-2,4.0297497E-2,-8.2662605E-2,-8.724161E-2,7.7835776E-2,-9.026911E-2,8.467998E-2,-8.9835726E-2,8.210724E-2],"split_indices":[15,8,11,11,10,0,21,11,15,23,0,0,0,0,0,0,0,0,0,0,0],"split_type":[0,0,0,0,0,0,0,0,0,0,0,0,0,0,0,0,0,0,0,0,0],"sum_hessian":[3.412961E3,2.0760088E3,1.3369523E3,1.7021765E3,3.7383224E2,7.3510544E1,1.2634417E3,1.4404645E3,2.617121E2,3.266154E2,4.7216858E1,1.2330111E3,3.0430527E1,6.8500175E1,1.3719644E3,9.198598E1,1.6972612E2,1.6309603E1,3.103058E2,1.188387E1,1.2211273E3],"tree_param":{"num_deleted":"0","num_feature":"44","num_nodes":"21","size_leaf_vector":"1"}},{"base_weights":[5.2939616E-2,-8.491432E-2,5.9324723E-1,-2.333616E-1,1.3944833E0,-9.4496125E-1,1.2318493E0,-8.534289E-2,1.4921438E0,4.2363048E-2,-7.503742E-2,7.512625E-2,-8.620977E-2,7.65328E-2,-8.5848264E-2],"categories":[],"categories_nodes":[],"categories_segments":[],"categories_sizes":[],"default_left":[1,0,0,0,0,0,0,0,0,0,0,0,0,0,0],"id":4,"left_children":[1,-1,3,5,7,9,11,-1,13,-1,-1,-1,-1,-1,-1],"loss_changes":[3.2515515E3,0E0,1.7396147E3,1.3497615E3,4.064834E2,8.6904944E2,3.4125342E2,0E0,1.6248926E2,0E0,0E0,0E0,0E0,0E0,0E0],"parents":[2147483647,0,0,2,2,3,3,4,4,5,5,6,6,8,8],"right_children":[2,-1,4,6,8,10,12,-1,14,-1,-1,-1,-1,-1,-1],"split_conditions":[2.9381787E2,-8.491432E-2,4.467903E0,3E0,2.95281E2,-3.817972E1,3.8612366E-1,-8.534289E-2,1.7117008E-3,4.2363048E-2,-7.503742E-2,7.512625E-2,-8.620977E-2,7.65328E-2,-8.5848264E-2],"split_indices":[15,0,11,2,15,0,21,0,43,0,0,0,0,0,0],"split_type":[0,0,0,0,0,0,0,0,0,0,0,0,0,0,0],"sum_hessian":[3.4343638E3,8.092636E2,2.6251E3,1.2924406E3,1.3326595E3,8.701806E2,4.2225998E2,4.0180973E1,1.2924786E3,2.0585257E2,6.64328E2,3.8728888E2,3.497111E1,1.2776685E3,1.4810154E1],"tree_param":{"num_deleted":"0","num_feature":"44","num_nodes":"15","size_leaf_vector":"1"}},{"base_weights":[1.0569035E-1,-6.4172196E-1,1.3147994E0,-8.379688E-2,4.4199142E-1,1.4174396E0,-8.344658E-2,-8.209921E-2,9.1314745E-1,-8.616736E-2,1.4741942E0,6.569639E-2,-3.4269083E-2,7.520463E-2,-9.297332E-2],"categories":[],"categories_nodes":[],"categories_segments":[],"categories_sizes":[],"default_left":[1,1,0,0,0,0,0,0,0,0,0,0,0,0,0],"id":5,"left_children":[1,3,5,-1,7,9,-1,-1,11,-1,13,-1,-1,-1,-1],"loss_changes":[3.1694536E3,2.430057E3,4.1266602E2,0E0,1.0415159E3,2.3351147E2,0E0,0E0,5.547759E2,0E0,1.2970557E2,0E0,0E0,0E0,0E0],"parents":[2147483647,0,0,1,1,2,2,4,4,5,5,8,8,10,10],"right_children":[2,4,6,-1,8,10,-1,-1,12,-1,14,-1,-1,-1,-1],"split_conditions":[3.0211963E2,-3.6021322E-4,3.2441753E1,-8.379688E-2,2.9381787E2,2.3980567E0,-8.344658E-2,-8.209921E-2,1.034292E1,-8.616736E-2,3.366333E0,6.569639E-2,-3.4269083E-2,7.520463E-2,-9.297332E-2],"split_indices":[8,23,39,0,15,41,0,0,34,0,26,0,0,0,0],"split_type":[0,0,0,0,0,0,0,0,0,0,0,0,0,0,0],"sum_hessian":[3.5052512E3,2.1664973E3,1.3387538E3,1.1082855E3,1.0582118E3,1.2947397E3,4.401403E1,1.946718E2,8.6354004E2,2.2459702E1,1.27228E3,6.905777E2,1.7296234E2,1.2615149E3,1.0765227E1],"tree_param":{"num_deleted":"0","num_feature":"44","num_nodes":"15","size_leaf_vector":"1"}},{"base_weights":[-1.5339117E-1,-8.531669E-1,1.1491283E0,-1.5021499E0,3.930067E-1,1.2713294E0,-8.064319E-2,7.6248974E-1,-1.6265103E0,1.4661548E0,-6.743523E-1,-8.391264E-2,1.3493795E0,7.7749394E-2,-8.0235615E-2,-7.9502635E-2,-8.4490575E-2,-7.630165E-2,8.0848165E-2,3.125562E-2,-8.344429E-2,-9.459174E-2,6.982784E-2],"categories":[],"categories_nodes":[],"categories_segments":[],"categories_sizes":[],"default_left":[1,1,0,0,0,0,0,0,1,0,0,0,0,0,0,0,0,0,0,0,0,0,0],"id":6,"left_children":[1,3,5,7,9,11,-1,13,15,17,19,-1,21,-1,-1,-1,-1,-1,-1,-1,-1,-1,-1],"loss_changes":[2.6979314E3,1.55773E3,3.5122046E2,3.578562E2,7.571175E2,2.3046533E2,0E0,1.2742975E2,8.3984375E-2,1.5114655E2,4.296416E2,0E0,1.503927E2,0E0,0E0,0E0,0E0,0E0,0E0,0E0,0E0,0E0,0E0],"parents":[2147483647,0,0,1,1,2,2,3,3,4,4,5,5,7,7,8,8,9,9,10,10,12,12],"right_children":[2,4,6,8,10,12,-1,14,16,18,20,-1,22,-1,-1,-1,-1,-1,-1,-1,-1,-1,-1],"split_conditions":[3.0211963E2,-1.063738E-4,3.2441753E1,-4.6752167E0,-1.6404092E-3,-1.7018868E-3,-8.064319E-2,-8.741513E-3,2.1797754E1,2.2131006E1,2.3E1,-8.391264E-2,2.7E1,7.7749394E-2,-8.0235615E-2,-7.9502635E-2,-8.4490575E-2,-7.630165E-2,8.0848165E-2,3.125562E-2,-8.344429E-2,-9.459174E-2,6.982784E-2],"split_indices":[8,23,39,11,22,23,0,22,36,36,7,0,4,0,0,0,0,0,0,0,0,0,0],"split_type":[0,0,0,0,0,0,0,0,0,0,0,0,0,0,0,0,0,0,0,0,0,0,0],"sum_hessian":[2.9578977E3,1.924376E3,1.0335217E3,1.2652518E3,6.5912415E2,9.90249E2,4.3272675E1,6.559606E1,1.1996558E3,3.2848444E2,3.3063968E2,2.499937E1,9.6524963E2,4.940068E1,1.6195381E1,7.778057E2,4.2185007E2,1.5323918E1,3.1316052E2,1.4350565E2,1.8713405E2,1.3287094E1,9.519626E2],"tree_param":{"num_deleted":"0","num_feature":"44","num_nodes":"23","size_leaf_vector":"1"}},{"base_weights":[3.4122823E-3,-6.951251E-1,1.1989728E0,-1.1657974E0,1.0258477E0,1.3018893E0,-7.800894E-2,-1.3538593E0,6.378175E-1,-8.038594E-2,1.5074897E0,-9.063307E-2,1.3620012E0,-1.035436E-2,-7.926977E-2,-8.024445E-2,7.908655E-2,7.915252E-2,-7.892875E-2,-8.350489E-2,7.052641E-2],"categories":[],"categories_nodes":[],"categories_segments":[],"categories_sizes":[],"default_left":[1,1,0,0,0,0,0,0,1,0,0,0,0,0,0,0,0,0,0,0,0],"id":7,"left_children":[1,3,5,7,9,11,-1,13,15,-1,17,-1,19,-1,-1,-1,-1,-1,-1,-1,-1],"loss_changes":[2.6476218E3,1.6220992E3,3.3403442E2,5.340044E2,5.4820496E2,2.1359534E2,0E0,3.776931E2,3.1816165E2,0E0,8.7441345E1,0E0,1.6522363E2,0E0,0E0,0E0,0E0,0E0,0E0,0E0,0E0],"parents":[2147483647,0,0,1,1,2,2,3,3,4,4,5,5,7,7,8,8,10,10,12,12],"right_children":[2,4,6,8,10,12,-1,14,16,-1,18,-1,20,-1,-1,-1,-1,-1,-1,-1,-1],"split_conditions":[2.896963E1,2.5409327E1,3.2441753E1,-3.4731388E1,-8.5518695E-5,1.7E1,-7.800894E-2,1.4141016E1,5.3598633E0,-8.038594E-2,3.8612366E-1,-9.063307E-2,2.3980567E0,-1.035436E-2,-7.926977E-2,-8.024445E-2,7.908655E-2,7.915252E-2,-7.892875E-2,-8.350489E-2,7.052641E-2],"split_indices":[33,36,39,0,23,7,0,33,25,0,21,0,41,0,0,0,0,0,0,0,0],"split_type":[0,0,0,0,0,0,0,0,0,0,0,0,0,0,0,0,0,0,0,0,0],"sum_hessian":[3.1682607E3,2.0000802E3,1.1681804E3,1.5708013E3,4.2927893E2,1.1266832E3,4.149721E1,1.4227059E3,1.480954E2,6.600929E1,3.6326965E2,2.0781572E1,1.1059016E3,2.3931242E2,1.1833934E3,4.3660137E1,1.04435265E2,3.5506314E2,8.206512E0,1.6894127E1,1.0890076E3],"tree_param":{"num_deleted":"0","num_feature":"44","num_nodes":"21","size_leaf_vector":"1"}},{"base_weights":[-4.9936432E-2,-7.594433E-2,6.278521E-1,-2.6321733E-1,1.2110244E0,-1.2726744E0,1.0467837E0,1.3567905E0,-3.5229963E-1,6.5845E-2,-7.989593E-2,7.265803E-2,-8.332231E-2,6.964106E-2,-8.8288814E-2,-8.961643E-2,6.5149926E-2],"categories":[],"categories_nodes":[],"categories_segments":[],"categories_sizes":[],"default_left":[1,0,0,0,0,0,0,0,0,0,0,0,0,0,0,0,0],"id":8,"left_children":[1,-1,3,5,7,9,11,13,15,-1,-1,-1,-1,-1,-1,-1,-1],"loss_changes":[3.0064875E3,0E0,1.0740742E3,1.0833163E3,2.8512537E2,3.9169452E2,3.9565198E2,1.3103198E2,2.5817358E2,0E0,0E0,0E0,0E0,0E0,0E0,0E0,0E0],"parents":[2147483647,0,0,2,2,3,3,4,4,5,5,6,6,7,7,8,8],"right_children":[2,-1,4,6,8,10,12,14,16,-1,-1,-1,-1,-1,-1,-1,-1],"split_conditions":[2.9515063E2,-7.594433E-2,3.8659973E0,-3.492972E1,4.4142104E-7,2.9517603E2,2.825775E-1,2.9391756E7,2.9351562E2,6.5845E-2,-7.989593E-2,7.265803E-2,-8.332231E-2,6.964106E-2,-8.8288814E-2,-8.961643E-2,6.5149926E-2],"split_indices":[15,0,11,0,12,15,20,13,17,0,0,0,0,0,0,0,0],"split_type":[0,0,0,0,0,0,0,0,0,0,0,0,0,0,0,0,0],"sum_hessian":[3.0177026E3,9.523857E2,2.0653171E3,8.1720355E2,1.2481134E3,4.6156247E2,3.556411E2,1.1417843E3,1.063292E2,5.116229E1,4.1040018E2,3.097173E2,4.592383E1,1.1293074E3,1.2476878E1,5.681774E1,4.9511463E1],"tree_param":{"num_deleted":"0","num_feature":"44","num_nodes":"17","size_leaf_vector":"1"}},{"base_weights":[5.651919E-2,-1.3208764E0,6.3624144E-1,8.277409E-1,-7.382166E-2,-9.324791E-2,1.1603966E0,-7.262413E-2,7.764315E-2,-9.8234093E-1,1.0380123E0,-3.2821748E-1,1.3052363E0,5.2429028E-2,-7.76605E-2,-7.762035E-2,6.563222E-2,7.752435E-2,-8.965385E-2,6.839469E-2,-8.671515E-2],"categories":[],"categories_nodes":[],"categories_segments":[],"categories_sizes":[],"default_left":[1,0,0,0,0,0,0,0,0,0,0,0,0,0,0,0,0,0,0,0,0],"id":9,"left_children":[1,3,5,7,-1,9,11,-1,-1,13,15,17,19,-1,-1,-1,-1,-1,-1,-1,-1],"loss_changes":[2.513723E3,3.1289294E2,8.4723096E2,1.0740526E2,0E0,9.3362195E2,2.7840417E2,0E0,0E0,6.041621E2,2.92671E2,3.1958926E2,2.2617615E2,0E0,0E0,0E0,0E0,0E0,0E0,0E0,0E0],"parents":[2147483647,0,0,1,1,2,2,3,3,5,5,6,6,9,9,10,10,11,11,12,12],"right_children":[2,4,6,8,-1,10,12,-1,-1,14,16,18,20,-1,-1,-1,-1,-1,-1,-1,-1],"split_conditions":[2.9494775E2,-4.6752167E0,3.8659973E0,-3.524139E1,-7.382166E-2,-3.496528E1,-3.720639E1,-7.262413E-2,7.764315E-2,-3.8241665E1,1.1202946E0,2.8729102E2,4.2044067E-1,5.2429028E-2,-7.76605E-2,-7.762035E-2,6.563222E-2,7.752435E-2,-8.965385E-2,6.839469E-2,-8.671515E-2],"split_indices":[15,11,11,0,0,0,0,0,0,0,11,8,21,0,0,0,0,0,0,0,0],"split_type":[0,0,0,0,0,0,0,0,0,0,0,0,0,0,0,0,0,0,0,0,0],"sum_hessian":[3.1459768E3,9.3149817E2,2.2144788E3,6.259452E1,8.689036E2,9.2622845E2,1.2882501E3,1.4860622E1,4.77339E1,5.1869855E2,4.075299E2,1.14118004E2,1.1741322E3,1.13626076E2,4.0507248E2,3.8618168E1,3.6891174E2,4.9970997E1,6.4147E1,1.1509562E3,2.317601E1],"tree_param":{"num_deleted":"0","num_feature":"44","num_nodes":"21","size_leaf_vector":"1"}},{"base_weights":[1.4510578E-1,-1.1365663E0,7.1706957E-1,5.2947146E-1,-1.2928212E0,-9.6738935E-1,9.439111E-1,-7.1795925E-2,9.1515504E-2,7.452163E-1,-7.223278E-2,1.3101844E0,-7.415408E-2,1.1749471E0,-1.541426E-2,-7.1172E-2,7.466637E-2,-5.6795746E-2,7.383605E-2,-8.191719E-2,6.331613E-2,-8.1096E-2,6.507544E-2],"categories":[],"categories_nodes":[],"categories_segments":[],"categories_sizes":[],"default_left":[1,0,0,0,0,0,0,0,0,0,0,0,0,0,0,0,0,0,0,0,0,0,0],"id":10,"left_children":[1,3,5,7,9,11,13,-1,-1,15,-1,17,-1,19,21,-1,-1,-1,-1,-1,-1,-1,-1],"loss_changes":[2.366859E3,2.6004785E2,8.5388E2,2.2285468E2,2.8303027E2,3.1369904E2,4.3617053E2,0E0,0E0,1.0569122E2,0E0,2.1856148E1,0E0,4.0976123E2,8.1224506E2,0E0,0E0,0E0,0E0,0E0,0E0,0E0,0E0],"parents":[2147483647,0,0,1,1,2,2,3,3,4,4,5,5,6,6,9,9,11,11,13,13,14,14],"right_children":[2,4,6,8,10,12,14,-1,-1,16,-1,18,-1,20,22,-1,-1,-1,-1,-1,-1,-1,-1],"split_conditions":[2.9515063E2,2.8445264E2,1.1202946E0,2.9371167E2,-4.6752167E0,2.9517603E2,3.8612366E-1,-7.1795925E-2,9.1515504E-2,-3.524139E1,-7.223278E-2,3.0051636E2,-7.415408E-2,-3.720639E1,5.8295054E0,-7.1172E-2,7.466637E-2,-5.6795746E-2,7.383605E-2,-8.191719E-2,6.331613E-2,-8.1096E-2,6.507544E-2],"split_indices":[15,8,11,15,11,15,21,0,0,0,0,8,0,0,41,0,0,0,0,0,0,0,0],"split_type":[0,0,0,0,0,0,0,0,0,0,0,0,0,0,0,0,0,0,0,0,0,0,0],"sum_hessian":[3.2265825E3,9.953E2,2.2312825E3,8.513853E1,9.101615E2,2.6443097E2,1.9668516E3,3.3866707E1,5.127182E1,6.2834953E1,8.4732654E2,4.8534763E1,2.158962E2,1.584926E3,3.8192545E2,1.5884777E1,4.6950176E1,2.722704E0,4.581206E1,4.9326214E1,1.5355999E3,1.7194241E2,2.0998303E2],"tree_param":{"num_deleted":"0","num_feature":"44","num_nodes":"23","size_leaf_vector":"1"}},{"base_weights":[7.451932E-2,-1.2627555E0,6.2835354E-1,7.783932E-1,-7.0574984E-2,7.721117E-2,1.3032668E0,-6.9125995E-2,7.268941E-2,-9.350502E-1,7.790177E-1,1.3573287E0,-8.409582E-2,7.224763E-2,-6.1013263E-2,5.2666463E-2,-7.3754504E-2,-7.852961E-2,6.9163896E-2],"categories":[],"categories_nodes":[],"categories_segments":[],"categories_sizes":[],"default_left":[1,0,0,0,0,0,0,0,0,0,0,0,0,0,0,0,0,0,0],"id":11,"left_children":[1,3,5,7,-1,9,11,-1,-1,13,15,17,-1,-1,-1,-1,-1,-1,-1],"loss_changes":[2.2426553E3,2.7034412E2,7.9635156E2,9.0862175E1,0E0,8.388119E2,1.5760583E2,0E0,0E0,3.299529E2,4.326762E2,7.403723E1,0E0,0E0,0E0,0E0,0E0,0E0,0E0],"parents":[2147483647,0,0,1,1,2,2,3,3,5,5,6,6,9,9,10,10,11,11],"right_children":[2,4,6,8,-1,10,12,-1,-1,14,16,18,-1,-1,-1,-1,-1,-1,-1],"split_conditions":[2.9494775E2,-4.6752167E0,3.1822258E1,-3.524139E1,-7.0574984E-2,4.03833E0,4.2044067E-1,-6.9125995E-2,7.268941E-2,2.9499365E2,2.8442432E2,-1.7195148E-3,-8.409582E-2,7.224763E-2,-6.1013263E-2,5.2666463E-2,-7.3754504E-2,-7.852961E-2,6.9163896E-2],"split_indices":[15,11,40,0,0,25,21,0,0,15,9,23,0,0,0,0,0,0,0],"split_type":[0,0,0,0,0,0,0,0,0,0,0,0,0,0,0,0,0,0,0],"sum_hessian":[3.025972E3,8.858176E2,2.1401543E3,5.9879845E1,8.259378E2,1.1787153E3,9.614389E2,1.4009557E1,4.587029E1,4.824761E2,6.962392E2,9.448725E2,1.656642E1,5.119646E1,4.3127966E2,6.2117816E2,7.506101E1,7.7775984E0,9.3709485E2],"tree_param":{"num_deleted":"0","num_feature":"44","num_nodes":"19","size_leaf_vector":"1"}},{"base_weights":[-8.9168936E-2,-6.6241E-1,1.2023001E0,-1.1253504E0,9.1278017E-1,1.3345976E0,-9.242838E-2,-7.157223E-2,-1.4335182E0,1.2411646E0,-7.287502E-2,1.3642477E0,-9.08765E-2,4.4819757E-2,-7.243016E-2,-6.8970114E-2,-7.565542E-2,6.835748E-2,-7.270202E-2,-7.760793E-2,6.9181524E-2],"categories":[],"categories_nodes":[],"categories_segments":[],"categories_sizes":[],"default_left":[1,0,0,0,0,0,0,0,1,0,0,0,0,0,0,0,0,0,0,0,0],"id":12,"left_children":[1,3,5,7,9,11,-1,13,15,17,-1,19,-1,-1,-1,-1,-1,-1,-1,-1,-1],"loss_changes":[1.9750614E3,1.3483337E3,3.3350183E2,4.637522E2,3.2888953E2,7.600098E1,0E0,4.3350336E2,2.6728516E0,1.2749524E2,0E0,4.6233154E1,0E0,0E0,0E0,0E0,0E0,0E0,0E0,0E0,0E0],"parents":[2147483647,0,0,1,1,2,2,3,3,4,4,5,5,7,7,8,8,9,9,11,11],"right_children":[2,4,6,8,10,12,-1,14,16,18,-1,20,-1,-1,-1,-1,-1,-1,-1,-1,-1],"split_conditions":[3.1822258E1,-3.496528E1,3.9360046E-1,1.1E1,3.7617493E-1,9.96414E-1,-9.242838E-2,2.9E1,2.9494775E2,2.8442432E2,-7.287502E-2,2.9315088E2,-9.08765E-2,4.4819757E-2,-7.243016E-2,-6.8970114E-2,-7.565542E-2,6.835748E-2,-7.270202E-2,-7.760793E-2,6.9181524E-2],"split_indices":[40,0,21,6,21,30,0,7,15,9,0,16,0,0,0,0,0,0,0,0,0],"split_type":[0,0,0,0,0,0,0,0,0,0,0,0,0,0,0,0,0,0,0,0,0],"sum_hessian":[2.6657612E3,1.8466018E3,8.191594E2,1.427386E3,4.1921582E2,7.85653E2,3.3506447E1,3.2325385E2,1.1041322E3,3.6862238E2,5.0593468E1,7.788936E2,6.7593627E0,1.9002625E2,1.3322762E2,6.6816E2,4.359722E2,3.5263165E2,1.5990721E1,4.6203127E0,7.742733E2],"tree_param":{"num_deleted":"0","num_feature":"44","num_nodes":"21","size_leaf_vector":"1"}},{"base_weights":[2.7391363E-2,-5.301532E-1,1.217126E0,3.4971038E-1,-1.1748275E0,-8.216353E-2,1.2944415E0,-7.0763774E-2,7.0313346E-1,8.315313E-1,-1.2834042E0,1.3279951E0,-7.908093E-2,4.8121173E-2,-7.062724E-2,-6.4291336E-2,6.926707E-2,-7.012191E-2,1.082227E-3,-8.887806E-2,6.7116775E-2],"categories":[],"categories_nodes":[],"categories_segments":[],"categories_sizes":[],"default_left":[1,0,0,0,0,0,0,0,0,0,1,0,0,0,0,0,0,0,0,0,0],"id":13,"left_children":[1,3,5,7,9,-1,11,-1,13,15,17,19,-1,-1,-1,-1,-1,-1,-1,-1,-1],"loss_changes":[1.8494146E3,1.0772626E3,1.9887561E2,5.0224612E2,2.3980103E2,0E0,8.574768E1,0E0,3.6899615E2,6.8465485E1,1.6159326E2,4.056775E1,0E0,0E0,0E0,0E0,0E0,0E0,0E0,0E0,0E0],"parents":[2147483647,0,0,1,1,2,2,3,3,4,4,6,6,8,8,9,9,10,10,11,11],"right_children":[2,4,6,8,10,-1,12,-1,14,16,18,20,-1,-1,-1,-1,-1,-1,-1,-1,-1],"split_conditions":[3.1822258E1,3.1E1,3.2758582E0,1.4E1,2.746181E2,-8.216353E-2,4.2044067E-1,-7.0763774E-2,3.4992676E0,5.435425E0,3.3141638E2,1.4E1,-7.908093E-2,4.8121173E-2,-7.062724E-2,-6.4291336E-2,6.926707E-2,-7.012191E-2,1.082227E-3,-8.887806E-2,6.7116775E-2],"split_indices":[40,7,41,7,9,0,21,0,26,25,42,7,0,0,0,0,0,0,0,0,0],"split_type":[0,0,0,0,0,0,0,0,0,0,0,0,0,0,0,0,0,0,0,0,0],"sum_hessian":[2.7861033E3,1.8974547E3,8.8864856E2,8.0256134E2,1.0948933E3,2.2854645E1,8.657939E2,1.3339345E2,6.691679E2,5.586795E1,1.0390254E3,8.563417E2,9.45224E0,5.965963E2,7.25716E1,1.1308992E1,4.4558956E1,9.5210864E2,8.691675E1,3.370982E0,8.529707E2],"tree_param":{"num_deleted":"0","num_feature":"44","num_nodes":"21","size_leaf_vector":"1"}},{"base_weights":[9.865162E-2,-6.667029E-2,5.009364E-1,-8.353073E-1,7.65816E-1,-1.4526618E0,1.1402355E0,1.144371E0,1.5920433E-1,-6.989972E-2,-8.339467E-2,6.766355E-2,-9.224361E-2,-7.669278E-2,6.1940033E-2,4.8544794E-2,-3.3921067E-2],"categories":[],"categories_nodes":[],"categories_segments":[],"categories_sizes":[],"default_left":[1,0,0,0,0,0,0,0,0,0,0,0,0,0,0,0,0],"id":14,"left_children":[1,-1,3,5,7,9,11,13,15,-1,-1,-1,-1,-1,-1,-1,-1],"loss_changes":[1.6622754E3,0E0,7.978793E2,4.5670374E2,4.3161108E2,1.0182495E0,5.9346153E1,2.9467383E2,4.9269153E2,0E0,0E0,0E0,0E0,0E0,0E0,0E0,0E0],"parents":[2147483647,0,0,2,2,3,3,4,4,5,5,6,6,7,7,8,8],"right_children":[2,-1,4,6,8,10,12,14,16,-1,-1,-1,-1,-1,-1,-1,-1],"split_conditions":[2.9381787E2,-6.667029E-2,-1.0869503E-3,3.3964256E1,3.1E1,2.8569576E1,-2.4462165E-4,1.4E1,3.158967E1,-6.989972E-2,-8.339467E-2,6.766355E-2,-9.224361E-2,-7.669278E-2,6.1940033E-2,4.8544794E-2,-3.3921067E-2],"split_indices":[15,0,23,33,7,40,24,7,39,0,0,0,0,0,0,0,0],"split_type":[0,0,0,0,0,0,0,0,0,0,0,0,0,0,0,0,0],"sum_hessian":[2.8832605E3,6.318127E2,2.2514478E3,3.7210883E2,1.8793389E3,2.8371344E2,8.8395386E1,1.156648E3,7.2269086E2,2.322251E2,5.148835E1,8.301742E1,5.3779683E0,3.8873333E1,1.1177747E3,3.669465E2,3.557444E2],"tree_param":{"num_deleted":"0","num_feature":"44","num_nodes":"17","size_leaf_vector":"1"}},{"base_weights":[8.360841E-2,-9.2878675E-1,6.415437E-1,-6.683465E-2,-7.051677E-2,-6.86056E-2,8.6035496E-1,-6.5488346E-2,6.5791893E-1,9.664739E-1,-7.37273E-2,-6.707715E-2,6.3343525E-2,5.1404934E-2,-7.201197E-2],"categories":[],"categories_nodes":[],"categories_segments":[],"categories_sizes":[],"default_left":[1,1,0,0,0,0,0,0,0,0,0,0,0,0,0],"id":15,"left_children":[1,3,5,-1,7,-1,9,-1,11,13,-1,-1,-1,-1,-1],"loss_changes":[1.5603027E3,3.4351666E2,7.858148E2,0E0,2.8724432E2,0E0,3.9956897E2,0E0,2.4578395E2,2.2952881E2,0E0,0E0,0E0,0E0,0E0],"parents":[2147483647,0,0,1,1,2,2,4,4,6,6,8,8,9,9],"right_children":[2,4,6,-1,8,-1,10,-1,12,14,-1,-1,-1,-1,-1],"split_conditions":[2.9565308E2,2.4729106E2,1.1202946E0,-6.683465E-2,2.9381787E2,-6.86056E-2,4.2633057E-1,-6.5488346E-2,2.7870178E-1,1.716613E-6,-7.37273E-2,-6.707715E-2,6.3343525E-2,5.1404934E-2,-7.201197E-2],"split_indices":[15,42,11,0,15,0,21,0,19,12,0,0,0,0,0],"split_type":[0,0,0,0,0,0,0,0,0,0,0,0,0,0,0],"sum_hessian":[2.7602715E3,9.804828E2,1.7797887E3,6.642366E2,3.1624622E2,1.7392621E2,1.6058624E3,1.1677865E2,1.9946756E2,1.5366111E3,6.925138E1,4.6286182E1,1.5318138E2,1.4988064E3,3.7804695E1],"tree_param":{"num_deleted":"0","num_feature":"44","num_nodes":"15","size_leaf_vector":"1"}},{"base_weights":[4.9601868E-2,-1.1446105E0,5.296206E-1,7.6642716E-1,-6.48452E-2,7.884164E-1,-1.0377474E0,-6.295364E-2,6.868059E-2,9.5803064E-1,-6.9247705E-1,-7.073253E-2,9.3483543E-1,5.178798E-2,-8.533853E-2,-7.1486525E-2,6.2671885E-2,-8.3067596E-2,6.4528905E-2],"categories":[],"categories_nodes":[],"categories_segments":[],"categories_sizes":[],"default_left":[1,0,0,0,0,0,0,0,0,0,0,0,0,0,0,0,0,0,0],"id":16,"left_children":[1,3,5,7,-1,9,11,-1,-1,13,15,-1,17,-1,-1,-1,-1,-1,-1],"loss_changes":[1.5179874E3,2.2196191E2,7.6695544E2,7.142232E1,0E0,4.079948E2,2.0064694E2,0E0,0E0,3.032356E2,2.4170697E2,0E0,4.24216E1,0E0,0E0,0E0,0E0,0E0,0E0],"parents":[2147483647,0,0,1,1,2,2,3,3,5,5,6,6,9,9,10,10,12,12],"right_children":[2,4,6,8,-1,10,12,-1,-1,14,16,-1,18,-1,-1,-1,-1,-1,-1],"split_conditions":[2.1797754E1,-4.6752167E0,8.5234636E-4,-3.524139E1,-6.48452E-2,2.8451782E2,3.452678E1,-6.295364E-2,6.868059E-2,1.2E1,3.8790096E1,-7.073253E-2,2.863999E2,5.178798E-2,-8.533853E-2,-7.1486525E-2,6.2671885E-2,-8.3067596E-2,6.4528905E-2],"split_indices":[36,11,43,0,0,9,40,0,0,3,40,0,9,0,0,0,0,0,0],"split_type":[0,0,0,0,0,0,0,0,0,0,0,0,0,0,0,0,0,0,0],"sum_hessian":[2.6460063E3,7.5823944E2,1.887767E3,5.566764E1,7.025718E2,1.6206675E3,2.670994E2,1.2591195E1,4.3076447E1,1.4544366E3,1.6623093E2,2.2448894E2,4.261045E1,1.4138088E3,4.0627735E1,1.2074808E2,4.5482853E1,4.6927752E0,3.7917675E1],"tree_param":{"num_deleted":"0","num_feature":"44","num_nodes":"19","size_leaf_vector":"1"}},{"base_weights":[7.628129E-2,-4.8894927E-1,1.154765E0,-8.49395E-1,7.5995255E-1,-7.919455E-2,1.230268E0,-1.034775E0,1.1324793E0,-7.037902E-2,1.126381E0,-6.837618E-2,1.2484844E0,5.00787E-2,-5.7547446E-2,-6.0500424E-2,7.584265E-2,6.3576266E-2,-8.0858044E-2,-8.1477776E-2,6.324707E-2],"categories":[],"categories_nodes":[],"categories_segments":[],"categories_sizes":[],"default_left":[1,1,0,1,0,0,0,0,0,0,0,0,0,0,0,0,0,0,0,0,0],"id":17,"left_children":[1,3,5,7,9,-1,11,13,15,-1,17,-1,19,-1,-1,-1,-1,-1,-1,-1,-1],"loss_changes":[1.5950009E3,7.7350604E2,1.8799109E2,4.9084253E2,3.074109E2,0E0,4.3168823E1,2.8960803E2,1.0491304E2,0E0,1.3343576E2,0E0,4.3294678E1,0E0,0E0,0E0,0E0,0E0,0E0,0E0,0E0],"parents":[2147483647,0,0,1,1,2,2,3,3,4,4,6,6,7,7,8,8,10,10,12,12],"right_children":[2,4,6,8,10,-1,12,14,16,-1,18,-1,20,-1,-1,-1,-1,-1,-1,-1,-1],"split_conditions":[3.1822258E1,2.988252E2,3.3327434E0,7.9345016E0,-5.340213E-4,-7.919455E-2,2.886294E2,1.0118476E0,2.953794E2,-7.037902E-2,9E0,-6.837618E-2,1.4E1,5.00787E-2,-5.7547446E-2,-6.0500424E-2,7.584265E-2,6.3576266E-2,-8.0858044E-2,-8.1477776E-2,6.324707E-2],"split_indices":[40,15,41,41,23,0,17,40,15,0,3,0,7,0,0,0,0,0,0,0,0],"split_type":[0,0,0,0,0,0,0,0,0,0,0,0,0,0,0,0,0,0,0,0,0],"sum_hessian":[2.6145793E3,1.7158522E3,8.9872705E2,1.3318009E3,3.8405133E2,2.3576548E1,8.751505E2,1.21832E3,1.13480995E2,5.5125618E1,3.289257E2,5.578264E0,8.6957227E2,6.534265E1,1.1529773E3,1.5693309E1,9.778768E1,3.1290817E2,1.601754E1,4.386731E0,8.6518555E2],"tree_param":{"num_deleted":"0","num_feature":"44","num_nodes":"21","size_leaf_vector":"1"}},{"base_weights":[1.9824104E-3,6.6485125E-1,-7.6167715E-1,-9.067686E-1,9.702183E-1,1.0022986E0,-1.1961355E0,-1.3817474E0,9.8356014E-1,-7.049469E-2,1.0845978E0,-6.143224E-2,1.2742695E0,7.2919136E-1,-1.3234937E0,-6.559929E-2,-8.225597E-2,-8.1710294E-2,6.3525334E-2,5.742232E-2,-6.667941E-2,6.575987E-2,-6.337836E-2,6.747023E-2,-6.2029637E-2,-6.300355E-2,-7.113781E-2],"categories":[],"categories_nodes":[],"categories_segments":[],"categories_sizes":[],"default_left":[0,1,0,1,0,0,0,1,0,0,0,0,0,0,1,0,0,0,0,0,0,0,0,0,0,0,0],"id":18,"left_children":[1,3,5,7,9,11,13,15,17,-1,19,-1,21,23,25,-1,-1,-1,-1,-1,-1,-1,-1,-1,-1,-1,-1],"loss_changes":[1.2440768E3,6.3228534E2,8.764008E2,1.940045E2,3.0155652E2,1.3883034E2,2.2576392E2,9.997864E-1,3.4879326E1,0E0,1.6397632E2,0E0,2.2695831E1,7.1952484E1,3.6230469E0,0E0,0E0,0E0,0E0,0E0,0E0,0E0,0E0,0E0,0E0,0E0,0E0],"parents":[2147483647,0,0,1,1,2,2,3,3,4,4,5,5,6,6,7,7,8,8,10,10,12,12,13,13,14,14],"right_children":[2,4,6,8,10,12,14,16,18,-1,20,-1,22,24,26,-1,-1,-1,-1,-1,-1,-1,-1,-1,-1,-1,-1],"split_conditions":[3.1E1,-1.0869503E-3,2.7657568E2,3.0711426E2,1.4E1,2.9562402E2,-4.6752167E0,2.8849852E1,2.8333112E7,-7.049469E-2,4.323883E-1,-6.143224E-2,3.7069702E-1,-8.741513E-3,2.9494775E2,-6.559929E-2,-8.225597E-2,-8.1710294E-2,6.3525334E-2,5.742232E-2,-6.667941E-2,6.575987E-2,-6.337836E-2,6.747023E-2,-6.2029637E-2,-6.300355E-2,-7.113781E-2],"split_indices":[7,23,9,8,7,15,11,40,13,0,21,0,21,22,15,0,0,0,0,0,0,0,0,0,0,0,0],"split_type":[0,0,0,0,0,0,0,0,0,0,0,0,0,0,0,0,0,0,0,0,0,0,0,0,0,0,0],"sum_hessian":[2.4556484E3,1.3146449E3,1.1410037E3,2.1355923E2,1.1010857E3,2.2522885E2,9.157748E2,1.708893E2,4.2669937E1,4.996852E1,1.0511172E3,2.409152E1,2.0113733E2,5.6525757E1,8.59249E2,1.3983221E2,3.1057072E1,3.7513976E0,3.891854E1,1.0245895E3,2.652771E1,1.9842494E2,2.7123997E0,4.3229355E1,1.3296399E1,5.3262646E2,3.2662253E2],"tree_param":{"num_deleted":"0","num_feature":"44","num_nodes":"27","size_leaf_vector":"1"}},{"base_weights":[1.3219321E-1,-5.148617E-1,1.0212951E0,-8.7807894E-1,8.7179047E-1,1.086781E0,-6.437325E-2,3.073408E-2,-1.2925103E0,-7.093286E-2,1.0985651E0,-7.365141E-2,1.126258E0,-6.752266E-2,5.4321736E-2,-6.225873E-2,-6.905578E-2,6.1174013E-2,-6.2829785E-2,-6.722938E-2,5.7932414E-2],"categories":[],"categories_nodes":[],"categories_segments":[],"categories_sizes":[],"default_left":[1,0,0,0,0,0,0,0,1,0,0,0,0,0,0,0,0,0,0,0,0],"id":19,"left_children":[1,3,5,7,9,11,-1,13,15,-1,17,-1,19,-1,-1,-1,-1,-1,-1,-1,-1],"loss_changes":[1.4854625E3,7.5352893E2,1.6582959E2,4.4630817E2,1.6295792E2,1.0858447E2,0E0,5.439882E2,1.6934814E0,0E0,8.488385E1,0E0,8.49989E1,0E0,0E0,0E0,0E0,0E0,0E0,0E0,0E0],"parents":[2147483647,0,0,1,1,2,2,3,3,4,4,5,5,7,7,8,8,10,10,12,12],"right_children":[2,4,6,8,10,12,-1,14,16,-1,18,-1,20,-1,-1,-1,-1,-1,-1,-1,-1],"split_conditions":[3.0211963E2,-3.4869167E1,3.2441753E1,2.3E1,7.3E1,1.7E1,-6.437325E-2,2E1,2.9494775E2,-7.093286E-2,2.8409448E2,-7.365141E-2,2.3980567E0,-6.752266E-2,5.4321736E-2,-6.225873E-2,-6.905578E-2,6.1174013E-2,-6.2829785E-2,-6.722938E-2,5.7932414E-2],"split_indices":[8,0,39,7,4,7,0,7,15,0,9,0,41,0,0,0,0,0,0,0,0],"split_type":[0,0,0,0,0,0,0,0,0,0,0,0,0,0,0,0,0,0,0,0,0],"sum_hessian":[2.580162E3,1.4935984E3,1.0865638E3,1.1838655E3,3.097329E2,1.0571091E3,2.9454702E1,3.710688E2,8.127967E2,2.7430109E1,2.823028E2,1.550344E1,1.0416057E3,1.6063226E2,2.1043654E2,5.3958594E2,2.7321075E2,2.6854022E2,1.3762576E1,1.2953493E1,1.0286522E3],"tree_param":{"num_deleted":"0","num_feature":"44","num_nodes":"21","size_leaf_vector":"1"}},{"base_weights":[-1.9354593E-2,-1.0867203E0,4.5302984E-1,7.2424877E-1,-6.1882824E-2,8.6632913E-1,-2.5203755E-1,-5.9276402E-2,6.589418E-2,9.5841485E-1,-6.9793664E-2,-1.3861265E0,2.1710685E-1,5.022019E-2,-7.8354195E-2,-6.600988E-2,-8.3892174E-2,-6.771188E-2,2.70437E-2],"categories":[],"categories_nodes":[],"categories_segments":[],"categories_sizes":[],"default_left":[1,0,0,0,0,0,0,0,0,0,0,0,0,0,0,0,0,0,0],"id":20,"left_children":[1,3,5,7,-1,9,11,-1,-1,13,-1,15,17,-1,-1,-1,-1,-1,-1],"loss_changes":[1.1368292E3,1.8997083E2,4.55681E2,6.2609283E1,0E0,2.0665582E2,3.0803357E2,0E0,0E0,1.1163855E2,0E0,1.042633E0,2.0932138E2,0E0,0E0,0E0,0E0,0E0,0E0],"parents":[2147483647,0,0,1,1,2,2,3,3,5,5,6,6,9,9,11,11,12,12],"right_children":[2,4,6,8,-1,10,12,-1,-1,14,-1,16,18,-1,-1,-1,-1,-1,-1],"split_conditions":[2.9515063E2,-4.6752167E0,2.0033937E2,3E0,-6.1882824E-2,8.5234636E-4,7.9E1,-5.9276402E-2,6.589418E-2,3.4992676E0,-6.9793664E-2,2.9716387E1,-1.0560295E-3,5.022019E-2,-7.8354195E-2,-6.600988E-2,-8.3892174E-2,-6.771188E-2,2.70437E-2],"split_indices":[15,11,42,2,0,43,4,0,0,26,0,40,23,0,0,0,0,0,0],"split_type":[0,0,0,0,0,0,0,0,0,0,0,0,0,0,0,0,0,0,0],"sum_hessian":[2.2527112E3,6.9071686E2,1.5619944E3,5.284702E1,6.378698E2,9.846056E2,5.773888E2,1.2295196E1,4.0551823E1,9.4664746E2,3.7958122E1,1.6838582E2,4.09003E2,9.3030896E2,1.63385E1,1.4185233E2,2.6533485E1,6.933168E1,3.3967133E2],"tree_param":{"num_deleted":"0","num_feature":"44","num_nodes":"19","size_leaf_vector":"1"}},{"base_weights":[1.243495E-1,-6.0758132E-2,4.6286547E-1,1.2545625E-2,9.5064926E-1,-9.9895585E-1,6.532604E-1,1.0318074E0,-6.441465E-2,-6.539772E-2,6.559258E-2,5.3105384E-2,-1.3832445E-2,-6.453791E-2,5.3322084E-2],"categories":[],"categories_nodes":[],"categories_segments":[],"categories_sizes":[],"default_left":[1,0,0,0,0,0,0,0,0,0,0,0,0,0,0],"id":21,"left_children":[1,-1,3,5,7,9,11,13,-1,-1,-1,-1,-1,-1,-1],"loss_changes":[1.1031655E3,0E0,4.265197E2,6.5566016E2,1.7070135E2,2.8185315E2,2.3576654E2,7.3777466E1,0E0,0E0,0E0,0E0,0E0,0E0,0E0],"parents":[2147483647,0,0,2,2,3,3,4,4,5,5,6,6,7,7],"right_children":[2,-1,4,6,8,10,12,14,-1,-1,-1,-1,-1,-1,-1],"split_conditions":[2.9381787E2,-6.0758132E-2,3.0211963E2,-3.6021322E-4,3.158967E1,-3.4087776E1,2.9E1,2.3980567E0,-6.441465E-2,-6.539772E-2,6.559258E-2,5.3105384E-2,-1.3832445E-2,-6.453791E-2,5.3322084E-2],"split_indices":[15,0,8,23,39,0,7,41,0,0,0,0,0,0,0],"split_type":[0,0,0,0,0,0,0,0,0,0,0,0,0,0,0],"sum_hessian":[2.4306072E3,4.898146E2,1.9407925E3,1.00968317E3,9.311093E2,3.9132935E2,6.183538E2,8.99059E2,3.2050312E1,3.4555597E2,4.577337E1,4.2941394E2,1.8893985E2,1.2676961E1,8.863821E2],"tree_param":{"num_deleted":"0","num_feature":"44","num_nodes":"15","size_leaf_vector":"1"}},{"base_weights":[8.5500285E-2,-1.0564276E0,5.202999E-1,-6.0591962E-2,6.1963403E-1,-1.3915172E0,6.8485874E-1,-5.8284856E-2,6.389939E-2,-6.469667E-2,-1.7787431E0,1.7721519E-1,1.0774843E0,-6.2151898E-2,-1.0220307E-1,3.6619097E-2,-3.0270249E-2,5.5570602E-2,-6.929069E-2],"categories":[],"categories_nodes":[],"categories_segments":[],"categories_sizes":[],"default_left":[1,0,0,0,1,0,0,0,0,0,0,0,0,0,0,0,0,0,0],"id":22,"left_children":[1,3,5,-1,7,9,11,-1,-1,-1,13,15,17,-1,-1,-1,-1,-1,-1],"loss_changes":[1.1599653E3,1.6856927E2,5.332241E2,0E0,6.652547E1,2.7775574E0,3.1042944E2,0E0,0E0,0E0,9.252548E-1,2.9627E2,7.4966675E1,0E0,0E0,0E0,0E0,0E0,0E0],"parents":[2147483647,0,0,1,1,2,2,4,4,5,5,6,6,10,10,11,11,12,12],"right_children":[2,4,6,-1,8,10,12,-1,-1,-1,14,16,18,-1,-1,-1,-1,-1,-1],"split_conditions":[2.9515063E2,-3.4731388E1,-1.3078284E-3,-6.0591962E-2,3.3141638E2,3.1822258E1,4.797533E0,-5.8284856E-2,6.389939E-2,-6.469667E-2,3.7647088E0,2.9E1,2.1999493E2,-6.2151898E-2,-1.0220307E-1,3.6619097E-2,-3.0270249E-2,5.5570602E-2,-6.929069E-2],"split_indices":[15,0,23,0,42,40,41,0,0,0,41,7,42,0,0,0,0,0,0],"split_type":[0,0,0,0,0,0,0,0,0,0,0,0,0,0,0,0,0,0,0],"sum_hessian":[2.3341313E3,6.4326764E2,1.6908636E3,5.88936E2,5.4331684E1,1.3341496E2,1.5574487E3,1.4429897E1,3.9901787E1,1.1002852E2,2.3386436E1,6.7986774E2,8.7758093E2,9.629189E0,1.3757249E1,3.9776773E2,2.8210004E2,8.6619934E2,1.1381607E1],"tree_param":{"num_deleted":"0","num_feature":"44","num_nodes":"19","size_leaf_vector":"1"}},{"base_weights":[8.3952315E-2,-4.2538342E-1,9.0101105E-1,-7.533528E-1,1.033374E0,-4.5047832E-1,1.0611986E0,-9.320506E-1,1.0515363E0,1.2393523E0,-6.610318E-2,1.0018171E0,-1.5400379E0,1.1070395E0,-6.2205043E-2,5.1757455E-2,-5.3009402E-2,-5.638213E-2,6.798207E-2,-6.817665E-2,6.394406E-2,6.303916E-2,-8.1184484E-2,-6.432342E-2,-9.515416E-2,5.6624956E-2,-7.931625E-2],"categories":[],"categories_nodes":[],"categories_segments":[],"categories_sizes":[],"default_left":[1,1,0,1,0,0,0,0,0,0,0,0,0,0,0,0,0,0,0,0,0,0,0,0,0,0,0],"id":23,"left_children":[1,3,5,7,9,11,13,15,17,19,-1,21,23,25,-1,-1,-1,-1,-1,-1,-1,-1,-1,-1,-1,-1,-1],"loss_changes":[9.3611993E2,6.637673E2,1.874732E2,3.6607544E2,1.2525531E2,1.4748569E2,8.301483E1,2.6086432E2,7.031805E1,2.59039E1,0E0,2.9339298E1,2.439125E0,5.3773376E1,0E0,0E0,0E0,0E0,0E0,0E0,0E0,0E0,0E0,0E0,0E0,0E0,0E0],"parents":[2147483647,0,0,1,1,2,2,3,3,4,4,5,5,6,6,7,7,8,8,9,9,11,11,12,12,13,13],"right_children":[2,4,6,8,10,12,14,16,18,20,-1,22,24,26,-1,-1,-1,-1,-1,-1,-1,-1,-1,-1,-1,-1,-1],"split_conditions":[3.0211963E2,2.9952563E2,-1.0869503E-3,7.9345016E0,8.044195E-1,-1.4712617E-2,3.2441753E1,1.0118476E0,2.9555737E2,-3.7048054E1,-6.610318E-2,-2.4462165E-4,3.5445557E0,2.0561182E1,-6.2205043E-2,5.1757455E-2,-5.3009402E-2,-5.638213E-2,6.798207E-2,-6.817665E-2,6.394406E-2,6.303916E-2,-8.1184484E-2,-6.432342E-2,-9.515416E-2,5.6624956E-2,-7.931625E-2],"split_indices":[8,15,23,41,10,22,39,40,15,0,0,24,11,38,0,0,0,0,0,0,0,0,0,0,0,0,0],"split_type":[0,0,0,0,0,0,0,0,0,0,0,0,0,0,0,0,0,0,0,0,0,0,0,0,0,0,0],"sum_hessian":[2.2475173E3,1.3847655E3,8.627518E2,1.1309744E3,2.5379109E2,9.1231E1,7.7152075E2,1.029527E3,1.0144742E2,2.33818E2,1.9973093E1,3.914045E1,5.2090553E1,7.5698785E2,1.4532914E1,6.2526447E1,9.6700055E2,1.2237015E1,8.92104E1,2.9966986E0,2.308213E2,3.6099575E1,3.0408764E0,3.334455E1,1.8746002E1,7.504733E2,6.5144944E0],"tree_param":{"num_deleted":"0","num_feature":"44","num_nodes":"27","size_leaf_vector":"1"}},{"base_weights":[1.2972674E-1,-5.9028205E-2,4.4748893E-1,-7.834065E-1,6.5254366E-1,1.1783085E0,-1.3203034E0,8.924494E-1,-2.2705023E-1,-5.9472032E-2,7.773876E-2,-6.151248E-2,-7.804599E-2,-7.485878E-2,4.725252E-2,-6.703667E-2,5.3313162E-2],"categories":[],"categories_nodes":[],"categories_segments":[],"categories_sizes":[],"default_left":[1,0,0,0,0,0,0,0,0,0,0,0,0,0,0,0,0],"id":24,"left_children":[1,-1,3,5,7,9,11,13,15,-1,-1,-1,-1,-1,-1,-1,-1],"loss_changes":[9.342014E2,0E0,4.5622214E2,2.73588E2,3.269079E2,5.179104E1,2.4838867E0,1.5434332E2,4.8045398E2,0E0,0E0,0E0,0E0,0E0,0E0,0E0,0E0],"parents":[2147483647,0,0,2,2,3,3,4,4,5,5,6,6,7,7,8,8],"right_children":[2,-1,4,6,8,10,12,14,16,-1,-1,-1,-1,-1,-1,-1,-1],"split_conditions":[2.9381787E2,-5.9028205E-2,-1.0869503E-3,9.269714E-2,2.835581E2,3.0193604E2,3.0221777E2,7.342529E-1,5.874588E0,-5.9472032E-2,7.773876E-2,-6.151248E-2,-7.804599E-2,-7.485878E-2,4.725252E-2,-6.703667E-2,5.3313162E-2],"split_indices":[15,0,23,18,9,8,8,25,41,0,0,0,0,0,0,0,0],"split_type":[0,0,0,0,0,0,0,0,0,0,0,0,0,0,0,0,0],"sum_hessian":[2.2414607E3,4.3695673E2,1.804504E3,2.5728174E2,1.5472223E3,5.50275E1,2.0225424E2,1.2156453E3,3.31577E2,7.2527275E0,4.7774773E1,1.5162099E2,5.063325E1,2.5591267E1,1.1900541E3,1.7814133E2,1.5343567E2],"tree_param":{"num_deleted":"0","num_feature":"44","num_nodes":"17","size_leaf_vector":"1"}},{"base_weights":[1.7947987E-1,-4.4022268E-1,9.419497E-1,8.716303E-1,-7.9957724E-1,-6.2454797E-2,1.0431564E0,1.0510527E0,-7.372893E-2,-1.2766314E0,-2.7787647E-1,-7.952021E-2,1.076257E0,-6.792953E-2,5.7591807E-2,-5.9101373E-2,-6.93961E-2,4.0469196E-2,-4.393099E-2,5.497078E-2,-6.591638E-2],"categories":[],"categories_nodes":[],"categories_segments":[],"categories_sizes":[],"default_left":[1,0,0,0,1,0,0,0,0,1,0,0,0,0,0,0,0,0,0,0,0],"id":25,"left_children":[1,3,5,7,9,-1,11,13,-1,15,17,-1,19,-1,-1,-1,-1,-1,-1,-1,-1],"loss_changes":[1.0887157E3,5.9999756E2,2.3036798E2,1.16823975E2,2.4813428E2,0E0,8.783203E1,6.3483765E1,0E0,3.847412E0,3.130397E2,0E0,5.5588013E1,0E0,0E0,0E0,0E0,0E0,0E0,0E0,0E0],"parents":[2147483647,0,0,1,1,2,2,3,3,4,4,6,6,7,7,9,9,10,10,12,12],"right_children":[2,4,6,8,10,-1,12,14,-1,16,18,-1,20,-1,-1,-1,-1,-1,-1,-1,-1],"split_conditions":[2.9845874E2,2.572861E1,1.1202946E0,1.5483551E0,2.5434875E-1,-6.2454797E-2,-3.720639E1,-3.684889E1,-7.372893E-2,2.9515063E2,2.5798035E-1,-7.952021E-2,1.7166131E-3,-6.792953E-2,5.7591807E-2,-5.9101373E-2,-6.93961E-2,4.0469196E-2,-4.393099E-2,5.497078E-2,-6.591638E-2],"split_indices":[15,39,11,10,18,0,0,0,0,15,18,0,43,0,0,0,0,0,0,0,0],"split_type":[0,0,0,0,0,0,0,0,0,0,0,0,0,0,0,0,0,0,0,0,0],"sum_hessian":[2.3022605E3,1.2702659E3,1.0319945E3,2.7283478E2,9.97431E2,4.5063488E1,9.869311E2,2.5396526E2,1.886954E1,5.202534E2,4.7717767E2,1.1666535E1,9.752645E2,9.694647E0,2.442706E2,2.874903E2,2.3276312E2,1.6969907E2,3.074786E2,9.664586E2,8.805942E0],"tree_param":{"num_deleted":"0","num_feature":"44","num_nodes":"21","size_leaf_vector":"1"}},{"base_weights":[2.0793357E-1,-5.811524E-2,5.02241E-1,-2.4707648E-3,8.741904E-1,4.6431443E-1,-6.188451E-2,1.0083307E0,-5.9231675E-1,-1.9671535E-2,6.2438764E-2,5.2313395E-2,-9.1312304E-2,-7.275513E-2,4.636471E-2],"categories":[],"categories_nodes":[],"categories_segments":[],"categories_sizes":[],"default_left":[1,0,0,0,0,0,0,0,0,0,0,0,0,0,0],"id":26,"left_children":[1,-1,3,5,7,9,-1,11,13,-1,-1,-1,-1,-1,-1],"loss_changes":[9.216535E2,0E0,3.53091E2,4.612684E2,2.1361371E2,3.9115973E2,0E0,1.0863751E2,1.2115382E2,0E0,0E0,0E0,0E0,0E0,0E0],"parents":[2147483647,0,0,2,2,3,3,4,4,5,5,7,7,8,8],"right_children":[2,-1,4,6,8,10,-1,12,14,-1,-1,-1,-1,-1,-1],"split_conditions":[2.9381787E2,-5.811524E-2,3.8659973E0,2.835581E2,4.4142104E-7,2.8320752E2,-6.188451E-2,2.9190356E2,2.9365015E2,-1.9671535E-2,6.2438764E-2,5.2313395E-2,-9.1312304E-2,-7.275513E-2,4.636471E-2],"split_indices":[15,0,11,9,12,9,0,17,17,0,0,0,0,0,0],"split_type":[0,0,0,0,0,0,0,0,0,0,0,0,0,0,0],"sum_hessian":[2.2829949E3,4.0313364E2,1.8798611E3,7.9800793E2,1.0818531E3,5.7960236E2,2.1840562E2,9.9147595E2,9.037718E1,2.7710675E2,3.0249557E2,9.7900415E2,1.2471814E1,5.767413E1,3.2703053E1],"tree_param":{"num_deleted":"0","num_feature":"44","num_nodes":"15","size_leaf_vector":"1"}},{"base_weights":[-7.960412E-3,-5.8013327E-2,3.8648975E-1,-1.3016183E0,5.5296606E-1,-6.157701E-2,-8.094424E-2,2.3302434E-2,9.0651935E-1,2.3193438E-2,-6.234784E-2,-9.545799E-2,4.6955995E-2],"categories":[],"categories_nodes":[],"categories_segments":[],"categories_sizes":[],"default_left":[1,0,0,0,0,0,0,0,0,0,0,0,0],"id":27,"left_children":[1,-1,3,5,7,-1,-1,9,11,-1,-1,-1,-1],"loss_changes":[8.640323E2,0E0,3.9871075E2,8.393097E-1,2.4150586E2,0E0,0E0,2.9008893E2,7.278937E1,0E0,0E0,0E0,0E0],"parents":[2147483647,0,0,2,2,3,3,4,4,7,7,8,8],"right_children":[2,-1,4,6,8,-1,-1,10,12,-1,-1,-1,-1],"split_conditions":[2.9494775E2,-5.8013327E-2,-1.3078284E-3,3.2199844E1,3.8659973E0,-6.157701E-2,-8.094424E-2,2.835581E2,7E0,2.3193438E-2,-6.234784E-2,-9.545799E-2,4.6955995E-2],"split_indices":[15,0,23,40,11,0,0,9,6,0,0,0,0],"split_type":[0,0,0,0,0,0,0,0,0,0,0,0,0],"sum_hessian":[1.8989604E3,4.8377335E2,1.415187E3,1.2642183E2,1.2887653E3,1.07548195E2,1.8873634E1,5.163217E2,7.7244354E2,3.8383154E2,1.3249017E2,8.182306E0,7.642612E2],"tree_param":{"num_deleted":"0","num_feature":"44","num_nodes":"13","size_leaf_vector":"1"}},{"base_weights":[7.560692E-2,-5.3113765E-1,8.578083E-1,-9.9312496E-1,8.1440747E-1,1.0535828E0,-1.5521495E0,7.484735E-1,-1.0949018E0,1.0424204E0,-1.780376E0,1.1079462E0,-6.077502E-2,-1.4276162E0,-1.2563945E-1,-6.024101E-2,5.79602E-2,-6.084154E-2,-9.576999E-3,5.9097208E-2,-6.898327E-2,-9.877192E-2,-5.8116496E-2,-7.2890215E-2,5.7054788E-2,-7.840116E-2,-5.88441E-2],"categories":[],"categories_nodes":[],"categories_segments":[],"categories_sizes":[],"default_left":[1,1,0,0,0,0,0,0,1,0,0,0,0,0,0,0,0,0,0,0,0,0,0,0,0,0,0],"id":28,"left_children":[1,3,5,7,9,11,13,15,17,19,21,23,-1,25,-1,-1,-1,-1,-1,-1,-1,-1,-1,-1,-1,-1,-1],"loss_changes":[9.2247784E2,6.8130176E2,4.0222382E2,1.4534497E2,1.6771977E2,9.828601E1,4.0924835E0,3.7989784E1,8.466138E1,8.893024E1,4.784317E-1,6.6983765E1,0E0,2.3677063E-1,0E0,0E0,0E0,0E0,0E0,0E0,0E0,0E0,0E0,0E0,0E0,0E0,0E0],"parents":[2147483647,0,0,1,1,2,2,3,3,4,4,5,5,6,6,7,7,8,8,9,9,10,10,11,11,13,13],"right_children":[2,4,6,8,10,12,14,16,18,20,22,24,-1,26,-1,-1,-1,-1,-1,-1,-1,-1,-1,-1,-1,-1,-1],"split_conditions":[2.9845874E2,3.0211963E2,2.8364563E-1,1.468103E0,2.974148E2,2.3795056E2,5.0567875E0,-1.063738E-4,5.6066723E0,1.5483551E0,2.9776958E1,-3.720639E1,-6.077502E-2,1.0944483E1,-1.2563945E-1,-6.024101E-2,5.79602E-2,-6.084154E-2,-9.576999E-3,5.9097208E-2,-6.898327E-2,-9.877192E-2,-5.8116496E-2,-7.2890215E-2,5.7054788E-2,-7.840116E-2,-5.88441E-2],"split_indices":[15,8,20,34,15,42,11,23,11,10,39,0,0,34,0,0,0,0,0,0,0,0,0,0,0,0,0],"split_type":[0,0,0,0,0,0,0,0,0,0,0,0,0,0,0,0,0,0,0,0,0,0,0,0,0,0,0],"sum_hessian":[1.9417501E3,1.0937004E3,8.4804974E2,8.143564E2,2.79344E2,7.8485443E2,6.3195316E1,4.461161E1,7.697448E2,2.5732977E2,2.2014225E1,7.6699036E2,1.7864088E1,5.814389E1,5.051424E0,7.415008E0,3.71966E1,6.7789996E2,9.1844826E1,2.4379785E2,1.3531908E1,1.5063686E1,6.950539E0,9.234964E0,7.577554E2,3.3904316E1,2.4239573E1],"tree_param":{"num_deleted":"0","num_feature":"44","num_nodes":"27","size_leaf_vector":"1"}},{"base_weights":[1.7126043E-1,-5.7428695E-2,4.8259142E-1,-4.569518E-2,9.1756654E-1,3.374753E-1,-6.441137E-2,-7.023645E-2,9.524817E-1,3.1210963E-2,-6.814459E-2,5.176081E-2,-4.947089E-3],"categories":[],"categories_nodes":[],"categories_segments":[],"categories_sizes":[],"default_left":[1,0,0,0,0,0,0,0,0,0,0,0,0],"id":29,"left_children":[1,-1,3,5,7,9,-1,-1,11,-1,-1,-1,-1],"loss_changes":[8.3099255E2,0E0,3.7597287E2,3.5260568E2,7.409143E1,2.768867E2,0E0,0E0,7.70506E1,0E0,0E0,0E0,0E0],"parents":[2147483647,0,0,2,2,3,3,4,4,5,5,8,8],"right_children":[2,-1,4,6,8,10,-1,-1,12,-1,-1,-1,-1],"split_conditions":[2.9242798E2,-5.7428695E-2,4.797533E0,2.689209E0,6.366258E-1,2.072486E7,-6.441137E-2,-7.023645E-2,9.788656E-1,3.1210963E-2,-6.814459E-2,5.176081E-2,-4.947089E-3],"split_indices":[16,0,41,26,30,13,0,0,30,0,0,0,0],"split_type":[0,0,0,0,0,0,0,0,0,0,0,0,0],"sum_hessian":[2.019997E3,3.8503174E2,1.6349652E3,7.386969E2,8.9626825E2,5.6514624E2,1.7355066E2,1.2694467E1,8.835738E2,4.841361E2,8.101013E1,8.191332E2,6.4440605E1],"tree_param":{"num_deleted":"0","num_feature":"44","num_nodes":"13","size_leaf_vector":"1"}},{"base_weights":[1.5219605E-1,-5.6464322E-2,4.263091E-1,-1.251808E0,5.854049E-1,-5.8997165E-2,-1.5367694E0,7.44858E-1,-6.398843E-1,-5.333596E-2,-8.453444E-2,4.126273E-2,-3.023087E-2,4.269792E-2,-6.364603E-2],"categories":[],"categories_nodes":[],"categories_segments":[],"categories_sizes":[],"default_left":[1,0,0,0,0,0,0,0,0,0,0,0,0,0,0],"id":30,"left_children":[1,-1,3,5,7,-1,9,11,13,-1,-1,-1,-1,-1,-1],"loss_changes":[6.900844E2,0E0,4.3269766E2,1.0624847E0,2.8934653E2,0E0,3.4713745E-3,1.4248853E2,1.6259662E2,0E0,0E0,0E0,0E0,0E0,0E0],"parents":[2147483647,0,0,2,2,3,3,4,4,6,6,7,7,8,8],"right_children":[2,-1,4,6,8,-1,10,12,14,-1,-1,-1,-1,-1,-1],"split_conditions":[2.9381787E2,-5.6464322E-2,-1.3078284E-3,3.046706E1,2.8442432E2,-5.8997165E-2,2.7863922E0,1.2E1,4.675293E-2,-5.333596E-2,-8.453444E-2,4.126273E-2,-3.023087E-2,4.269792E-2,-6.364603E-2],"split_indices":[15,0,23,40,9,0,11,3,25,0,0,0,0,0,0],"split_type":[0,0,0,0,0,0,0,0,0,0,0,0,0,0,0],"sum_hessian":[1.9621648E3,3.4520532E2,1.6169595E3,1.3942784E2,1.4775316E3,1.1545249E2,2.3975348E1,1.3077407E3,1.6979091E2,7.87043E0,1.610492E1,1.2345778E3,7.3162994E1,5.043206E1,1.1935885E2],"tree_param":{"num_deleted":"0","num_feature":"44","num_nodes":"15","size_leaf_vector":"1"}},{"base_weights":[1.6483435E-1,-5.6100544E-2,4.3055955E-1,-2.1569139E-1,8.375998E-1,1.0687958E0,-6.677207E-1,-5.891418E-2,9.0409213E-1,6.891551E-2,-5.8535215E-2,-6.322228E-2,2.5550697E-2,4.9999252E-2,1.8776892E-3],"categories":[],"categories_nodes":[],"categories_segments":[],"categories_sizes":[],"default_left":[1,0,0,0,0,0,0,0,0,0,0,0,0,0,0],"id":31,"left_children":[1,-1,3,5,7,9,11,-1,13,-1,-1,-1,-1,-1,-1],"loss_changes":[6.5875354E2,0E0,4.2009E2,3.593561E2,1.3237524E2,1.1333139E2,3.224499E2,0E0,7.881213E1,0E0,0E0,0E0,0E0,0E0,0E0],"parents":[2147483647,0,0,2,2,3,3,4,4,5,5,6,6,8,8],"right_children":[2,-1,4,6,8,10,12,-1,14,-1,-1,-1,-1,-1,-1],"split_conditions":[2.9381787E2,-5.6100544E-2,3.8659973E0,-3.817972E1,2.95281E2,5.6932735E-1,3E0,-5.891418E-2,4.4142104E-7,6.891551E-2,-5.8535215E-2,-6.322228E-2,2.5550697E-2,4.9999252E-2,1.8776892E-3],"split_indices":[15,0,11,0,15,11,2,0,12,0,0,0,0,0,0],"split_type":[0,0,0,0,0,0,0,0,0,0,0,0,0,0,0],"sum_hessian":[1.9240645E3,3.2875555E2,1.595309E3,6.1668256E2,9.786264E2,1.6017229E2,4.5651025E2,3.0714615E1,9.4791174E2,1.410612E2,1.9111094E1,3.0303067E2,1.5347957E2,8.5332684E2,9.458489E1],"tree_param":{"num_deleted":"0","num_feature":"44","num_nodes":"15","size_leaf_vector":"1"}},{"base_weights":[2.139624E-1,-5.574218E-2,4.6183085E-1,3.2432698E-2,8.7959206E-1,-1.2340246E0,6.3786775E-1,9.2773646E-1,-7.818346E-2,-5.916371E-2,-6.8286836E-2,-6.8680875E-2,3.854617E-2,4.843348E-2,-5.750219E-2],"categories":[],"categories_nodes":[],"categories_segments":[],"categories_sizes":[],"default_left":[1,0,0,0,0,0,0,0,0,0,0,0,0,0,0],"id":32,"left_children":[1,-1,3,5,7,9,11,13,-1,-1,-1,-1,-1,-1,-1],"loss_changes":[6.5111426E2,0E0,2.9873184E2,6.313154E2,1.0074542E2,1.640625E-1,1.501394E2,7.15733E1,0E0,0E0,0E0,0E0,0E0,0E0,0E0],"parents":[2147483647,0,0,2,2,3,3,4,4,5,5,6,6,7,7],"right_children":[2,-1,4,6,8,10,12,14,-1,-1,-1,-1,-1,-1,-1],"split_conditions":[2.9381787E2,-5.574218E-2,3.0211963E2,-3.2642018E-4,-7.138639E1,4.078064E0,9.9804676E-1,3.2441753E1,-7.818346E-2,-5.916371E-2,-6.8286836E-2,-6.8680875E-2,3.854617E-2,4.843348E-2,-5.750219E-2],"split_indices":[15,0,8,23,1,11,28,39,0,0,0,0,0,0,0],"split_type":[0,0,0,0,0,0,0,0,0,0,0,0,0,0,0],"sum_hessian":[1.9742897E3,3.098275E2,1.6644622E3,8.2133057E2,8.431316E2,2.6531104E2,5.5601953E2,8.27447E2,1.5684545E1,1.9872375E2,6.658729E1,3.391915E1,5.221004E2,8.1198444E2,1.5462607E1],"tree_param":{"num_deleted":"0","num_feature":"44","num_nodes":"15","size_leaf_vector":"1"}},{"base_weights":[1.5660353E-1,-5.5426765E-2,4.0580016E-1,1.1153749E-1,9.6207076E-1,6.385105E-1,-5.5125594E-1,-6.92403E-2,1.0158702E0,-7.3241465E-2,3.988553E-2,4.4194567E-3,-6.382276E-2,-8.235821E-2,5.2460767E-2],"categories":[],"categories_nodes":[],"categories_segments":[],"categories_sizes":[],"default_left":[1,0,0,0,0,0,0,0,0,0,0,0,0,0,0],"id":33,"left_children":[1,-1,3,5,7,9,11,-1,13,-1,-1,-1,-1,-1,-1],"loss_changes":[5.7575366E2,0E0,2.4956064E2,3.491668E2,6.801764E1,1.8761703E2,2.0554951E2,0E0,4.7576965E1,0E0,0E0,0E0,0E0,0E0,0E0],"parents":[2147483647,0,0,2,2,3,3,4,4,5,5,6,6,8,8],"right_children":[2,-1,4,6,8,10,12,-1,14,-1,-1,-1,-1,-1,-1],"split_conditions":[2.9381787E2,-5.5426765E-2,3.3347446E1,9.64387E6,3.320146E0,7E0,6E0,-6.92403E-2,-3.7220833E1,-7.3241465E-2,3.988553E-2,4.4194567E-3,-6.382276E-2,-8.235821E-2,5.2460767E-2],"split_indices":[15,0,40,13,41,6,3,0,0,0,0,0,0,0,0],"split_type":[0,0,0,0,0,0,0,0,0,0,0,0,0,0,0],"sum_hessian":[1.8238066E3,2.9955527E2,1.5242513E3,9.976847E2,5.2656665E2,5.558092E2,4.418755E2,1.1245979E1,5.153207E2,3.8531567E1,5.172776E2,2.3525363E2,2.0662187E2,5.77426E0,5.0954645E2],"tree_param":{"num_deleted":"0","num_feature":"44","num_nodes":"15","size_leaf_vector":"1"}},{"base_weights":[2.0587759E-1,-5.5114515E-2,4.458025E-1,1.100794E-1,9.3487024E-1,-1.2555727E0,3.8749814E-1,-5.8053654E-2,9.7072154E-1,-5.8229227E-2,-8.210095E-2,3.2011874E-2,-3.1078545E-2,-7.455008E-2,4.9783807E-2],"categories":[],"categories_nodes":[],"categories_segments":[],"categories_sizes":[],"default_left":[1,0,0,0,0,0,0,0,0,0,0,0,0,0,0],"id":34,"left_children":[1,-1,3,5,7,9,11,-1,13,-1,-1,-1,-1,-1,-1],"loss_changes":[5.8230286E2,0E0,2.5720764E2,3.529692E2,4.904956E1,3.6195374E0,1.9780757E2,0E0,4.003723E1,0E0,0E0,0E0,0E0,0E0,0E0],"parents":[2147483647,0,0,2,2,3,3,4,4,5,5,6,6,8,8],"right_children":[2,-1,4,6,8,10,12,-1,14,-1,-1,-1,-1,-1,-1],"split_conditions":[2.9381787E2,-5.5114515E-2,5.503895E0,-9.397967E-4,2.9242798E2,3.0390772E1,2.835581E2,-5.8053654E-2,1.7E1,-5.8229227E-2,-8.210095E-2,3.2011874E-2,-3.1078545E-2,-7.455008E-2,4.9783807E-2],"split_indices":[15,0,41,23,16,33,9,0,7,0,0,0,0,0,0],"split_type":[0,0,0,0,0,0,0,0,0,0,0,0,0,0,0],"sum_hessian":[1.8527173E3,2.8657886E2,1.5661384E3,9.2938336E2,6.3675507E2,1.5632327E2,7.730601E2,1.0180762E1,6.265743E2,1.2978027E2,2.6542988E1,6.1850903E2,1.5455109E2,5.6983047E0,6.20876E2],"tree_param":{"num_deleted":"0","num_feature":"44","num_nodes":"15","size_leaf_vector":"1"}},{"base_weights":[1.548409E-1,-3.569292E-1,8.2560694E-1,-7.633116E-1,7.2268045E-1,8.767017E-1,-7.466513E-2,-9.841225E-1,5.844732E-1,-6.1766393E-2,1.0264127E0,9.2350876E-1,-5.667286E-2,-5.9337884E-2,5.339089E-2,-6.408036E-2,6.043001E-2,-8.1971414E-2,5.5424687E-2,-6.48075E-2,4.7821E-2],"categories":[],"categories_nodes":[],"categories_segments":[],"categories_sizes":[],"default_left":[1,1,0,0,0,0,0,1,0,0,0,0,0,0,0,0,0,0,0,0,0],"id":35,"left_children":[1,3,5,7,9,11,-1,13,15,-1,17,19,-1,-1,-1,-1,-1,-1,-1,-1,-1],"loss_changes":[6.011211E2,4.3643134E2,9.109271E1,2.1553085E2,1.6315393E2,7.086719E1,0E0,2.5946796E2,1.2069843E2,0E0,5.350142E1,5.425525E1,0E0,0E0,0E0,0E0,0E0,0E0,0E0,0E0,0E0],"parents":[2147483647,0,0,1,1,2,2,3,3,4,4,5,5,7,7,8,8,10,10,11,11],"right_children":[2,4,6,8,10,12,-1,14,16,-1,18,20,-1,-1,-1,-1,-1,-1,-1,-1,-1],"split_conditions":[2.896963E1,2.9855933E2,-7.138639E1,-3.4731388E1,-8.5518695E-5,3.2441753E1,-7.466513E-2,9.300865E1,5.1517334E0,-6.1766393E-2,-3.6955833E1,2.8850366E2,-5.667286E-2,-5.9337884E-2,5.339089E-2,-6.408036E-2,6.043001E-2,-8.1971414E-2,5.5424687E-2,-6.48075E-2,4.7821E-2],"split_indices":[33,15,1,0,23,39,0,39,25,0,0,17,0,0,0,0,0,0,0,0,0],"split_type":[0,0,0,0,0,0,0,0,0,0,0,0,0,0,0,0,0,0,0,0,0],"sum_hessian":[1.749262E3,9.9249347E2,7.5676855E2,7.212837E2,2.7120978E2,7.4106195E2,1.57065935E1,6.199805E2,1.01303116E2,3.6009243E1,2.3520053E2,7.2472705E2,1.633488E1,5.646421E2,5.5338436E1,2.5125832E1,7.6177284E1,6.458746E0,2.2874179E2,1.0027855E1,7.146992E2],"tree_param":{"num_deleted":"0","num_feature":"44","num_nodes":"21","size_leaf_vector":"1"}},{"base_weights":[1.0786494E-1,-4.1383153E-1,8.006502E-1,-9.205944E-1,8.1242424E-1,-5.9720375E-2,8.5579324E-1,-1.1820323E0,5.252658E-1,1.0841975E0,-6.557426E-2,-1.7033827E0,8.8457406E-1,-5.5191357E-2,-6.49639E-2,-6.420206E-2,5.749145E-2,-7.572635E-2,5.6693673E-2,-4.6098065E-2,-1.008079E-1,-8.369832E-2,4.53521E-2],"categories":[],"categories_nodes":[],"categories_segments":[],"categories_sizes":[],"default_left":[1,1,0,0,0,0,0,1,1,0,0,0,0,0,0,0,0,0,0,0,0,0,0],"id":36,"left_children":[1,3,5,7,9,-1,11,13,15,17,-1,19,21,-1,-1,-1,-1,-1,-1,-1,-1,-1,-1],"loss_changes":[5.876077E2,5.771537E2,7.7848724E1,2.4889154E2,1.582907E2,0E0,5.1602417E1,3.6687622E0,1.1591111E2,3.2891205E1,0E0,7.3394775E-2,4.0219116E1,0E0,0E0,0E0,0E0,0E0,0E0,0E0,0E0,0E0,0E0],"parents":[2147483647,0,0,1,1,2,2,3,3,4,4,6,6,7,7,8,8,9,9,11,11,12,12],"right_children":[2,4,6,8,10,-1,12,14,16,18,-1,20,22,-1,-1,-1,-1,-1,-1,-1,-1,-1,-1],"split_conditions":[3.0211963E2,2.988252E2,2.3980567E0,3E0,8.044195E-1,-5.9720375E-2,3.0532764E2,2.9515063E2,5.533457E0,2.816577E2,-6.557426E-2,-1.2414614E-3,1.6286621E0,-5.5191357E-2,-6.49639E-2,-6.420206E-2,5.749145E-2,-7.572635E-2,5.6693673E-2,-4.6098065E-2,-1.008079E-1,-8.369832E-2,4.53521E-2],"split_indices":[8,15,41,2,10,0,14,15,41,9,0,23,26,0,0,0,0,0,0,0,0,0,0],"split_type":[0,0,0,0,0,0,0,0,0,0,0,0,0,0,0,0,0,0,0,0,0,0,0],"sum_hessian":[1.6238978E3,9.2656104E2,6.9733685E2,6.557959E2,2.7076514E2,1.820018E1,6.7913666E2,5.555286E2,1.0026725E2,2.4048274E2,3.0282404E1,6.9056454E0,6.72231E2,3.3949393E2,2.1603468E2,2.5458942E1,7.4808304E1,3.9576101E0,2.3652513E2,3.102414E0,3.8032315E0,5.2119823E0,6.6701904E2],"tree_param":{"num_deleted":"0","num_feature":"44","num_nodes":"23","size_leaf_vector":"1"}},{"base_weights":[1.9625193E-1,-5.428803E-2,4.229066E-1,1.4488441E-1,8.926975E-1,-1.2374701E0,3.9023548E-1,9.5206493E-1,-7.711575E-2,-5.638379E-2,-7.677164E-2,3.2039322E-2,-3.1067489E-2,-7.170516E-2,4.9089693E-2],"categories":[],"categories_nodes":[],"categories_segments":[],"categories_sizes":[],"default_left":[1,0,0,0,0,0,0,0,0,0,0,0,0,0,0],"id":37,"left_children":[1,-1,3,5,7,9,11,13,-1,-1,-1,-1,-1,-1,-1],"loss_changes":[4.8676068E2,0E0,1.8571585E2,3.040577E2,7.7912445E1,2.6901703E0,1.9325475E2,3.807138E1,0E0,0E0,0E0,0E0,0E0,0E0,0E0],"parents":[2147483647,0,0,2,2,3,3,4,4,5,5,6,6,7,7],"right_children":[2,-1,4,6,8,10,12,14,-1,-1,-1,-1,-1,-1,-1],"split_conditions":[2.9381787E2,-5.428803E-2,5.503895E0,-1.0002647E-3,1.22E2,2.9592432E1,2.835581E2,6.943372E-1,-7.711575E-2,-5.638379E-2,-7.677164E-2,3.2039322E-2,-3.1067489E-2,-7.170516E-2,4.9089693E-2],"split_indices":[15,0,41,23,4,33,9,30,0,0,0,0,0,0,0],"split_type":[0,0,0,0,0,0,0,0,0,0,0,0,0,0,0],"sum_hessian":[1.6725884E3,2.5071196E2,1.4218765E3,8.940727E2,5.278037E2,1.3415791E2,7.599148E2,5.1583624E2,1.1967457E1,1.0153027E2,3.262764E1,6.0935535E2,1.5055946E2,5.7663317E0,5.1006992E2],"tree_param":{"num_deleted":"0","num_feature":"44","num_nodes":"15","size_leaf_vector":"1"}},{"base_weights":[1.7385386E-1,-5.4175872E-2,4.0415877E-1,5.111633E-1,-5.85484E-2,5.669057E-1,-6.857094E-2,-7.3530845E-2,3.094629E-2],"categories":[],"categories_nodes":[],"categories_segments":[],"categories_sizes":[],"default_left":[1,0,0,0,0,0,0,0,0],"id":38,"left_children":[1,-1,3,5,-1,7,-1,-1,-1],"loss_changes":[4.7164093E2,0E0,2.3252171E2,1.3606442E2,0E0,1.3369962E2,0E0,0E0,0E0],"parents":[2147483647,0,0,2,2,3,3,5,5],"right_children":[2,-1,4,6,-1,8,-1,-1,-1],"split_conditions":[2.0888819E1,-5.4175872E-2,1.716613E-6,9.969481E-1,-5.85484E-2,6E0,-6.857094E-2,-7.3530845E-2,3.094629E-2],"split_indices":[36,0,12,30,0,6,0,0,0],"split_type":[0,0,0,0,0,0,0,0,0],"sum_hessian":[1.6262015E3,2.5117627E2,1.3750253E3,1.288189E3,8.683627E1,1.251822E3,3.6366993E1,3.0485794E1,1.2213362E3],"tree_param":{"num_deleted":"0","num_feature":"44","num_nodes":"9","size_leaf_vector":"1"}},{"base_weights":[1.6160102E-1,-5.3813934E-2,3.6946934E-1,-3.8651377E-3,7.496114E-1,3.407781E-1,-1.2099322E0,9.448172E-1,-7.8434086E-1,2.9619558E-2,-6.821224E-2,-5.6960095E-2,-7.018159E-2,-5.8358442E-2,4.964861E-2,-7.5381E-2,4.4288944E-2],"categories":[],"categories_nodes":[],"categories_segments":[],"categories_sizes":[],"default_left":[1,0,0,0,0,0,0,0,0,0,0,0,0,0,0,0,0],"id":39,"left_children":[1,-1,3,5,7,9,11,13,15,-1,-1,-1,-1,-1,-1,-1,-1],"loss_changes":[4.0327E2,0E0,1.9036108E2,2.821098E2,1.9974619E2,2.272665E2,4.675598E-1,6.1165955E1,9.262526E1,0E0,0E0,0E0,0E0,0E0,0E0,0E0,0E0],"parents":[2147483647,0,0,2,2,3,3,4,4,5,5,6,6,7,7,8,8],"right_children":[2,-1,4,6,8,10,12,14,16,-1,-1,-1,-1,-1,-1,-1,-1],"split_conditions":[2.9381787E2,-5.3813934E-2,2.9845874E2,2.8349292E2,3.9360046E-1,2.9082812E2,3.9644642E0,1.1202946E0,3.0831958E2,2.9619558E-2,-6.821224E-2,-5.6960095E-2,-7.018159E-2,-5.8358442E-2,4.964861E-2,-7.5381E-2,4.4288944E-2],"split_indices":[15,0,15,9,21,17,11,11,8,0,0,0,0,0,0,0,0],"split_type":[0,0,0,0,0,0,0,0,0,0,0,0,0,0,0,0,0],"sum_hessian":[1.5646715E3,2.2436638E2,1.3403052E3,6.7670667E2,6.635985E2,5.2686755E2,1.4983914E2,5.890251E2,7.457339E1,4.596838E2,6.718372E1,1.148005E2,3.503864E1,1.2612812E1,5.764123E2,5.2105392E1,2.2467999E1],"tree_param":{"num_deleted":"0","num_feature":"44","num_nodes":"17","size_leaf_vector":"1"}},{"base_weights":[1.8026568E-1,-2.8338733E-1,7.683678E-1,-9.715529E-1,4.667415E-1,-5.9308685E-2,8.197584E-1,-1.1513933E0,1.0592748E0,8.93367E-1,-6.514267E-1,-7.288136E-2,8.5099363E-1,-5.40982E-2,-6.1902978E-2,-4.76959E-2,6.1689615E-2,-8.0999866E-2,4.9461585E-2,5.4666054E-2,-6.211525E-2,-6.1675977E-2,4.413163E-2],"categories":[],"categories_nodes":[],"categories_segments":[],"categories_sizes":[],"default_left":[1,1,0,0,0,0,0,1,1,0,0,0,0,0,0,0,0,0,0,0,0,0,0],"id":40,"left_children":[1,3,5,7,9,-1,11,13,15,17,19,-1,21,-1,-1,-1,-1,-1,-1,-1,-1,-1,-1],"loss_changes":[4.289251E2,4.546489E2,7.061746E1,1.6893372E2,2.0172704E2,0E0,4.9341217E1,1.2016602E0,1.4484859E1,7.5241135E1,1.22004486E2,0E0,4.512323E1,0E0,0E0,0E0,0E0,0E0,0E0,0E0,0E0,0E0,0E0],"parents":[2147483647,0,0,1,1,2,2,3,3,4,4,6,6,7,7,8,8,9,9,10,10,12,12],"right_children":[2,4,6,8,10,-1,12,14,16,18,20,-1,22,-1,-1,-1,-1,-1,-1,-1,-1,-1,-1],"split_conditions":[3.0211963E2,-1.063738E-4,2.3980567E0,-3.4087776E1,2.9E1,-5.9308685E-2,1.4E1,2.2000635E1,7.9345016E0,2.8212744E2,2.746181E2,-7.288136E-2,2.8850366E2,-5.40982E-2,-6.1902978E-2,-4.76959E-2,6.1689615E-2,-8.0999866E-2,4.9461585E-2,5.4666054E-2,-6.211525E-2,-6.1675977E-2,4.413163E-2],"split_indices":[8,23,41,0,7,0,7,36,41,9,9,0,17,0,0,0,0,0,0,0,0,0,0],"split_type":[0,0,0,0,0,0,0,0,0,0,0,0,0,0,0,0,0,0,0,0,0,0,0],"sum_hessian":[1.5712264E3,8.7886084E2,6.9236566E2,4.5820758E2,4.2065323E2,1.717221E1,6.751935E2,4.2132968E2,3.6877907E1,3.0462698E2,1.1602624E2,8.51739E0,6.666761E2,2.4141417E2,1.799155E2,2.5855522E0,3.4292355E1,1.0608048E1,2.9401895E2,2.9137772E1,8.6888466E1,9.399626E0,6.572764E2],"tree_param":{"num_deleted":"0","num_feature":"44","num_nodes":"23","size_leaf_vector":"1"}},{"base_weights":[9.075618E-2,-3.8117427E-1,7.169423E-1,7.8930944E-1,-6.8167305E-1,9.033591E-1,-2.6145658E-1,9.1555953E-1,-9.26237E-2,-1.1827865E0,2.9312704E-2,-1.5519408E0,9.5523053E-1,9.8055756E-1,-1.5554092E0,5.2023735E-2,-5.8929097E-2,-5.7870846E-2,-8.6628206E-2,-6.1867684E-2,2.2214996E-2,-4.577365E-2,-8.9335434E-2,-5.4060347E-2,4.9542326E-2,-6.747991E-2,5.6441426E-2,-6.88972E-2,-1.3307473E-1],"categories":[],"categories_nodes":[],"categories_segments":[],"categories_sizes":[],"default_left":[1,0,0,0,1,0,0,0,0,1,0,0,0,0,0,0,0,0,0,0,0,0,0,0,0,0,0,0,0],"id":41,"left_children":[1,3,5,7,9,11,13,15,-1,17,19,21,23,25,27,-1,-1,-1,-1,-1,-1,-1,-1,-1,-1,-1,-1,-1,-1],"loss_changes":[4.1837646E2,2.845368E2,1.1119977E2,5.686451E1,2.2913501E2,6.659454E1,1.5924913E2,4.269742E1,0E0,3.2557983E0,1.408036E2,1.7242432E-3,3.7429504E1,1.903627E1,5.843422E0,0E0,0E0,0E0,0E0,0E0,0E0,0E0,0E0,0E0,0E0,0E0,0E0,0E0,0E0],"parents":[2147483647,0,0,1,1,2,2,3,3,4,4,5,5,6,6,7,7,9,9,10,10,11,11,12,12,13,13,14,14],"right_children":[2,4,6,8,10,12,14,16,-1,18,20,22,24,26,28,-1,-1,-1,-1,-1,-1,-1,-1,-1,-1,-1,-1,-1,-1],"split_conditions":[2.9855933E2,2.4508932E1,2.8364563E-1,2.7938525E2,5.072998E0,-1.3078284E-3,1.8775427E2,4.3511386E-7,-9.26237E-2,2.9716387E1,2.4984741E-1,2.6961746E0,1.1202946E0,9.902339E-1,5.4696493E0,5.2023735E-2,-5.8929097E-2,-5.7870846E-2,-8.6628206E-2,-6.1867684E-2,2.2214996E-2,-4.577365E-2,-8.9335434E-2,-5.4060347E-2,4.9542326E-2,-6.747991E-2,5.6441426E-2,-6.88972E-2,-1.3307473E-1],"split_indices":[15,39,20,9,25,23,42,12,0,40,19,11,11,30,41,0,0,0,0,0,0,0,0,0,0,0,0,0,0],"split_type":[0,0,0,0,0,0,0,0,0,0,0,0,0,0,0,0,0,0,0,0,0,0,0,0,0,0,0,0,0],"sum_hessian":[1.4138228E3,8.064364E2,6.073863E2,1.6441008E2,6.420263E2,5.1024478E2,9.7141525E1,1.5753496E2,6.8751187E0,3.7620663E2,2.6581967E2,9.958261E0,5.0028653E2,4.968911E1,4.745242E1,1.4914183E2,8.39313E0,3.625806E2,1.3626037E1,6.510817E1,2.0071149E2,4.0036483E0,5.954612E0,8.09468E0,4.9219186E2,2.4879181E0,4.720119E1,4.2826874E1,4.6255455E0],"tree_param":{"num_deleted":"0","num_feature":"44","num_nodes":"29","size_leaf_vector":"1"}},{"base_weights":[2.4031624E-1,-5.322168E-2,4.3456897E-1,5.753097E-1,-4.9824846E-1,-1.3767538E0,6.375193E-1,-1.2047888E0,4.81971E-1,-6.080879E-2,-9.8145455E-2,-6.5254234E-2,3.447575E-2,-9.109344E-2,-5.7746507E-2,-5.7872232E-2,5.4961003E-2],"categories":[],"categories_nodes":[],"categories_segments":[],"categories_sizes":[],"default_left":[1,0,0,0,0,0,0,0,0,0,0,0,0,0,0,0,0],"id":42,"left_children":[1,-1,3,5,7,9,11,13,15,-1,-1,-1,-1,-1,-1,-1,-1],"loss_changes":[3.9232574E2,0E0,1.7705743E2,1.4300879E2,1.2320171E2,1.0448761E0,1.155372E2,1.0702515E0,7.704285E1,0E0,0E0,0E0,0E0,0E0,0E0,0E0,0E0],"parents":[2147483647,0,0,2,2,3,3,4,4,5,5,6,6,7,7,8,8],"right_children":[2,-1,4,6,8,10,12,14,16,-1,-1,-1,-1,-1,-1,-1,-1],"split_conditions":[2.9381787E2,-5.322168E-2,2.8451782E2,7.342529E-1,2.964519E2,3.0389966E2,1.4E1,2.9776958E1,3.841732E0,-6.080879E-2,-9.8145455E-2,-6.5254234E-2,3.447575E-2,-9.109344E-2,-5.7746507E-2,-5.7872232E-2,5.4961003E-2],"split_indices":[15,0,9,25,16,8,7,39,11,0,0,0,0,0,0,0,0],"split_type":[0,0,0,0,0,0,0,0,0,0,0,0,0,0,0,0,0],"sum_hessian":[1.5451089E3,1.9964703E2,1.3454618E3,1.1694082E3,1.7605357E2,3.5463867E1,1.1339443E3,1.0217612E2,7.387746E1,3.025131E1,5.2125545E0,2.8931683E1,1.1050127E3,4.981495E0,9.7194626E1,1.9967783E1,5.390967E1],"tree_param":{"num_deleted":"0","num_feature":"44","num_nodes":"17","size_leaf_vector":"1"}},{"base_weights":[1.537395E-1,5.2276146E-1,-6.072077E-1,6.351721E-1,-5.9702046E-2,8.2934195E-1,-1.0532287E0,-5.9240967E-2,7.123578E-1,-5.3931024E-2,1.0214756E0,-1.1612172E0,5.848008E-1,4.0235575E-2,-1.1901943E-2,5.473401E-2,-6.431794E-2,-5.6159925E-2,-7.8528956E-2,5.2655168E-2,-8.5936174E-2],"categories":[],"categories_nodes":[],"categories_segments":[],"categories_sizes":[],"default_left":[0,0,0,0,0,0,1,0,0,0,0,1,0,0,0,0,0,0,0,0,0],"id":43,"left_children":[1,3,5,7,-1,9,11,-1,13,-1,15,17,19,-1,-1,-1,-1,-1,-1,-1,-1],"loss_changes":[3.9812872E2,1.849758E2,2.9760657E2,1.26789215E2,0E0,4.1529198E1,6.326828E1,0E0,7.573743E1,0E0,1.8421791E1,3.4074402E0,2.613486E1,0E0,0E0,0E0,0E0,0E0,0E0,0E0,0E0],"parents":[2147483647,0,0,1,1,2,2,3,3,5,5,6,6,8,8,10,10,11,11,12,12],"right_children":[2,4,6,8,-1,10,12,-1,14,-1,16,18,20,-1,-1,-1,-1,-1,-1,-1,-1],"split_conditions":[4.2E1,2.5798035E-1,2.7657568E2,1.4E1,-5.9702046E-2,3.41E2,3.057771E2,-5.9240967E-2,2.8451782E2,-5.3931024E-2,2.9644897E2,2.8849852E1,1.5719604E-1,4.0235575E-2,-1.1901943E-2,5.473401E-2,-6.431794E-2,-5.6159925E-2,-7.8528956E-2,5.2655168E-2,-8.5936174E-2],"split_indices":[7,18,9,7,0,7,8,0,9,0,15,40,20,0,0,0,0,0,0,0,0],"split_type":[0,0,0,0,0,0,0,0,0,0,0,0,0,0,0,0,0,0,0,0,0],"sum_hessian":[1.4156754E3,9.5355914E2,4.621163E2,8.955514E2,5.8007763E1,1.0928155E2,3.5283475E2,3.585125E1,8.5970013E2,9.575832E0,9.970571E1,3.3128555E2,2.15492E1,7.836985E2,7.6001656E1,9.714979E1,2.5559287E0,3.0655835E2,2.4727201E1,1.8359562E1,3.189638E0],"tree_param":{"num_deleted":"0","num_feature":"44","num_nodes":"21","size_leaf_vector":"1"}},{"base_weights":[1.2646745E-1,-5.287037E-2,3.1996316E-1,5.449672E-1,-6.2241536E-1,6.824218E-1,-9.661943E-1,-1.1981236E0,2.8035188E-1,-6.051022E-2,3.670742E-2,3.390853E-2,-7.578822E-2,-5.5898488E-2,-7.150294E-2,4.6447836E-2,-7.177395E-2],"categories":[],"categories_nodes":[],"categories_segments":[],"categories_sizes":[],"default_left":[1,0,0,0,0,0,0,0,0,0,0,0,0,0,0,0,0],"id":44,"left_children":[1,-1,3,5,7,9,11,13,15,-1,-1,-1,-1,-1,-1,-1,-1],"loss_changes":[3.0443234E2,0E0,2.4243848E2,1.9222217E2,1.1495405E2,8.370416E1,7.088878E1,9.081421E-1,9.780461E1,0E0,0E0,0E0,0E0,0E0,0E0,0E0,0E0],"parents":[2147483647,0,0,2,2,3,3,4,4,5,5,6,6,7,7,8,8],"right_children":[2,-1,4,6,8,10,12,14,16,-1,-1,-1,-1,-1,-1,-1,-1],"split_conditions":[2.9381787E2,-5.287037E-2,2.835581E2,1.1E1,2.9914624E2,-1.7018868E-3,1.5762329E-1,4.078064E0,-2.113171E-6,-6.051022E-2,3.670742E-2,3.390853E-2,-7.578822E-2,-5.5898488E-2,-7.150294E-2,4.6447836E-2,-7.177395E-2],"split_indices":[15,0,9,3,15,23,20,11,24,0,0,0,0,0,0,0,0],"split_type":[0,0,0,0,0,0,0,0,0,0,0,0,0,0,0,0,0],"sum_hessian":[1.3264884E3,1.8572047E2,1.140768E3,9.2123413E2,2.1953383E2,8.449282E2,7.6305885E1,1.3384909E2,8.568474E1,2.188224E1,8.2304596E2,1.9055637E1,5.7250244E1,1.0379803E2,3.005107E1,6.2512756E1,2.3171984E1],"tree_param":{"num_deleted":"0","num_feature":"44","num_nodes":"17","size_leaf_vector":"1"}},{"base_weights":[2.227212E-1,-5.2682843E-2,3.998051E-1,-6.597667E-2,4.7111285E-1,2.1414E-1,8.8886845E-1,-6.1074115E-2,2.1312276E-2,-6.0289837E-2,4.616008E-2],"categories":[],"categories_nodes":[],"categories_segments":[],"categories_sizes":[],"default_left":[1,0,0,0,0,0,0,0,0,0,0],"id":45,"left_children":[1,-1,3,-1,5,7,9,-1,-1,-1,-1],"loss_changes":[3.2352478E2,0E0,1.5461697E2,0E0,1.2935925E2,2.2843779E2,3.4143463E1,0E0,0E0,0E0,0E0],"parents":[2147483647,0,0,2,2,4,4,5,5,6,6],"right_children":[2,-1,4,-1,6,8,10,-1,-1,-1,-1],"split_conditions":[2.9381787E2,-5.2682843E-2,7.139914E-1,-6.597667E-2,5.503895E0,-1.0002647E-3,-3.7906944E1,-6.1074115E-2,2.1312276E-2,-6.0289837E-2,4.616008E-2],"split_indices":[15,0,30,0,41,23,0,0,0,0,0],"split_type":[0,0,0,0,0,0,0,0,0,0,0],"sum_hessian":[1.428497E3,1.7343918E2,1.2550577E3,4.9282265E1,1.2057755E3,7.474879E2,4.5828757E2,9.56086E1,6.5187933E2,6.840291E0,4.5144727E2],"tree_param":{"num_deleted":"0","num_feature":"44","num_nodes":"11","size_leaf_vector":"1"}},{"base_weights":[2.396863E-1,-5.252209E-2,4.08094E-1,1.6240446E-1,8.8156337E-1,6.100618E-1,-4.689909E-1,9.380855E-1,-7.418565E-2,-6.660442E-2,3.5719976E-2,1.1933801E-2,-4.5464337E-2,4.8486527E-2,-8.0083184E-2],"categories":[],"categories_nodes":[],"categories_segments":[],"categories_sizes":[],"default_left":[1,0,0,0,0,0,0,0,0,0,0,0,0,0,0],"id":46,"left_children":[1,-1,3,5,7,9,11,13,-1,-1,-1,-1,-1,-1,-1],"loss_changes":[3.1462375E2,0E0,1.4873923E2,2.3879814E2,5.9817413E1,1.01096375E2,1.0947181E2,3.590619E1,0E0,0E0,0E0,0E0,0E0,0E0,0E0],"parents":[2147483647,0,0,2,2,3,3,4,4,5,5,6,6,7,7],"right_children":[2,-1,4,6,8,10,12,14,-1,-1,-1,-1,-1,-1,-1],"split_conditions":[2.9381787E2,-5.252209E-2,3.3347446E1,9.64387E6,4.159546E-1,-5.6978315E-6,3.2328796E-1,-7.138639E1,-7.418565E-2,-6.660442E-2,3.5719976E-2,1.1933801E-2,-4.5464337E-2,4.8486527E-2,-8.0083184E-2],"split_indices":[15,0,40,13,21,24,21,1,0,0,0,0,0,0,0],"split_type":[0,0,0,0,0,0,0,0,0,0,0,0,0,0,0],"sum_hessian":[1.4451208E3,1.6625404E2,1.2788668E3,8.4284595E2,4.3602094E2,4.9320145E2,3.496445E2,4.26434E2,9.586946E0,2.4545345E1,4.686561E2,1.3428018E2,2.1536433E2,4.2179663E2,4.6373553E0],"tree_param":{"num_deleted":"0","num_feature":"44","num_nodes":"15","size_leaf_vector":"1"}},{"base_weights":[1.0499957E-1,-3.1238228E-1,7.3721194E-1,-1.192875E0,2.5661948E-1,-5.252865E-2,8.4804034E-1,-5.3441923E-2,-1.3434973E0,-5.701194E-2,4.9299994E-1,8.82652E-1,-6.868021E-2,-6.0935386E-2,-7.870009E-2,-6.30905E-2,3.1264327E-2,-7.430745E-3,4.744991E-2],"categories":[],"categories_nodes":[],"categories_segments":[],"categories_sizes":[],"default_left":[1,0,0,1,1,0,0,0,0,0,0,0,0,0,0,0,0,0,0],"id":47,"left_children":[1,3,5,7,9,-1,11,-1,13,-1,15,17,-1,-1,-1,-1,-1,-1,-1],"loss_changes":[3.339705E2,3.823324E2,1.00603E2,4.159607E0,1.5377592E2,0E0,3.7693146E1,0E0,1.8604584E0,0E0,9.30771E1,3.214511E1,0E0,0E0,0E0,0E0,0E0,0E0,0E0],"parents":[2147483647,0,0,1,1,2,2,3,3,4,4,6,6,8,8,10,10,11,11],"right_children":[2,4,6,8,10,-1,12,-1,14,-1,16,18,-1,-1,-1,-1,-1,-1,-1],"split_conditions":[5.503895E0,-3.6584167E1,2.9242798E2,2.9515063E2,1.1202946E0,-5.252865E-2,2.862964E2,-5.3441923E-2,3.9213257E0,-5.701194E-2,-1.0002647E-3,2.8080786E2,-6.868021E-2,-6.0935386E-2,-7.870009E-2,-6.30905E-2,3.1264327E-2,-7.430745E-3,4.744991E-2],"split_indices":[41,0,16,15,11,0,9,0,11,0,23,9,0,0,0,0,0,0,0],"split_type":[0,0,0,0,0,0,0,0,0,0,0,0,0,0,0,0,0,0,0],"sum_hessian":[1.2637714E3,7.6152454E2,5.022469E2,2.9850745E2,4.6301706E2,2.882287E1,4.73424E2,1.6814067E2,1.3036678E2,6.6459564E1,3.965575E2,4.66755E2,6.6690125E0,8.865707E1,4.1709705E1,2.7200363E1,3.6935715E2,2.8138449E1,4.3861655E2],"tree_param":{"num_deleted":"0","num_feature":"44","num_nodes":"19","size_leaf_vector":"1"}},{"base_weights":[1.4662851E-1,-2.874186E-1,7.061703E-1,4.2285368E-1,-8.108463E-1,7.7909064E-1,-1.8865069E0,6.718816E-1,-5.9164513E-2,-1.0556931E0,7.5189495E-1,-4.5502084E-1,8.501027E-1,-6.1472543E-2,-2.4878328E0,-6.670005E-2,4.762886E-2,-5.792309E-2,1.2371876E-2,-5.074599E-2,5.449087E-2,-8.31633E-2,4.657996E-2,4.4302594E-2,-7.545608E-2,-1.3375132E-1,-3.7911896E-2],"categories":[],"categories_nodes":[],"categories_segments":[],"categories_sizes":[],"default_left":[1,0,0,0,1,0,0,0,0,1,0,0,0,0,0,0,0,0,0,0,0,0,0,0,0,0,0],"id":48,"left_children":[1,3,5,7,9,11,13,15,-1,17,19,21,23,-1,25,-1,-1,-1,-1,-1,-1,-1,-1,-1,-1,-1,-1],"loss_changes":[3.0390182E2,2.6241406E2,1.0480081E2,1.2068166E2,1.5621167E2,4.7036865E1,2.964264E0,1.4773972E2,0E0,4.737033E1,3.4303802E1,5.116502E1,4.4056732E1,0E0,2.3240662E-1,0E0,0E0,0E0,0E0,0E0,0E0,0E0,0E0,0E0,0E0,0E0,0E0],"parents":[2147483647,0,0,1,1,2,2,3,3,4,4,5,5,6,6,7,7,9,9,10,10,11,11,12,12,14,14],"right_children":[2,4,6,8,10,12,14,16,-1,18,20,22,24,-1,26,-1,-1,-1,-1,-1,-1,-1,-1,-1,-1,-1,-1],"split_conditions":[3.0211963E2,1.2E1,1.2E1,2.8349292E2,5.9682617E0,2E0,4.0999146E0,2.8154272E2,-5.9164513E-2,3.0000415E2,2.9493457E2,-3.69825E1,2.9371118E2,-6.1472543E-2,2.8716943E2,-6.670005E-2,4.762886E-2,-5.792309E-2,1.2371876E-2,-5.074599E-2,5.449087E-2,-8.31633E-2,4.657996E-2,4.4302594E-2,-7.545608E-2,-1.3375132E-1,-3.7911896E-2],"split_indices":[8,6,3,9,25,3,11,9,0,15,16,0,17,0,9,0,0,0,0,0,0,0,0,0,0,0,0],"split_type":[0,0,0,0,0,0,0,0,0,0,0,0,0,0,0,0,0,0,0,0,0,0,0,0,0,0,0],"sum_hessian":[1.2494714E3,7.039165E2,5.45555E2,2.987355E2,4.05181E2,5.313111E2,1.4243876E1,2.5913852E2,3.9596996E1,3.5057773E2,5.4603268E1,2.8614546E1,5.0269656E2,8.261393E0,5.9824834E0,3.1350655E1,2.2778786E2,3.2505405E2,2.5523685E1,8.445079E0,4.615819E1,1.5184163E1,1.3430382E1,4.9576663E2,6.9299107E0,4.904996E0,1.0774873E0],"tree_param":{"num_deleted":"0","num_feature":"44","num_nodes":"27","size_leaf_vector":"1"}},{"base_weights":[1.3574998E-1,-2.732248E-1,8.7240803E-1,3.3620867E-1,-1.0066109E0,-7.019177E-2,9.3272144E-1,-5.7277214E-2,5.134638E-1,7.573775E-1,-1.1586844E0,-8.9948595E-2,9.6579754E-1,-6.946503E-2,3.2343086E-2,-5.0259E-2,5.4133397E-2,-5.2940495E-2,-6.2915124E-2,-7.866869E-2,4.929464E-2],"categories":[],"categories_nodes":[],"categories_segments":[],"categories_sizes":[],"default_left":[1,0,0,0,0,0,0,0,0,0,1,0,0,0,0,0,0,0,0,0,0],"id":49,"left_children":[1,3,5,7,9,-1,11,-1,13,15,17,-1,19,-1,-1,-1,-1,-1,-1,-1,-1],"loss_changes":[3.684943E2,3.5196954E2,6.12482E1,1.13639336E2,9.6727295E1,0E0,4.022119E1,0E0,9.8654205E1,1.769423E1,1.9444275E0,0E0,2.305719E1,0E0,0E0,0E0,0E0,0E0,0E0,0E0,0E0],"parents":[2147483647,0,0,1,1,2,2,3,3,4,4,6,6,8,8,9,9,10,10,12,12],"right_children":[2,4,6,8,10,-1,12,-1,14,16,18,-1,20,-1,-1,-1,-1,-1,-1,-1,-1],"split_conditions":[3.3347446E1,2.9E1,3.3327434E0,1.4E1,2.746181E2,-7.019177E-2,2E1,-5.7277214E-2,9.957884E-1,5.547119E0,2.9515063E2,-8.9948595E-2,1.4E1,-6.946503E-2,3.2343086E-2,-5.0259E-2,5.4133397E-2,-5.2940495E-2,-6.2915124E-2,-7.866869E-2,4.929464E-2],"split_indices":[40,7,41,7,9,0,4,0,28,25,15,0,7,0,0,0,0,0,0,0,0],"split_type":[0,0,0,0,0,0,0,0,0,0,0,0,0,0,0,0,0,0,0,0,0],"sum_hessian":[1.2213267E3,7.8573474E2,4.3559186E2,4.2942786E2,3.5630692E2,1.0668908E1,4.2492297E2,4.5298153E1,3.841297E2,2.7963377E1,3.2834354E2,4.4448195E0,4.2047815E2,2.4549232E1,3.5958047E2,4.031103E0,2.3932274E1,1.6976758E2,1.5857596E2,2.6946495E0,4.177835E2],"tree_param":{"num_deleted":"0","num_feature":"44","num_nodes":"21","size_leaf_vector":"1"}},{"base_weights":[2.3400782E-1,-1.8906593E-1,7.322641E-1,2.978324E-1,-8.7538785E-1,7.8193176E-1,-7.229896E-2,5.723375E-1,-5.9239205E-2,-1.1217544E0,1.0200157E0,8.504755E-1,-4.3494245E-1,-6.627541E-2,3.6973316E-2,-5.2398678E-2,-5.954817E-2,5.9286352E-2,-4.8141208E-2,-9.2426054E-2,4.395583E-2,5.115029E-2,-9.472687E-2],"categories":[],"categories_nodes":[],"categories_segments":[],"categories_sizes":[],"default_left":[1,0,0,0,0,0,0,0,0,1,0,0,0,0,0,0,0,0,0,0,0,0,0],"id":50,"left_children":[1,3,5,7,9,11,-1,13,-1,15,17,19,21,-1,-1,-1,-1,-1,-1,-1,-1,-1,-1],"loss_changes":[2.716067E2,2.3325713E2,6.513095E1,1.6698276E2,1.3638443E2,4.8665833E1,0E0,1.10555504E2,0E0,6.3079834E-2,1.2260136E1,4.4024445E1,6.905055E1,0E0,0E0,0E0,0E0,0E0,0E0,0E0,0E0,0E0,0E0],"parents":[2147483647,0,0,1,1,2,2,3,3,4,4,5,5,7,7,9,9,10,10,11,11,12,12],"right_children":[2,4,6,8,10,12,-1,14,-1,16,18,20,22,-1,-1,-1,-1,-1,-1,-1,-1,-1,-1],"split_conditions":[3.0211963E2,8.783487E6,-7.138639E1,2.8349292E2,-3.4087776E1,1.2E1,-7.229896E-2,-1.5515834E-6,-5.9239205E-2,2.9515063E2,-6.9483183E-4,9.301573E-1,2.6522827E-1,-6.627541E-2,3.6973316E-2,-5.2398678E-2,-5.954817E-2,5.9286352E-2,-4.8141208E-2,-9.2426054E-2,4.395583E-2,5.115029E-2,-9.472687E-2],"split_indices":[8,13,1,9,0,3,0,24,0,15,24,28,21,0,0,0,0,0,0,0,0,0,0],"split_type":[0,0,0,0,0,0,0,0,0,0,0,0,0,0,0,0,0,0,0,0,0,0,0],"sum_hessian":[1.2868052E3,6.962413E2,5.9056396E2,4.0762518E2,2.8861606E2,5.78025E2,1.2538934E1,3.4446228E2,6.316292E1,2.5577795E2,3.2838108E1,5.474874E2,3.0537596E1,2.7318102E1,3.1714417E2,1.3161305E2,1.24164894E2,3.0676403E1,2.1617043E0,5.081611E0,5.424058E2,1.5427058E1,1.5110537E1],"tree_param":{"num_deleted":"0","num_feature":"44","num_nodes":"23","size_leaf_vector":"1"}},{"base_weights":[1.4451072E-1,-2.8684407E-1,6.7338127E-1,2.9020157E-1,-1.1242567E0,7.826302E-1,-4.9807248E-1,-2.2446272E-1,9.3331915E-1,-5.2438993E-2,-5.9943307E-2,8.4870654E-1,-6.91134E-2,4.7394346E-2,-7.158103E-2,2.7903287E-2,-6.0004126E-2,5.247558E-2,-6.3665554E-2,4.445503E-2,-7.689967E-2],"categories":[],"categories_nodes":[],"categories_segments":[],"categories_sizes":[],"default_left":[1,0,0,0,1,0,0,0,0,0,0,0,0,0,0,0,0,0,0,0,0],"id":51,"left_children":[1,3,5,7,9,11,13,15,17,-1,-1,19,-1,-1,-1,-1,-1,-1,-1,-1,-1],"loss_changes":[2.6003888E2,3.0381503E2,6.5912094E1,1.2354387E2,1.8664551E-1,6.821826E1,6.1135246E1,1.5930592E2,4.38553E1,0E0,0E0,4.5274353E1,0E0,0E0,0E0,0E0,0E0,0E0,0E0,0E0,0E0],"parents":[2147483647,0,0,1,1,2,2,3,3,4,4,5,5,6,6,7,7,8,8,11,11],"right_children":[2,4,6,8,10,12,14,16,18,-1,-1,20,-1,-1,-1,-1,-1,-1,-1,-1,-1],"split_conditions":[3.0211963E2,7.3464445E6,8.523464E-7,2.9856348E2,2.952527E2,2.8451782E2,1.5719604E-1,2.3E1,8.044195E-1,-5.2438993E-2,-5.9943307E-2,-7.138639E1,-6.91134E-2,4.7394346E-2,-7.158103E-2,2.7903287E-2,-6.0004126E-2,5.247558E-2,-6.3665554E-2,4.445503E-2,-7.689967E-2],"split_indices":[8,13,12,14,15,9,20,7,10,0,0,1,0,0,0,0,0,0,0,0,0],"split_type":[0,0,0,0,0,0,0,0,0,0,0,0,0,0,0,0,0,0,0,0,0],"sum_hessian":[1.1380206E3,6.270483E2,5.1097238E2,3.7162308E2,2.5542517E2,4.6768805E2,4.3284348E1,2.0678851E2,1.6483456E2,1.3445949E2,1.2096569E2,4.5442615E2,1.3261881E1,1.6975649E1,2.6308699E1,1.1498719E2,9.180132E1,1.5708734E2,7.7472157E0,4.474802E2,6.9459615E0],"tree_param":{"num_deleted":"0","num_feature":"44","num_nodes":"21","size_leaf_vector":"1"}},{"base_weights":[2.0175035E-1,-5.292815E-2,3.843321E-1,-5.810381E-2,4.6206397E-1,-6.475532E-2,5.1267433E-1,1.5827293E-2,4.414445E-2],"categories":[],"categories_nodes":[],"categories_segments":[],"categories_sizes":[],"default_left":[1,0,0,0,0,0,0,0,0],"id":52,"left_children":[1,-1,3,-1,5,-1,7,-1,-1],"loss_changes":[2.7245856E2,0E0,1.24756836E2,0E0,8.823035E1,0E0,6.926643E1,0E0,0E0],"parents":[2147483647,0,0,2,2,4,4,6,6],"right_children":[2,-1,4,-1,6,-1,8,-1,-1],"split_conditions":[2.9242798E2,-5.292815E-2,2.0961823E0,-5.810381E-2,9.301573E-1,-6.475532E-2,3.452678E1,1.5827293E-2,4.414445E-2],"split_indices":[16,0,41,0,28,0,40,0,0],"split_type":[0,0,0,0,0,0,0,0,0],"sum_hessian":[1.1812671E3,1.4886862E2,1.0323984E3,4.874327E1,9.8365515E2,2.6849846E1,9.568053E2,6.266698E2,3.301355E2],"tree_param":{"num_deleted":"0","num_feature":"44","num_nodes":"9","size_leaf_vector":"1"}},{"base_weights":[2.6489925E-1,-5.1856484E-2,3.8612747E-1,1.0541704E-1,8.063475E-1,-2.5704968E-1,7.4543744E-1,-2.4475303E-1,8.723497E-1,1.2038266E-2,-5.5608984E-2,4.391496E-2,-5.9063908E-2,5.0315984E-2,-7.745786E-2,4.4553835E-2,-1.348897E-1],"categories":[],"categories_nodes":[],"categories_segments":[],"categories_sizes":[],"default_left":[1,0,0,0,0,0,0,0,0,0,0,0,0,0,0,0,0],"id":53,"left_children":[1,-1,3,5,7,9,11,13,15,-1,-1,-1,-1,-1,-1,-1,-1],"loss_changes":[1.9855627E2,0E0,1.3547461E2,1.6028871E2,3.2131805E1,1.8814276E2,6.497774E1,4.7193844E1,3.1361542E1,0E0,0E0,0E0,0E0,0E0,0E0,0E0,0E0],"parents":[2147483647,0,0,2,2,3,3,4,4,5,5,6,6,7,7,8,8],"right_children":[2,-1,4,6,8,10,12,14,16,-1,-1,-1,-1,-1,-1,-1,-1],"split_conditions":[2.9161963E2,-5.1856484E-2,5.503895E0,-3.496528E1,2.8085913E2,2.3316497E-2,3.8612366E-1,2.724812E2,3.1137842E2,1.2038266E-2,-5.5608984E-2,4.391496E-2,-5.9063908E-2,5.0315984E-2,-7.745786E-2,4.4553835E-2,-1.348897E-1],"split_indices":[16,0,41,0,9,29,21,9,14,0,0,0,0,0,0,0,0],"split_type":[0,0,0,0,0,0,0,0,0,0,0,0,0,0,0,0,0],"sum_hessian":[1.2544009E3,1.06202095E2,1.1481987E3,6.8911505E2,4.590837E2,4.4033548E2,2.4877954E2,2.69642E1,4.321195E2,2.787685E2,1.6156699E2,2.3324002E2,1.5539525E1,1.388011E1,1.3084089E1,4.3061115E2,1.5083438E0],"tree_param":{"num_deleted":"0","num_feature":"44","num_nodes":"17","size_leaf_vector":"1"}},{"base_weights":[2.4525382E-1,-5.1502354E-2,3.846225E-1,1.5254499E-1,8.603033E-1,3.4852564E-1,-1.3568056E0,-7.495347E-2,9.1400003E-1,2.4965478E-2,-5.5353004E-2,-5.9601136E-2,-8.264228E-2,4.7157478E-2,-6.452127E-2],"categories":[],"categories_nodes":[],"categories_segments":[],"categories_sizes":[],"default_left":[1,0,0,0,0,0,0,0,0,0,0,0,0,0,0],"id":54,"left_children":[1,-1,3,5,7,9,11,-1,13,-1,-1,-1,-1,-1,-1],"loss_changes":[2.1160077E2,0E0,1.18207504E2,2.139465E2,4.5874695E1,1.4091678E2,2.0855865E0,0E0,2.3327515E1,0E0,0E0,0E0,0E0,0E0,0E0],"parents":[2147483647,0,0,2,2,3,3,4,4,5,5,6,6,8,8],"right_children":[2,-1,4,6,8,10,12,-1,14,-1,-1,-1,-1,-1,-1],"split_conditions":[2.9381787E2,-5.1502354E-2,3.452678E1,1.1E1,3.5930095E0,2.8442432E2,3.841732E0,-7.495347E-2,4.2044067E-1,2.4965478E-2,-5.5353004E-2,-5.9601136E-2,-8.264228E-2,4.7157478E-2,-6.452127E-2],"split_indices":[15,0,40,3,41,9,11,0,21,0,0,0,0,0,0],"split_type":[0,0,0,0,0,0,0,0,0,0,0,0,0,0,0],"sum_hessian":[1.1872983E3,1.163392E2,1.0709591E3,7.206738E2,3.5028528E2,6.38533E2,8.2140816E1,7.1957326E0,3.4308954E2,5.791916E2,5.9341404E1,5.5997726E1,2.6143091E1,3.391767E2,3.912836E0],"tree_param":{"num_deleted":"0","num_feature":"44","num_nodes":"15","size_leaf_vector":"1"}},{"base_weights":[1.6954903E-1,-1.5551946E-1,8.1919044E-1,2.1409279E-1,-9.317896E-1,8.6789274E-1,-6.3733995E-2,-5.799518E-2,4.2771164E-1,7.380534E-1,-1.1188614E0,9.026634E-1,-7.857035E-2,2.89917E-2,-7.434647E-2,-4.7604486E-2,5.2542295E-2,-5.196252E-2,-5.9966397E-2,-9.484187E-2,4.6078816E-2],"categories":[],"categories_nodes":[],"categories_segments":[],"categories_sizes":[],"default_left":[1,0,0,1,0,0,0,0,0,0,1,0,0,0,0,0,0,0,0,0,0],"id":55,"left_children":[1,3,5,7,9,11,-1,-1,13,15,17,19,-1,-1,-1,-1,-1,-1,-1,-1,-1],"loss_changes":[2.3177486E2,2.102073E2,3.8428513E1,1.4627205E2,7.463495E1,3.1805054E1,0E0,0E0,1.26268394E2,1.3903152E1,1.1727905E-1,2.048407E1,0E0,0E0,0E0,0E0,0E0,0E0,0E0,0E0,0E0],"parents":[2147483647,0,0,1,1,2,2,3,3,4,4,5,5,8,8,9,9,10,10,11,11],"right_children":[2,4,6,8,10,12,-1,-1,14,16,18,20,-1,-1,-1,-1,-1,-1,-1,-1,-1],"split_conditions":[3.3347446E1,4.6E1,4.2044067E-1,-1.0560295E-3,1.468103E0,-7.138639E1,-6.3733995E-2,-5.799518E-2,1.1E1,5.547119E0,2.9494775E2,9.301573E-1,-7.857035E-2,2.89917E-2,-7.434647E-2,-4.7604486E-2,5.2542295E-2,-5.196252E-2,-5.9966397E-2,-9.484187E-2,4.6078816E-2],"split_indices":[40,7,21,23,34,1,0,0,3,25,15,28,0,0,0,0,0,0,0,0,0],"split_type":[0,0,0,0,0,0,0,0,0,0,0,0,0,0,0,0,0,0,0,0,0],"sum_hessian":[1.0959302E3,7.309413E2,3.6498886E2,4.9566174E2,2.3527956E2,3.572646E2,7.7242804E0,6.609687E1,4.2956488E2,2.3406143E1,2.1187341E2,3.5286465E2,4.3999085E0,3.9859296E2,3.0971918E1,3.3360875E0,2.0070055E1,1.1349759E2,9.837582E1,1.7015901E0,3.511631E2],"tree_param":{"num_deleted":"0","num_feature":"44","num_nodes":"21","size_leaf_vector":"1"}},{"base_weights":[2.102144E-1,-5.1283564E-2,3.43624E-1,-5.3001344E-1,4.7890693E-1,-1.1793578E0,4.850242E-1,-6.659072E-2,5.304529E-1,-5.3734835E-2,-6.845267E-2,4.0279236E-2,-9.282515E-2,3.4579255E-2,5.3443265E-4],"categories":[],"categories_nodes":[],"categories_segments":[],"categories_sizes":[],"default_left":[1,0,0,0,0,0,0,0,0,0,0,0,0,0,0],"id":56,"left_children":[1,-1,3,5,7,9,11,-1,13,-1,-1,-1,-1,-1,-1],"loss_changes":[1.8129283E2,0E0,1.17406944E2,8.848866E1,8.0868E1,1.495285E-1,4.1088608E1,0E0,6.999126E1,0E0,0E0,0E0,0E0,0E0,0E0],"parents":[2147483647,0,0,2,2,3,3,4,4,5,5,6,6,8,8],"right_children":[2,-1,4,6,8,10,12,-1,14,-1,-1,-1,-1,-1,-1],"split_conditions":[2.9381787E2,-5.1283564E-2,-1.0790452E-3,3.0545728E2,7.139914E-1,3.0221777E2,3.6588768E1,-6.659072E-2,4.6E1,-5.3734835E-2,-6.845267E-2,4.0279236E-2,-9.282515E-2,3.4579255E-2,5.3443265E-4],"split_indices":[15,0,23,8,30,8,35,0,7,0,0,0,0,0,0],"split_type":[0,0,0,0,0,0,0,0,0,0,0,0,0,0,0],"sum_hessian":[1.0964131E3,1.06171234E2,9.902419E2,1.3238713E2,8.5785474E2,8.063871E1,5.174843E1,2.3057209E1,8.3479755E2,5.626235E1,2.4376358E1,4.609401E1,5.65442E0,6.369928E2,1.9780475E2],"tree_param":{"num_deleted":"0","num_feature":"44","num_nodes":"15","size_leaf_vector":"1"}},{"base_weights":[1.7843653E-1,-1.0472074E0,3.2403886E-1,-1.2335887E0,4.1778386E-2,4.2675713E-1,-5.546978E-2,-5.498637E-2,-1.5724193E0,-5.054552E-2,5.038853E-1,-4.9627587E-2,-8.68481E-2,-6.935619E-2,2.7397675E-2],"categories":[],"categories_nodes":[],"categories_segments":[],"categories_sizes":[],"default_left":[0,0,0,1,0,0,0,0,0,0,0,0,0,0,0],"id":57,"left_children":[1,3,5,7,-1,9,-1,-1,11,-1,13,-1,-1,-1,-1],"loss_changes":[1.8523903E2,3.9719894E1,1.3694305E2,2.8392944E0,0E0,9.6491E1,0E0,0E0,7.7558136E-1,0E0,6.927615E1,0E0,0E0,0E0,0E0],"parents":[2147483647,0,0,1,1,2,2,3,3,5,5,8,8,10,10],"right_children":[2,4,6,8,-1,10,-1,-1,12,-1,14,-1,-1,-1,-1],"split_conditions":[2E0,-3.6955833E1,4.323883E-1,2.9716382E2,4.1778386E-2,2.9381787E2,-5.546978E-2,-5.498637E-2,2.9635963E0,-5.054552E-2,6E0,-4.9627587E-2,-8.68481E-2,-6.935619E-2,2.7397675E-2],"split_indices":[3,0,21,15,0,15,0,0,11,0,6,0,0,0,0],"split_type":[0,0,0,0,0,0,0,0,0,0,0,0,0,0,0],"sum_hessian":[1.0351046E3,1.09252464E2,9.258522E2,9.972518E1,9.52728E0,8.645983E2,6.1253838E1,7.452741E1,2.5197773E1,4.3405937E1,8.211924E2,7.1240315E0,1.8073742E1,1.8007244E1,8.031851E2],"tree_param":{"num_deleted":"0","num_feature":"44","num_nodes":"15","size_leaf_vector":"1"}},{"base_weights":[1.9314043E-1,-5.1342387E-2,3.2761666E-1,4.1129503E-1,-5.6312002E-2,-6.966479E-1,5.005172E-1,-6.3014925E-2,2.4854725E-2,-6.6844024E-2,2.7444908E-2],"categories":[],"categories_nodes":[],"categories_segments":[],"categories_sizes":[],"default_left":[1,0,0,0,0,0,0,0,0,0,0],"id":58,"left_children":[1,-1,3,5,-1,7,9,-1,-1,-1,-1],"loss_changes":[1.7171109E2,0E0,1.1501921E2,8.843878E1,0E0,4.5594276E1,7.409802E1,0E0,0E0,0E0,0E0],"parents":[2147483647,0,0,2,2,3,3,5,5,6,6],"right_children":[2,-1,4,6,-1,8,10,-1,-1,-1,-1],"split_conditions":[2.9403882E2,-5.1342387E-2,1.7166131E-3,-1.3078284E-3,-5.6312002E-2,3.0040332E2,1.4E1,-6.3014925E-2,2.4854725E-2,-6.6844024E-2,2.7444908E-2],"split_indices":[15,0,43,23,0,15,7,0,0,0,0],"split_type":[0,0,0,0,0,0,0,0,0,0,0],"sum_hessian":[1.0435889E3,1.0295252E2,9.406363E2,8.9012146E2,5.0514835E1,6.583147E1,8.2429E2,4.4679398E1,2.1152071E1,2.0464462E1,8.0382556E2],"tree_param":{"num_deleted":"0","num_feature":"44","num_nodes":"11","size_leaf_vector":"1"}},{"base_weights":[1.2598173E-1,-2.6324835E-1,6.014998E-1,2.8568017E-1,-9.483568E-1,6.53132E-1,-6.867849E-2,-1.2935525E0,6.1336E-1,7.322454E-1,-5.5855025E-2,-3.7220448E-1,7.534559E-1,-8.0505155E-2,-5.609299E-2,3.859082E-2,-6.4736485E-2,-4.658365E-2,5.169644E-2,-7.3350094E-2,3.2621913E-2,4.6869814E-2,1.13118915E-2],"categories":[],"categories_nodes":[],"categories_segments":[],"categories_sizes":[],"default_left":[1,0,0,0,0,0,0,0,0,0,0,0,0,0,0,0,0,0,0,0,0,0,0],"id":59,"left_children":[1,3,5,7,9,11,-1,13,15,17,-1,19,21,-1,-1,-1,-1,-1,-1,-1,-1,-1,-1],"loss_changes":[1.804602E2,2.019881E2,4.5642517E1,1.5528825E2,6.854608E1,4.4335526E1,0E0,9.994278E-1,7.595971E1,1.2205294E1,0E0,4.4526173E1,3.7651306E1,0E0,0E0,0E0,0E0,0E0,0E0,0E0,0E0,0E0,0E0],"parents":[2147483647,0,0,1,1,2,2,3,3,4,4,5,5,7,7,8,8,9,9,11,11,12,12],"right_children":[2,4,6,8,10,12,-1,14,16,18,-1,20,22,-1,-1,-1,-1,-1,-1,-1,-1,-1,-1],"split_conditions":[2.896963E1,2E0,-7.138639E1,-7.244639E1,2.746181E2,-1.3078284E-3,-6.867849E-2,3.762E3,2.5833399E1,5.547119E0,-5.5855025E-2,3.397705E0,2.9125952E2,-8.0505155E-2,-5.609299E-2,3.859082E-2,-6.4736485E-2,-4.658365E-2,5.169644E-2,-7.3350094E-2,3.2621913E-2,4.6869814E-2,1.13118915E-2],"split_indices":[33,5,1,1,9,23,0,13,33,25,0,26,17,0,0,0,0,0,0,0,0,0,0],"split_type":[0,0,0,0,0,0,0,0,0,0,0,0,0,0,0,0,0,0,0,0,0,0,0],"sum_hessian":[9.731521E2,5.35374E2,4.377781E2,2.9755078E2,2.3782321E2,4.2727753E2,1.0500572E1,5.062398E1,2.469268E2,2.1395489E1,2.1642773E2,3.783934E1,3.894382E2,1.4856038E1,3.5767944E1,2.2854306E2,1.8383747E1,2.9633033E0,1.8432186E1,1.8084703E1,1.9754637E1,2.8813364E2,1.0130456E2],"tree_param":{"num_deleted":"0","num_feature":"44","num_nodes":"23","size_leaf_vector":"1"}},{"base_weights":[2.792131E-1,-5.0878048E-2,3.9336026E-1,4.481414E-1,-6.415596E-2,-6.25682E-2,4.9825832E-1,-6.254179E-2,2.6881402E-2],"categories":[],"categories_nodes":[],"categories_segments":[],"categories_sizes":[],"default_left":[1,0,0,0,0,0,0,0,0],"id":60,"left_children":[1,-1,3,5,-1,-1,7,-1,-1],"loss_changes":[1.6406067E2,0E0,9.396773E1,8.4560486E1,0E0,0E0,6.663916E1,0E0,0E0],"parents":[2147483647,0,0,2,2,3,3,6,6],"right_children":[2,-1,4,6,-1,-1,8,-1,-1],"split_conditions":[2.9381787E2,-5.0878048E-2,9.969481E-1,1.4E1,-6.415596E-2,-6.25682E-2,6.4471334E-1,-6.254179E-2,2.6881402E-2],"split_indices":[15,0,30,7,0,0,30,0,0],"split_type":[0,0,0,0,0,0,0,0,0],"sum_hessian":[1.1046411E3,8.872801E1,1.015913E3,9.844767E2,3.1436354E1,2.7513195E1,9.569635E2,2.0388407E1,9.365751E2],"tree_param":{"num_deleted":"0","num_feature":"44","num_nodes":"9","size_leaf_vector":"1"}},{"base_weights":[2.212674E-1,-5.077034E-2,3.3093527E-1,4.8673722E-1,-2.5353232E-1,5.645685E-1,-1.4131258E0,-1.1725552E0,3.518744E-1,2.0085212E-2,5.459823E-2,-5.6846477E-2,-8.489948E-2,-7.696248E-2,-5.537994E-2,-5.8982074E-2,3.8667325E-2],"categories":[],"categories_nodes":[],"categories_segments":[],"categories_sizes":[],"default_left":[1,0,0,0,0,0,0,0,0,0,0,0,0,0,0,0,0],"id":61,"left_children":[1,-1,3,5,7,9,11,13,15,-1,-1,-1,-1,-1,-1,-1,-1],"loss_changes":[1.4167749E2,0E0,8.736228E1,1.1269539E2,1.1296305E2,6.2063705E1,4.3508148E-1,2.1418E-1,8.012838E1,0E0,0E0,0E0,0E0,0E0,0E0,0E0,0E0],"parents":[2147483647,0,0,2,2,3,3,4,4,5,5,6,6,7,7,8,8],"right_children":[2,-1,4,6,8,10,12,14,16,-1,-1,-1,-1,-1,-1,-1,-1],"split_conditions":[2.9381787E2,-5.077034E-2,2.835581E2,1.2E1,2.9845874E2,2.833855E2,2.9745996E2,3.2635014E1,3.841732E0,2.0085212E-2,5.459823E-2,-5.6846477E-2,-8.489948E-2,-7.696248E-2,-5.537994E-2,-5.8982074E-2,3.8667325E-2],"split_indices":[15,0,9,3,15,9,15,39,11,0,0,0,0,0,0,0,0],"split_type":[0,0,0,0,0,0,0,0,0,0,0,0,0,0,0,0,0],"sum_hessian":[1.0411611E3,8.413626E1,9.570249E2,7.557352E2,2.0128966E2,7.2666876E2,2.9066462E1,7.9567444E1,1.2172221E2,5.5656006E2,1.7010872E2,1.7291862E1,1.1774598E1,8.558131E0,7.1009315E1,2.588052E1,9.58417E1],"tree_param":{"num_deleted":"0","num_feature":"44","num_nodes":"17","size_leaf_vector":"1"}},{"base_weights":[1.5856822E-1,-5.0677057E-2,2.6870477E-1,-6.0828805E-1,3.8838652E-1,1.0490127E0,-1.3894644E0,5.657612E-1,-4.642489E-1,5.9403565E-2,-3.6516953E-2,-5.8239926E-2,-7.845243E-2,3.288954E-2,-2.8579518E-2,-5.639548E-2,3.053915E-2],"categories":[],"categories_nodes":[],"categories_segments":[],"categories_sizes":[],"default_left":[1,0,0,0,0,0,0,0,0,0,0,0,0,0,0,0,0],"id":62,"left_children":[1,-1,3,5,7,9,11,13,15,-1,-1,-1,-1,-1,-1,-1,-1],"loss_changes":[1.2222513E2,0E0,9.095775E1,1.363348E2,1.1537776E2,9.2667465E0,1.0465088E0,6.637421E1,9.459873E1,0E0,0E0,0E0,0E0,0E0,0E0,0E0,0E0],"parents":[2147483647,0,0,2,2,3,3,4,4,5,5,6,6,7,7,8,8],"right_children":[2,-1,4,6,8,10,12,14,16,-1,-1,-1,-1,-1,-1,-1,-1],"split_conditions":[2.9381787E2,-5.0677057E-2,3E0,-3.7834446E1,1.1E1,2.815833E2,3.5445557E0,2.8451782E2,2.41E1,5.9403565E-2,-3.6516953E-2,-5.8239926E-2,-7.845243E-2,3.288954E-2,-2.8579518E-2,-5.639548E-2,3.053915E-2],"split_indices":[15,0,3,0,3,9,11,9,37,0,0,0,0,0,0,0,0],"split_type":[0,0,0,0,0,0,0,0,0,0,0,0,0,0,0,0,0],"sum_hessian":[9.436961E2,8.035279E1,8.633433E2,1.0318095E2,7.601624E2,3.294461E1,7.0236336E1,6.295358E2,1.3062657E2,3.086479E1,2.0798197E0,3.452745E1,3.5708885E1,5.827998E2,4.673601E1,8.073587E1,4.9890705E1],"tree_param":{"num_deleted":"0","num_feature":"44","num_nodes":"17","size_leaf_vector":"1"}},{"base_weights":[1.7884806E-1,-1.3183594E0,2.6356083E-1,-5.900225E-2,-8.689817E-2,-5.049314E-2,3.703063E-1,-4.799019E-1,4.8418877E-1,-6.507327E-2,3.7850782E-2,4.7605626E-2,1.2297432E-2],"categories":[],"categories_nodes":[],"categories_segments":[],"categories_sizes":[],"default_left":[0,1,1,0,0,0,0,0,0,0,0,0,0],"id":63,"left_children":[1,3,5,-1,-1,-1,7,9,11,-1,-1,-1,-1],"loss_changes":[1.2072559E2,9.085617E-1,1.2259307E2,0E0,0E0,0E0,8.062614E1,1.011648E2,8.144902E1,0E0,0E0,0E0,0E0],"parents":[2147483647,0,0,1,1,2,2,6,6,7,7,8,8],"right_children":[2,4,6,-1,-1,-1,8,10,12,-1,-1,-1,-1],"split_conditions":[1.7E1,2.9135498E2,2.9381787E2,-5.900225E-2,-8.689817E-2,-5.049314E-2,-1.0869503E-3,2.9585376E2,2.8913135E2,-6.507327E-2,3.7850782E-2,4.7605626E-2,1.2297432E-2],"split_indices":[7,17,15,0,0,0,23,16,17,0,0,0,0],"split_type":[0,0,0,0,0,0,0,0,0,0,0,0,0],"sum_hessian":[9.4811017E2,4.9992027E1,8.981181E2,4.0465595E1,9.526434E0,6.880818E1,8.2930994E2,9.758194E1,7.3172797E2,5.860451E1,3.897743E1,2.4585387E2,4.8587415E2],"tree_param":{"num_deleted":"0","num_feature":"44","num_nodes":"13","size_leaf_vector":"1"}},{"base_weights":[1.6285858E-1,-9.107121E-2,7.1096116E-1,-1.116853E0,1.3012277E-1,8.744995E-1,-7.920061E-1,-5.2627273E-2,-6.769187E-2,3.403239E-1,-8.8231087E-1,9.100598E-1,-8.933356E-2,-2.1267025E0,4.8389018E-1,-1.691517E-2,3.165522E-2,-6.388395E-2,4.48752E-2,-1.0494687E-1,4.6498653E-2,-6.1758813E-2,-1.2667191E-1,-5.2082747E-2,4.888696E-2],"categories":[],"categories_nodes":[],"categories_segments":[],"categories_sizes":[],"default_left":[1,1,0,1,0,0,0,0,0,0,0,0,0,0,0,0,0,0,0,0,0,0,0,0,0],"id":64,"left_children":[1,3,5,7,9,11,13,-1,-1,15,17,19,-1,21,23,-1,-1,-1,-1,-1,-1,-1,-1,-1,-1],"loss_changes":[1.2893085E2,1.4391573E2,7.277382E1,2.8953552E-1,1.114185E2,2.6699463E1,5.0930336E1,0E0,0E0,8.626425E1,6.45108E1,1.7658157E1,0E0,2.1311874E0,1.2919149E1,0E0,0E0,0E0,0E0,0E0,0E0,0E0,0E0,0E0,0E0],"parents":[2147483647,0,0,1,1,2,2,3,3,4,4,5,5,6,6,9,9,10,10,11,11,13,13,14,14],"right_children":[2,4,6,8,10,12,14,-1,-1,16,18,20,-1,22,24,-1,-1,-1,-1,-1,-1,-1,-1,-1,-1],"split_conditions":[3.3347446E1,-9.397967E-4,3.827362E-1,2.8236542E1,2.9178735E2,9.96414E-1,2.1791653E2,-5.2627273E-2,-6.769187E-2,6.2E1,3.0195386E2,9.301573E-1,-8.933356E-2,-1.2414614E-3,3.0831958E2,-1.691517E-2,3.165522E-2,-6.388395E-2,4.48752E-2,-1.0494687E-1,4.6498653E-2,-6.1758813E-2,-1.2667191E-1,-5.2082747E-2,4.888696E-2],"split_indices":[40,23,21,40,17,30,42,0,0,4,15,28,0,23,8,0,0,0,0,0,0,0,0,0,0],"split_type":[0,0,0,0,0,0,0,0,0,0,0,0,0,0,0,0,0,0,0,0,0,0,0,0,0],"sum_hessian":[9.2489813E2,6.326379E2,2.9226022E2,1.1150179E2,5.211361E2,2.6395712E2,2.83031E1,9.19829E1,1.951889E1,4.3208966E2,8.9046455E1,2.611258E2,2.8313136E0,1.35069E1,1.47962E1,1.3018416E2,3.0190552E2,7.3091934E1,1.5954516E1,1.0303419E0,2.6009546E2,5.4963107E0,8.01059E0,3.3471835E0,1.1449017E1],"tree_param":{"num_deleted":"0","num_feature":"44","num_nodes":"25","size_leaf_vector":"1"}},{"base_weights":[2.0163167E-1,5.0440055E-1,-2.94386E-1,-5.925901E-2,6.033927E-1,-1.1632007E0,2.0933896E-1,6.7220277E-1,-5.7154726E-2,-5.573836E-2,-8.0850154E-2,-5.9720136E-2,5.6134796E-1,-7.638958E-2,3.573202E-2,4.0910237E-2,-5.822278E-2],"categories":[],"categories_nodes":[],"categories_segments":[],"categories_sizes":[],"default_left":[0,0,0,0,0,1,1,0,0,0,0,0,0,0,0,0,0],"id":65,"left_children":[1,3,5,-1,7,9,11,13,-1,-1,-1,-1,15,-1,-1,-1,-1],"loss_changes":[1.4283156E2,9.94525E1,1.5812311E2,0E0,6.786595E1,1.1107635E0,1.1392548E2,5.1301697E1,0E0,0E0,0E0,0E0,8.248558E1,0E0,0E0,0E0,0E0],"parents":[2147483647,0,0,1,1,2,2,4,4,5,5,6,6,7,7,12,12],"right_children":[2,4,6,-1,8,10,12,14,-1,-1,-1,-1,16,-1,-1,-1,-1],"split_conditions":[3.1E1,1.4E1,8E1,-5.925901E-2,4.323883E-1,3.0839307E2,0E0,6E0,-5.7154726E-2,-5.573836E-2,-8.0850154E-2,-5.9720136E-2,1.6E1,-7.638958E-2,3.573202E-2,4.0910237E-2,-5.822278E-2],"split_indices":[7,7,4,0,21,14,24,6,0,0,0,0,6,0,0,0,0],"split_type":[0,0,0,0,0,0,0,0,0,0,0,0,0,0,0,0,0],"sum_hessian":[9.4908856E2,5.893393E2,3.5974924E2,3.2010887E1,5.573284E2,1.3154825E2,2.2820099E2,5.367943E2,2.05341E1,1.21985435E2,9.562802E0,4.5272034E1,1.8292896E2,9.496358E0,5.27298E2,1.5968799E2,2.3240969E1],"tree_param":{"num_deleted":"0","num_feature":"44","num_nodes":"17","size_leaf_vector":"1"}},{"base_weights":[1.2949489E-1,2.920307E-1,-9.0616053E-1,-5.0173294E-2,3.6386585E-1,-5.628396E-2,6.735537E-1,4.1954377E-1,-6.3970245E-2,4.941602E-2,-5.6701876E-2,2.34118E-2,-5.5536367E-2],"categories":[],"categories_nodes":[],"categories_segments":[],"categories_sizes":[],"default_left":[0,0,1,0,0,0,0,0,0,0,0,0,0],"id":66,"left_children":[1,3,5,-1,7,-1,9,11,-1,-1,-1,-1,-1],"loss_changes":[1.4618633E2,7.016524E1,4.162094E1,0E0,6.562247E1,0E0,9.656712E0,5.1844643E1,0E0,0E0,0E0,0E0,0E0],"parents":[2147483647,0,0,1,1,2,2,4,4,6,6,7,7],"right_children":[2,4,6,-1,8,-1,10,12,-1,-1,-1,-1,-1],"split_conditions":[8.612274E-4,2.9403882E2,3.057771E2,-5.0173294E-2,2.931411E2,-5.628396E-2,1.5719604E-1,4.3493652E-1,-6.3970245E-2,4.941602E-2,-5.6701876E-2,2.34118E-2,-5.5536367E-2],"split_indices":[43,15,8,0,17,0,20,21,0,0,0,0,0],"split_type":[0,0,0,0,0,0,0,0,0,0,0,0,0],"sum_hessian":[8.6587317E2,7.4903723E2,1.1683591E2,3.8670624E1,7.1036664E2,1.0283349E2,1.400242E1,6.8780676E2,2.2559841E1,1.2311742E1,1.6906782E0,6.6726874E2,2.053803E1],"tree_param":{"num_deleted":"0","num_feature":"44","num_nodes":"13","size_leaf_vector":"1"}},{"base_weights":[2.4959223E-1,2.4865799E-2,8.104387E-1,-3.145245E-1,7.317665E-1,-7.0298165E-2,8.726209E-1,4.2946015E-2,-1.1611632E0,8.819101E-1,-7.323171E-2,-8.243994E-2,9.130657E-1,-4.0721018E-2,2.769344E-2,4.0889915E-2,-6.5643884E-2,4.78202E-2,-5.905388E-2,-7.680457E-2,4.746361E-2],"categories":[],"categories_nodes":[],"categories_segments":[],"categories_sizes":[],"default_left":[1,0,0,0,0,0,0,0,0,0,0,0,0,0,0,0,0,0,0,0,0],"id":67,"left_children":[1,3,5,7,9,-1,11,13,15,17,-1,-1,19,-1,-1,-1,-1,-1,-1,-1,-1],"loss_changes":[1.22006546E2,1.6631108E2,3.9393997E1,1.4181033E2,7.54412E1,0E0,2.9038834E1,1.4514175E2,4.2834305E1,3.3569214E1,0E0,0E0,2.507904E1,0E0,0E0,0E0,0E0,0E0,0E0,0E0,0E0],"parents":[2147483647,0,0,1,1,2,2,3,3,4,4,6,6,7,7,8,8,9,9,12,12],"right_children":[2,4,6,8,10,-1,12,14,16,18,-1,-1,20,-1,-1,-1,-1,-1,-1,-1,-1],"split_conditions":[3.452678E1,-3.496528E1,3.5743446E0,-7.239361E1,3.0652197E2,-7.0298165E-2,2E1,9.540842E-1,1.5657043E-1,2.9922485E-1,-7.323171E-2,-8.243994E-2,-3.7256943E1,-4.0721018E-2,2.769344E-2,4.0889915E-2,-6.5643884E-2,4.78202E-2,-5.905388E-2,-7.680457E-2,4.746361E-2],"split_indices":[40,0,41,1,14,0,4,30,20,20,0,0,0,0,0,0,0,0,0,0,0],"split_type":[0,0,0,0,0,0,0,0,0,0,0,0,0,0,0,0,0,0,0,0,0],